"[0.19435133039951324, -0.2683524191379547]","[1.1046388149261475, -2.621492385864258]","[0.06487961858510971, 0.2732826769351959]","[-0.821969747543335, -0.6651415228843689]","[-1.5088289976119995, 0.15143577754497528]","[-0.15061554312705994, -0.7936439514160156]","[0.0006631623255088925, 1.1538680155354086e-05]","[-1.2089802026748657, 0.44942328333854675]","[-0.7309477925300598, 0.8647496700286865]","[0.36655059456825256, 0.3963458836078644]","[2.1184282302856445, 0.43763116002082825]","[0.35770413279533386, 0.6371062397956848]","[1.632689118385315, -0.31636038422584534]","[0.11740374565124512, -0.16022562980651855]","[-0.3423285186290741, -0.7047557830810547]","[0.11129125952720642, -0.15749835968017578]","[-0.002274380996823311, -0.0014172883238643408]","[-1.227399468421936, -0.24085676670074463]","[0.18182902038097382, 0.5583063960075378]","[0.16522371768951416, -0.22503536939620972]","[0.20061984658241272, -0.13921025395393372]","[1.2789201736450195, 0.6655155420303345]","[0.38710328936576843, -0.5268673300743103]","[-1.0610102415084839, 0.40835416316986084]","[0.2250274270772934, -0.9580376148223877]","[-0.7323433756828308, -0.6514073014259338]","[-1.072858452796936, -2.219940185546875]","[-1.031659483909607, -1.062247395515442]","[-0.12428376078605652, 1.9210314750671387]","[0.07816582918167114, -0.05390987545251846]","[-1.5967241525650024, -0.5054653286933899]","[0.2943376302719116, -1.2531391382217407]","[0.3542248606681824, 1.004479169845581]","[0.0015952172689139843, 0.0010268473997712135]","[0.8083595633506775, -1.106402039527893]","[1.558068871498108, -0.3488699793815613]","[0.561903178691864, 0.9621244072914124]","[-1.851822018623352, 1.3650442361831665]","[-0.18367241322994232, 0.7973975539207458]","[-0.46116411685943604, 0.4402124285697937]","[0.09979397058486938, 0.39670103788375854]","[1.093033790588379, -0.5856894850730896]","[0.9147059917449951, -0.400464802980423]","[0.13635002076625824, 0.5740415453910828]","[1.207748532295227, -0.05711101368069649]","[-0.7230033278465271, 1.3028301000595093]","[-0.26527974009513855, -0.9580435156822205]","[0.2540905475616455, 0.59971022605896]","[2.2568657398223877, 1.3874703645706177]","[0.4926551878452301, 0.07166227698326111]","[1.449422001838684, -0.7531669735908508]","[-0.002797212917357683, -0.0020877376664429903]","[-0.00029232498491182923, -7.190676842583343e-05]","[0.3466323912143707, 0.8150826096534729]","[0.40508079528808594, -0.2815428674221039]","[-1.5001354217529297, -0.76213139295578]","[0.43967244029045105, -0.25390535593032837]","[0.13942810893058777, 0.20473305881023407]","[0.0005979531561024487, -0.0015010670758783817]","[0.0636298730969429, 0.08333379030227661]","[-1.9043447971343994, -0.636533260345459]","[0.20060329139232635, -0.2768288254737854]","[0.05150027945637703, -1.48884117603302]","[0.8339481353759766, -0.9784599542617798]"
"[0.0026147791650146246, -0.08864680677652359]","[0.05080721154808998, 0.36197713017463684]","[2.8602960109710693, -0.05108850076794624]","[0.07175569236278534, 0.5130532383918762]","[0.3202056288719177, -0.1260693520307541]","[-0.1056879311800003, 0.4713456630706787]","[0.907751739025116, 1.0047353506088257]","[0.08400429040193558, 0.25398069620132446]","[0.06597625464200974, 0.4688560962677002]","[-0.14624567329883575, 0.39849600195884705]","[-0.0028002888429909945, 0.0023292971309274435]","[-0.5847189426422119, 1.0252355337142944]","[0.3421851098537445, 0.2528958022594452]","[0.0058973017148673534, -0.20121029019355774]","[-1.1855648756027222, 1.7837053537368774]","[0.000741841911803931, 0.0057034981437027454]","[0.4892454147338867, 0.23987624049186707]","[-1.6367090940475464, 0.14692309498786926]","[0.569753885269165, 0.4217084050178528]","[0.524829089641571, 0.25709784030914307]","[1.3474552631378174, 2.0063538551330566]","[0.8131559491157532, 0.6042647957801819]","[0.40855541825294495, -0.16067057847976685]","[-0.02164461649954319, -0.05133415758609772]","[0.5221167802810669, -0.20528006553649902]","[0.7283031940460205, 0.2050483226776123]","[0.245803102850914, -0.10705777257680893]","[0.006003852467983961, -0.2112378180027008]","[0.0006482572644017637, -0.00012010637146886438]","[-1.550044059753418, 1.426581621170044]","[1.488214373588562, -1.414986252784729]","[0.08669473975896835, -0.037759434431791306]","[-0.0811418890953064, -0.19213581085205078]","[-0.14097951352596283, 0.6356338262557983]","[0.9450573325157166, -0.9426642060279846]","[0.018345674499869347, -0.669272243976593]","[1.5146980285644531, 0.6448760032653809]","[1.3287242650985718, 0.09057588875293732]","[1.0131118297576904, 0.5027443766593933]","[-1.775431752204895, -1.0727267265319824]","[2.323748826980591, -1.0197334289550781]","[-0.7350687980651855, -0.3454749882221222]","[0.9637118577957153, -2.1180801391601562]","[0.6947056651115417, 0.1685868352651596]","[-0.13127544522285461, 0.5302554368972778]","[-0.01380637101829052, -0.0327233262360096]","[0.008422156795859337, -0.29000717401504517]","[0.5522125959396362, -0.24014072120189667]","[0.36775556206703186, -1.2528626918792725]","[-0.055515747517347336, -0.13114921748638153]","[0.6734297275543213, 0.330843061208725]","[0.5152081251144409, -0.20263253152370453]","[-0.8158736824989319, -2.1710574626922607]","[0.8854676485061646, -0.03698943555355072]","[1.0375217199325562, -1.2016521692276]","[0.2563297152519226, 0.7648921012878418]","[0.03504769876599312, 0.24945808947086334]","[-0.008937458507716656, 1.3987853527069092]","[-2.068307638168335, -0.13948294520378113]","[0.474263072013855, 0.35183069109916687]","[-0.07887832075357437, -0.1862356960773468]","[-0.03147066757082939, -0.07430295646190643]","[0.20361508429050446, 0.10020256042480469]","[-0.002586578018963337, 0.0019729360938072205]"
"[-1.6611751317977905, -0.15550553798675537]","[-0.026429234072566032, 0.60154128074646]","[-0.1729736030101776, -0.48577451705932617]","[-1.6485838890075684, -0.9458423852920532]","[-0.49252569675445557, 0.3242861032485962]","[-0.11109521239995956, -2.0115795135498047]","[0.3592153489589691, -0.14708296954631805]","[0.001472010975703597, -0.0018244138918817043]","[1.2951879501342773, 1.210306167602539]","[0.1979558914899826, -0.0012761246180161834]","[-1.024325966835022, 0.3177211284637451]","[-0.9585793018341064, 0.5795790553092957]","[0.5934351682662964, -0.389832079410553]","[0.0020265502389520407, -0.0013281642459332943]","[1.0322860479354858, -2.4119908809661865]","[0.6391323804855347, -0.2590521574020386]","[0.014472619630396366, 0.20692293345928192]","[-1.298653244972229, -0.49528709053993225]","[0.41223734617233276, -0.16511422395706177]","[0.888900101184845, 1.1476013660430908]","[1.6375902891159058, 0.7783569693565369]","[0.5652453303337097, -0.43113040924072266]","[-0.06174779310822487, -0.17319317162036896]","[-0.48513761162757874, 0.31564638018608093]","[-0.09134431183338165, -0.256277859210968]","[0.4972725510597229, -0.19204550981521606]","[-0.00577892828732729, -0.015389063395559788]","[-1.5499731302261353, 0.32146015763282776]","[-0.003652836661785841, 0.0008041151450015604]","[-0.6620725393295288, 2.018045663833618]","[0.5235828757286072, -1.8049012422561646]","[0.3176848888397217, 1.1892659664154053]","[-0.5895311236381531, -0.10463991016149521]","[-1.6544102430343628, -0.05996866524219513]","[-0.017661262303590775, 0.536111056804657]","[-0.7532140016555786, -1.008966088294983]","[-0.011113242246210575, 1.1239460706710815]","[-0.4472687244415283, 0.0678068995475769]","[-0.09163826704025269, -0.10288481414318085]","[2.0804903507232666, -0.22399236261844635]","[-0.06306030601263046, -0.07093971967697144]","[1.2322674989700317, 0.2669360637664795]","[-1.2079073190689087, -0.39238858222961426]","[0.5267931818962097, 1.0320191383361816]","[2.354898691177368, 0.28245773911476135]","[-0.2646692097187042, -0.048373159021139145]","[1.1557106971740723, -1.291142225265503]","[1.4013445377349854, -0.6527125239372253]","[-0.8516122102737427, -2.070452928543091]","[-1.4002864360809326, 1.6550699472427368]","[-0.3999103009700775, 0.21785017848014832]","[0.9753653407096863, 0.558936595916748]","[-0.12448000907897949, -0.1397632509469986]","[-0.0011877837823703885, -0.003284083679318428]","[0.19538496434688568, -0.17676186561584473]","[-0.16566874086856842, -0.11996175348758698]","[-0.08513276278972626, -0.5817750692367554]","[-0.014880621805787086, -0.04105173051357269]","[1.0340638160705566, -0.4008931517601013]","[-0.8961846232414246, -1.4079591035842896]","[-0.011005338281393051, -0.02903805673122406]","[0.6436727046966553, -1.5853785276412964]","[0.0006141648045741022, 0.00028123840456828475]","[0.6392685770988464, 1.0763133764266968]"
"[-0.10114553570747375, -0.25208067893981934]","[1.5267629623413086, -0.1432829052209854]","[0.01749778911471367, -0.06944475322961807]","[1.807352066040039, -0.6726860404014587]","[-1.3941205739974976, -0.07055472582578659]","[-0.7897537350654602, 0.10021728277206421]","[0.14455905556678772, 0.2774306833744049]","[-1.4091145992279053, 0.011260571889579296]","[0.0271594300866127, 1.8141628503799438]","[0.3498280942440033, 0.5441796779632568]","[0.7808107733726501, -2.073655128479004]","[-1.3386569023132324, -2.3416693210601807]","[0.3039695918560028, 0.5762604475021362]","[-0.33759385347366333, -0.016941582784056664]","[0.15640760958194733, 0.29008275270462036]","[0.018544623628258705, -0.0737285241484642]","[-1.0655205249786377, 0.13039574027061462]","[2.327362537384033, 1.353365421295166]","[-0.10365266352891922, -0.26486286520957947]","[0.3261480927467346, 0.07912975549697876]","[0.013713506050407887, -0.054528575390577316]","[0.08520980924367905, 0.12832018733024597]","[-0.9551671147346497, -0.5772605538368225]","[-1.7910963296890259, 0.9011308550834656]","[0.023865018039941788, -0.09481029212474823]","[1.4208009243011475, 1.0559892654418945]","[-0.14494550228118896, -0.36204013228416443]","[-1.055738925933838, -0.3245576024055481]","[0.7011865973472595, 1.6004643440246582]","[-1.761783242225647, -0.4818858504295349]","[0.5854830145835876, -1.668699026107788]","[0.4434128701686859, 0.886364221572876]","[0.17629605531692505, 0.30335763096809387]","[0.12265715003013611, 0.23594358563423157]","[0.5629115700721741, 0.23648101091384888]","[-0.052173912525177, 0.7001574635505676]","[1.1661078929901123, -1.349481225013733]","[-1.8782061338424683, 1.4369405508041382]","[0.013028793036937714, -0.05178222432732582]","[0.455187052488327, 0.7805649638175964]","[-0.19775764644145966, -0.5579279065132141]","[0.020360425114631653, -0.08084595203399658]","[-0.2266494780778885, 0.04987749084830284]","[-0.15056367218494415, -0.41797345876693726]","[-1.0315830707550049, 1.507002830505371]","[-0.5511966347694397, 0.9030933976173401]","[-1.7360388040542603, -0.15966790914535522]","[-0.2419699728488922, -0.3676462173461914]","[-0.12504972517490387, -0.1906559020280838]","[1.699992299079895, 0.46633145213127136]","[0.011953708715736866, -0.0475098080933094]","[0.025089334696531296, -0.09956110268831253]","[0.015041577629745007, -0.059822775423526764]","[-0.6589503884315491, -0.20125578343868256]","[0.024347765371203423, -0.09673014283180237]","[0.3038331866264343, 0.12758713960647583]","[0.0009821028215810657, -0.0012919916771352291]","[0.009626644663512707, -0.03823838010430336]","[-0.0855708196759224, -0.226432204246521]","[-0.5894080400466919, 0.16431432962417603]","[0.001247189473360777, -0.006922203116118908]","[-0.48731371760368347, -1.9560998678207397]","[0.010906413197517395, -0.04335238039493561]","[0.40663042664527893, 0.1710500568151474]"
"[0.00037508824607357383, 0.001381448470056057]","[-0.7612825036048889, 0.694874107837677]","[0.5374059081077576, -0.10980556160211563]","[-1.4560250043869019, -1.1844642162322998]","[-0.36354953050613403, 1.3638423681259155]","[0.15950143337249756, 0.4095797836780548]","[0.5110163688659668, -0.17527399957180023]","[-2.0339348316192627, 1.5301567316055298]","[-0.0010426373919472098, 6.591305282199755e-05]","[0.17633359134197235, -0.31400325894355774]","[0.5112839341163635, -0.17612969875335693]","[0.8483983874320984, -0.9684809446334839]","[-0.5526667237281799, 0.9870392680168152]","[0.057465944439172745, -0.10128059983253479]","[0.7188739776611328, -1.400826096534729]","[2.8315370082855225, 0.2321871966123581]","[0.3596699833869934, 0.2282654047012329]","[-0.5810619592666626, -0.48053744435310364]","[1.050082802772522, 0.27395206689834595]","[-2.2159106731414795, 0.2727074921131134]","[0.34510862827301025, -1.7275099754333496]","[0.6154965758323669, 0.3921670615673065]","[0.10742384940385818, -0.1897633969783783]","[-0.04874749481678009, -0.1281239092350006]","[0.34889107942581177, -0.08905328810214996]","[0.13348053395748138, -0.09379896521568298]","[-0.2336854636669159, -1.5385080575942993]","[0.12739025056362152, -0.22421704232692719]","[1.1866041421890259, 0.9762477874755859]","[0.11750226467847824, 1.365416169166565]","[0.48131033778190613, 0.9496346116065979]","[1.1245357990264893, 1.6808327436447144]","[-0.5062975883483887, -0.4192550480365753]","[1.8827564716339111, 0.07941250503063202]","[0.7130086421966553, 0.4541638493537903]","[0.1572517603635788, 0.2901601791381836]","[-0.10988675057888031, -0.7361487150192261]","[-0.0012955766869708896, 0.0011003700783476233]","[0.7186416387557983, -0.8201261162757874]","[0.330290824174881, 0.21054750680923462]","[0.07413043081760406, 0.19074192643165588]","[0.7532073259353638, -0.28440240025520325]","[-0.37467578053474426, -0.30957332253456116]","[0.04865027219057083, -0.009322011843323708]","[0.5671312808990479, 0.013738660141825676]","[-0.5160688757896423, 0.5082349181175232]","[0.001088130404241383, -0.0026242427993565798]","[-0.9248576164245605, 1.613281488418579]","[0.3051368296146393, -0.21445144712924957]","[1.650497317314148, -0.5329112410545349]","[0.028674831613898277, -0.23327578604221344]","[-0.42442256212234497, -2.1586010456085205]","[0.06235121935606003, 0.16018575429916382]","[-0.002248916542157531, -0.0025906460359692574]","[0.11036298424005508, -0.19470541179180145]","[-0.07157997041940689, 1.2558590173721313]","[1.3658027648925781, -1.5685052871704102]","[0.02537774294614792, -0.20529554784297943]","[-1.995854139328003, -0.8342952728271484]","[0.1365697681903839, -0.2408212423324585]","[0.2974036931991577, -0.21037410199642181]","[0.10770817846059799, -0.18975630402565002]","[0.09867501258850098, -0.173753023147583]","[-1.6024950742721558, -0.4713972806930542]"
