num_tiles,noise,w1,b1,w2,b2
1,0.1,"[[[-0.37052956223487854, -0.8508201837539673], [0.19712716341018677, -0.7417516708374023], [1.1697834730148315, 0.23788438737392426], [0.9025949239730835, -0.09578676521778107], [-0.8447545170783997, 0.11977926641702652], [0.6614746451377869, 0.23145075142383575], [1.1499602794647217, -0.5584796071052551], [1.1320836544036865, 0.3351058065891266], [1.199044942855835, 0.206253319978714], [-0.8401859402656555, -0.07818111777305603], [0.4844558537006378, 1.1189125776290894], [0.11509044468402863, 1.1021041870117188], [1.1650688648223877, 0.32171431183815], [0.03479582443833351, -0.8032442927360535], [1.145677089691162, 1.2695475816726685], [1.1465528011322021, 1.1780506372451782], [-0.7706020474433899, 1.0900816917419434], [-0.8579102158546448, -0.8026341795921326], [-0.4353804290294647, -0.8710480332374573], [-0.012105409987270832, 1.177876353263855], [-0.8162244558334351, -0.8481703996658325], [1.164794921875, 1.1288979053497314], [1.1716272830963135, -0.40270984172821045], [0.598725438117981, -0.816130518913269], [0.8220072984695435, 0.557860255241394], [-0.7973460555076599, 0.5969863533973694], [1.0623676776885986, -0.7387202382087708], [-0.8520187735557556, 1.169338583946228], [-0.7288956642150879, 1.1331837177276611], [-0.8434917330741882, -0.32333531975746155], [-0.8522359132766724, -0.7427002787590027], [-0.5255658030509949, 1.2262365818023682], [-0.8235229849815369, 0.18307584524154663], [-0.8490797281265259, 0.3405575454235077], [-0.8118792772293091, 0.0703280046582222], [1.1207603216171265, -0.8322308659553528], [-0.6516450643539429, 0.27978092432022095], [0.2873479425907135, -0.8132150173187256], [-0.28930899500846863, -0.770035445690155], [0.9395745992660522, 0.22314123809337616], [1.1514554023742676, -0.8140571117401123], [1.1992566585540771, -0.07713563740253448], [-0.865892767906189, 1.0983840227127075], [-0.6569783687591553, -0.29628124833106995], [-0.8724650144577026, -0.3158484399318695], [-0.8120500445365906, -0.8829243183135986], [1.0910314321517944, 1.1473253965377808], [0.5299106240272522, -0.798433780670166], [0.420216828584671, 1.2156139612197876], [1.1630096435546875, -0.5130227208137512], [-0.6382777094841003, 1.1599019765853882], [-0.7998540997505188, 1.1668952703475952], [-0.858785092830658, -0.5064228773117065], [0.11667917668819427, -0.8756809830665588], [1.1434329748153687, -0.8300419449806213], [0.8125254511833191, 1.2054435014724731], [-0.8335307836532593, 0.09143377095460892], [1.0975269079208374, -0.755668580532074], [-0.634407103061676, -0.8137347102165222], [0.6044101119041443, -0.8450537323951721], [-0.03887965530157089, 1.1277377605438232], [-0.866832971572876, -0.8665939569473267], [0.5074833035469055, 1.1761006116867065], [1.1018283367156982, 0.37913626432418823]], [[-0.35300278663635254, 1.1254311800003052], [1.2801491022109985, -0.016322128474712372], [0.23808670043945312, -0.850030779838562], [1.068683385848999, -0.8834884762763977], [1.1299813985824585, -0.5030848979949951], [-0.8233314752578735, 0.5525370240211487], [-0.018519314005970955, 1.1783521175384521], [-0.8045260310173035, 0.9641400575637817], [1.0945247411727905, 0.11902807652950287], [-0.8309772610664368, 0.14098580181598663], [1.1470897197723389, -0.8682166337966919], [-0.8686581254005432, 0.2926865816116333], [1.2611507177352905, 0.10303490608930588], [0.3465665876865387, -0.7442164421081543], [1.1262348890304565, 0.050080787390470505], [1.206169843673706, 0.25170668959617615], [1.2103389501571655, -0.583574116230011], [-0.7843061089515686, -0.006818800698965788], [0.21110258996486664, 1.1909302473068237], [-0.618924081325531, 1.1866964101791382], [1.2990039587020874, 0.2234969437122345], [-0.858307957649231, 0.016490677371621132], [-0.1512451320886612, -0.8510909676551819], [-0.8541561365127563, -0.666167676448822], [1.1295819282531738, 0.4921644330024719], [1.186047077178955, -0.48288866877555847], [0.39023473858833313, -0.8345504403114319], [-0.6753923296928406, -0.8466235399246216], [1.2425287961959839, 1.2159196138381958], [-0.8306494355201721, -0.5609101057052612], [-0.6094796061515808, 1.139013409614563], [0.24592679738998413, 1.1036643981933594], [1.1432887315750122, 0.6429310441017151], [1.2948533296585083, 1.1622662544250488], [0.6040986776351929, 1.144858956336975], [0.5380138754844666, 1.1952224969863892], [-0.42195990681648254, -0.8405340909957886], [1.1115176677703857, 1.0616092681884766], [-0.31313279271125793, -0.8367037773132324], [0.47160014510154724, 1.1601566076278687], [1.1745009422302246, 0.3913602828979492], [-0.8474022150039673, 0.8477410078048706], [-0.7774507403373718, -0.8191770315170288], [-0.17076446115970612, 1.1333035230636597], [1.154479742050171, 0.5405052304267883], [-0.8621375560760498, -0.8007222414016724], [-0.8233166933059692, 1.1663155555725098], [1.1693414449691772, -0.5533326268196106], [-0.7429327964782715, -0.0042445058934390545], [1.2764531373977661, -0.07605381309986115], [1.277438759803772, -0.03804035484790802], [-0.8298072814941406, -0.18395152688026428], [-0.8848538994789124, -0.22172684967517853], [0.012516750954091549, -0.8107558488845825], [-0.08635569363832474, 1.069650411605835], [0.8112368583679199, -0.8227390646934509], [-0.2504631578922272, 1.2051976919174194], [-0.7321994304656982, 1.1760413646697998], [1.1188602447509766, -0.7355928421020508], [-0.8204666376113892, 0.5588656663894653], [-0.8273583650588989, -0.8108458518981934], [1.238186240196228, 1.2059121131896973], [1.194940447807312, 0.12059670686721802], [-0.8542997241020203, -0.1274951547384262]], [[-0.8490327000617981, -0.11930086463689804], [1.1471201181411743, -0.06982003152370453], [-0.08762262761592865, -0.8301870226860046], [0.052404411137104034, -0.8205070495605469], [0.18503311276435852, 0.9702641367912292], [1.1464046239852905, 0.21286335587501526], [0.78338223695755, 1.2698770761489868], [-0.4310370683670044, -0.8034129738807678], [-0.7673920392990112, 1.1159602403640747], [1.1593135595321655, -0.8372633457183838], [1.1538563966751099, -0.06223031133413315], [-0.8530347347259521, 1.127478837966919], [-0.8868839740753174, 1.1357944011688232], [0.31280019879341125, 1.177064061164856], [0.12037616968154907, 0.7900680303573608], [1.1419634819030762, 0.5392744541168213], [0.22845086455345154, -0.6955008506774902], [-0.8333741426467896, -0.24989910423755646], [0.5266680717468262, -0.8293965458869934], [-0.7139102220535278, 0.5479739308357239], [0.40609270334243774, -0.8857376575469971], [0.21423417329788208, -0.7887493968009949], [-0.46772778034210205, 1.2036516666412354], [-0.8199389576911926, -0.8256449103355408], [1.1241334676742554, 1.1685374975204468], [-0.8491629958152771, -0.6267375946044922], [1.2051267623901367, 1.1056631803512573], [1.2501589059829712, 0.761123538017273], [-0.8272174000740051, -0.8378818035125732], [-0.10867460072040558, -0.7970340251922607], [-0.48128584027290344, 1.1637355089187622], [-0.8299756050109863, -0.8213479518890381], [-0.8613412976264954, 0.3045397698879242], [1.0875763893127441, 0.15590761601924896], [-0.8614879846572876, 0.5448567867279053], [0.944214403629303, 0.04135604202747345], [-0.5841096043586731, 1.2298619747161865], [-0.8135125041007996, 0.2891441881656647], [-0.40180954337120056, 1.1978875398635864], [-0.8051648736000061, 0.22067275643348694], [-0.8169549703598022, 0.7428138256072998], [-0.2528792917728424, 1.203794002532959], [-0.8434151411056519, 0.17028188705444336], [-0.7677018642425537, 1.2255185842514038], [1.082149863243103, -0.2765304148197174], [0.5885316133499146, 1.2025710344314575], [0.26343226432800293, -0.835003674030304], [-0.08514798432588577, 1.149010181427002], [1.2743549346923828, -0.6045345664024353], [-0.8753151893615723, 1.16033935546875], [-0.2874952256679535, -0.8405184149742126], [1.2270565032958984, 0.8652044534683228], [1.119935393333435, -0.8623921871185303], [-0.7859216928482056, -0.05922207236289978], [-0.82823646068573, 0.008716804906725883], [1.213161587715149, 0.22651000320911407], [0.7539352178573608, -0.24419720470905304], [-0.29943668842315674, 0.7500554919242859], [0.06979318708181381, 1.2534732818603516], [1.086428165435791, -0.23364777863025665], [-0.7631124258041382, -0.7588277459144592], [-0.8047993183135986, 0.04217105358839035], [1.1182042360305786, -0.05209435150027275], [-0.8097902536392212, 0.5397416353225708]], [[-0.8695167303085327, 0.7852712869644165], [0.9809008836746216, 1.1645543575286865], [1.146041989326477, 0.23425978422164917], [0.38959330320358276, 1.1080845594406128], [-0.6231504678726196, 1.182587742805481], [0.45836341381073, -0.7584543228149414], [-0.853560745716095, 0.036626510322093964], [0.4457809627056122, 1.1621702909469604], [1.3196510076522827, 0.0724153071641922], [1.2349220514297485, -0.7716161608695984], [0.8290985226631165, -0.8508802652359009], [0.2776552438735962, 1.1118360757827759], [1.1743876934051514, 0.29322266578674316], [-0.720928430557251, 1.1967206001281738], [1.2359594106674194, -0.594829797744751], [-0.1682787835597992, -0.8102128505706787], [-0.8398914337158203, -0.26278969645500183], [1.1228570938110352, 0.14149168133735657], [-0.8280576467514038, -0.4882495403289795], [1.1703193187713623, 0.2584298849105835], [1.1445229053497314, 0.6940639615058899], [0.5466387867927551, 1.1919074058532715], [1.1942980289459229, 0.8891827464103699], [-0.35992521047592163, -0.8457481861114502], [1.1642965078353882, 0.7256615161895752], [1.2234938144683838, 0.482685923576355], [0.3384092450141907, 1.1797895431518555], [-0.7432736158370972, 0.3139238655567169], [-0.9521105289459229, -0.035956431180238724], [-0.8627533912658691, -0.13983477652072906], [0.22427880764007568, -0.8330197334289551], [-0.8356284499168396, 1.2076982259750366], [-0.2326027750968933, 1.2607101202011108], [1.2486889362335205, -0.5604298114776611], [-0.8567981123924255, 0.02033853903412819], [1.1372345685958862, 0.9977347254753113], [1.067136287689209, -0.6567481756210327], [1.1067854166030884, -0.8014006614685059], [-0.18070174753665924, -0.7809551358222961], [-0.6950486898422241, -0.8827687501907349], [-0.8426076769828796, -0.8642459511756897], [-0.10171733051538467, 1.1336781978607178], [0.9731631875038147, -0.4579233229160309], [-0.8115861415863037, -0.7652878761291504], [-0.8441891074180603, 0.884125828742981], [-0.8001405000686646, 0.2539706826210022], [1.2218067646026611, -0.666676938533783], [-0.778292179107666, 1.1856902837753296], [1.1818069219589233, -0.012491144239902496], [1.2374415397644043, -0.8163416385650635], [0.18863660097122192, -0.9283717274665833], [1.3104915618896484, 0.29146522283554077], [-0.6343634128570557, 1.1489392518997192], [-0.8140279650688171, -0.8351767063140869], [0.41964107751846313, -0.8466408252716064], [0.2137766182422638, -0.8137859106063843], [0.29299524426460266, 1.200057864189148], [-0.4426472783088684, -0.7869881987571716], [-0.7628326416015625, -0.7355074286460876], [-0.8325420618057251, 0.15892797708511353], [-0.8623546361923218, -0.41166895627975464], [-0.011837096884846687, -0.7594201564788818], [0.27162328362464905, 0.8931711912155151], [1.0965405702590942, -0.1150624081492424]], [[-0.8034361600875854, 0.6119554042816162], [-0.764614999294281, 0.19006136059761047], [-0.47449105978012085, -0.873553454875946], [0.5534464716911316, -0.8143952488899231], [-0.8251250982284546, 0.71375972032547], [-0.33841168880462646, -0.7017096877098083], [-0.4342271089553833, 1.1261250972747803], [0.44881030917167664, 1.0481767654418945], [-0.8517893552780151, -0.8566641211509705], [-0.8596587777137756, -0.182776540517807], [0.23543941974639893, 1.3114991188049316], [1.1240200996398926, -0.5970910787582397], [1.1659595966339111, 0.050018057227134705], [-0.8543657064437866, -0.22324733436107635], [-0.07225442677736282, 1.231778621673584], [1.156957745552063, 0.44153231382369995], [1.0972381830215454, -0.8521894812583923], [1.1547739505767822, 0.40252360701560974], [1.106866717338562, -0.0022122764494270086], [0.044188518077135086, 1.2211682796478271], [-0.8650916814804077, 0.08095428347587585], [1.1271367073059082, -0.11978202313184738], [1.2707250118255615, -0.22547301650047302], [1.1953167915344238, 0.9082479476928711], [-0.7283157706260681, 1.2919758558273315], [1.2361974716186523, 0.5828967690467834], [1.1937916278839111, 0.3921803832054138], [-0.7392860651016235, 1.2398874759674072], [0.8597902655601501, -0.8536361455917358], [-0.7971938848495483, 1.1449227333068848], [0.2746441066265106, -0.7986488938331604], [0.3924098610877991, -0.8484935164451599], [0.8374646902084351, 1.1812713146209717], [-0.8535451889038086, 1.2561938762664795], [-0.5645840167999268, 0.40131059288978577], [0.636601984500885, 0.9728493690490723], [0.8901692032814026, 0.22998596727848053], [-0.8650522828102112, 0.2114735096693039], [-0.8431804776191711, 0.1635008454322815], [1.2627325057983398, -0.26132306456565857], [-0.6775211691856384, -0.7972545027732849], [-0.16019579768180847, -0.8164604902267456], [-0.8432959318161011, -0.7346705794334412], [0.22559812664985657, 1.1845173835754395], [-0.4238603711128235, 0.9544704556465149], [0.6317470073699951, 0.2983332872390747], [0.6623993515968323, 0.987501859664917], [-0.7905118465423584, -0.16649024188518524], [-0.7725623250007629, 1.242148518562317], [-0.36223602294921875, 1.0683759450912476], [1.2116265296936035, 0.7079904675483704], [1.0184766054153442, -0.33338016271591187], [0.558589518070221, -0.8689906001091003], [1.0638351440429688, 1.0983532667160034], [1.1566734313964844, 0.008570866659283638], [1.1364916563034058, -0.8461384177207947], [0.809281051158905, 1.226609468460083], [0.40819239616394043, 1.128185749053955], [0.014164377935230732, -0.8278384804725647], [1.0902708768844604, -0.4629184901714325], [1.1456724405288696, -0.8229723572731018], [0.1591024547815323, 1.1741721630096436], [-0.8659951686859131, 0.3675667643547058], [1.1643729209899902, 1.233534574508667]]]","[[-0.6032848358154297, -0.46264272928237915, -0.8019773960113525, -0.17884361743927002, -0.6624237298965454, -0.08203563839197159, -0.5111299753189087, -0.4383886754512787, -0.7209185361862183, -0.6312530636787415, -0.6447245478630066, -0.26756200194358826, -0.8413712382316589, -0.1423446536064148, -0.5946781635284424, -0.1607876718044281, -0.5653109550476074, -0.28079503774642944, 0.10278673470020294, -0.3016829192638397, -0.76910400390625, -1.11931574344635, -0.13621145486831665, -0.27079567313194275, 0.09403404593467712, -0.7330262064933777, -0.3062903583049774, -0.8638290166854858, -0.7991499304771423, -0.3422360122203827, -0.46855372190475464, -0.5919960737228394, -0.6452268958091736, -0.10254055261611938, -0.278300017118454, -1.019766926765442, -0.3574078381061554, -0.5080772638320923, -0.5533620119094849, -0.41718947887420654, 0.20014998316764832, 0.10116006433963776, -0.5720001459121704, 0.2501590847969055, -0.6711335182189941, -0.4599008560180664, 0.24612805247306824, -0.5450195074081421, 0.4416358172893524, -0.54628586769104, 0.15235702693462372, -0.23036296665668488, -0.07664591819047928, -0.5608657598495483, -1.049870252609253, -0.8284760117530823, -0.4225366711616516, -0.1736602783203125, -0.14676591753959656, -0.5661406517028809, -0.2556515336036682, -0.8399605751037598, -0.8391391634941101, -0.3961406350135803], [-0.6086104512214661, 0.11581794172525406, -0.5226540565490723, -1.024688720703125, -0.9065607786178589, -0.12698853015899658, -0.833768367767334, -0.7753690481185913, -0.7302225232124329, -0.6629412770271301, -0.6857523322105408, -0.7105720043182373, -0.9145410060882568, -0.5228168368339539, -0.8908951282501221, -0.2403663992881775, -0.3191191256046295, -0.6132144331932068, -0.3222566246986389, -0.24258024990558624, -0.5497932434082031, -0.3267020881175995, -0.557033360004425, -0.07329094409942627, -0.8055315017700195, -0.9087960124015808, -0.4932962954044342, -0.3526451587677002, -1.156962513923645, -0.4272497594356537, -0.5702357888221741, 0.22187329828739166, -0.6920369863510132, -0.5652602910995483, -0.7045954465866089, -0.9445991516113281, -0.34207651019096375, -0.16848014295101166, -0.6154806017875671, -0.7434131503105164, -0.8769676089286804, -0.5272257328033447, -0.7543512582778931, -0.290316104888916, -0.46956774592399597, -0.823499321937561, -0.9019170999526978, -0.14139582216739655, -0.2548021376132965, -0.5547420978546143, -0.550178587436676, -0.6299770474433899, -0.4292031526565552, -0.259412556886673, -0.061669085174798965, -0.6415461301803589, -0.4360947012901306, -0.6005563735961914, -0.2866497039794922, -0.5981491804122925, -0.765895426273346, -1.303402304649353, -0.8318723440170288, 0.08335477113723755], [-0.38089680671691895, -0.814461350440979, -0.5610861778259277, -0.5117507576942444, -0.2656055688858032, -0.8883420825004578, -0.8459689617156982, -0.3489181697368622, -0.7947610020637512, -0.17231404781341553, -0.8108826875686646, -0.8533905148506165, -0.6042518615722656, -0.3578525185585022, 0.13271518051624298, -0.7853150963783264, 0.13583649694919586, -0.6320295929908752, -0.5138298869132996, -0.13181307911872864, -0.5243417620658875, -0.19381026923656464, 0.3621721565723419, -0.7905969023704529, -1.1476609706878662, -0.28460976481437683, -0.19272594153881073, -0.48372533917427063, -0.7716159820556641, -0.5400493144989014, -0.5622466802597046, -0.8059292435646057, -0.7149562835693359, -0.45570459961891174, -0.7820689082145691, 0.08943887799978256, -0.6309206485748291, -0.5600722432136536, -0.2781655490398407, -0.6902243494987488, -0.9104057550430298, -0.08534392714500427, -0.40180420875549316, -0.9067801237106323, -0.18068136274814606, -0.9607846140861511, -0.48210376501083374, -0.6050899028778076, -0.6480801701545715, -0.619117259979248, -0.3077023923397064, -0.11868694424629211, -1.0522334575653076, -0.08123474568128586, -0.2798648178577423, -0.4722539782524109, -0.1679215133190155, -0.02984311617910862, -0.3091064393520355, 0.09334868937730789, -0.4205630421638489, -0.649646520614624, -0.4656248390674591, -0.1252843141555786], [-0.7283676266670227, -1.0946176052093506, -0.7920970916748047, -0.4423057436943054, -0.2530539631843567, -0.5356318950653076, -0.30170738697052, -0.8973255157470703, -0.9857085943222046, -0.7337270975112915, -0.16880030930042267, -0.27834805846214294, -0.4890151619911194, -0.8485872745513916, -0.6558152437210083, -0.25957006216049194, -0.6710603833198547, -0.7904284596443176, -0.2582988739013672, -0.8230815529823303, -0.0501384511590004, -0.7397045493125916, -0.897332489490509, -0.3126228451728821, -0.5136489272117615, -0.16040606796741486, -0.8704144358634949, -0.6638087034225464, -0.4289209842681885, -0.07141231000423431, -0.5369974374771118, -0.6216829419136047, -0.3163328468799591, -0.1718897670507431, -0.6756501197814941, -0.4997732639312744, 0.1559346616268158, -0.3267332911491394, -0.15262165665626526, -0.7512326240539551, -0.772332489490509, -0.594674289226532, -0.23310591280460358, -0.7794775366783142, -0.9899855256080627, -0.6243678331375122, -1.0287600755691528, -0.6232826113700867, -0.5054605603218079, -1.0975801944732666, -0.5181165933609009, 0.09558527916669846, -0.2485673874616623, -0.048295166343450546, -0.576815128326416, -0.5169405937194824, -0.30456891655921936, -0.6140007972717285, -0.40371251106262207, -0.6694382429122925, -0.05740145221352577, -0.5958126783370972, -0.06468593329191208, -0.4768962860107422], [-0.7849924564361572, -0.3363312780857086, 0.10798998922109604, -0.5161795020103455, -0.8590693473815918, -0.16773225367069244, -0.2780552804470062, -0.7568162083625793, -0.777534544467926, -0.27392813563346863, -0.3958227336406708, 0.13314779102802277, -0.861901581287384, -0.6546528935432434, -0.313136488199234, 0.050077956169843674, -0.15353430807590485, -0.45333150029182434, -0.7601115107536316, -0.6087675094604492, -0.6736422777175903, -0.4571042060852051, -0.5330278277397156, -0.07295987010002136, -0.8305030465126038, -0.5093300342559814, -0.7620724439620972, -0.9459146857261658, -0.8936014175415039, -0.8386264443397522, -0.4713777005672455, -0.24769245088100433, -0.514950156211853, -0.6486762166023254, -0.08567459136247635, -0.16724050045013428, 0.05798719450831413, -0.4887176752090454, -0.3229007422924042, -0.12467138469219208, -0.6704142689704895, -0.5524039268493652, -0.43905606865882874, 0.3712122142314911, -0.1835351139307022, -0.16900481283664703, 0.39338260889053345, -0.6370052695274353, -0.5953406095504761, -0.5234915614128113, 0.07737188041210175, 0.08749231696128845, -0.5482693314552307, -1.0934069156646729, -0.18077565729618073, -1.0523403882980347, -1.101671576499939, -0.6850898861885071, -0.47809848189353943, -0.251059353351593, -0.14972566068172455, -0.10545364022254944, -0.08239036798477173, -0.9614160656929016]]","[[[0.41964277625083923, 0.2546161711215973, -0.16010285913944244, -0.5156844258308411, 0.12286261469125748, -0.11454961448907852, -0.00912274606525898, 0.2806571424007416, 0.2831689715385437, 0.472514808177948, 0.3459016680717468, -0.014328104443848133, -0.16639579832553864, 0.13314972817897797, 0.40341654419898987, 0.07985683530569077, 0.07656356692314148, -0.06245170533657074, -0.15476907789707184, 0.2858718931674957, 0.5244033336639404, -0.7972134947776794, -0.056704677641391754, -0.2789228856563568, -0.22608442604541779, -0.8230074644088745, -0.0341244712471962, -0.8220205903053284, -0.882037878036499, -0.200276181101799, -0.45421311259269714, 0.3646462559700012, 0.18574774265289307, 0.3825141191482544, 0.4138290584087372, 0.46070700883865356, -0.2743423283100128, 0.448108971118927, 0.35288137197494507, 0.3914320766925812, 0.07599911093711853, 0.24544580280780792, 0.07984260469675064, 0.11094328761100769, 0.3623485267162323, -0.25278735160827637, -0.13318130373954773, 0.389841228723526, -0.16444788873195648, 0.36743831634521484, -0.05350054055452347, 0.1380968987941742, 0.08367526531219482, 0.28745540976524353, 0.3359929621219635, 0.05590357258915901, -0.48530271649360657, 0.04552527517080307, 0.2146454006433487, 0.4127432405948639, 0.18630634248256683, 0.5849671363830566, -0.8617297410964966, 0.022289399057626724], [-0.8182917237281799, -0.8308780789375305, 1.1449838876724243, -0.03849592059850693, -0.8411258459091187, 0.3728242814540863, -0.4023333787918091, -0.5608131885528564, 0.5056515336036682, -0.7770312428474426, 0.8222896456718445, -0.40290215611457825, 1.1701805591583252, 0.5203340649604797, -0.4312022626399994, 0.570215106010437, 0.37952592968940735, 0.1843019276857376, 0.06575469672679901, -0.4040983021259308, -0.7355360984802246, 1.1307717561721802, 0.25764381885528564, 0.2536110281944275, -0.33967602252960205, -0.4875076413154602, 0.4802605211734772, 0.42961806058883667, 0.865429162979126, 0.2953203022480011, 0.15354904532432556, 0.5225698947906494, -0.7963477373123169, -0.2787518799304962, 0.5458435416221619, 0.9826879501342773, 0.5614221096038818, -0.8514198064804077, -0.8357309699058533, -0.5423210263252258, -0.2239382117986679, -0.1588754951953888, 0.29604828357696533, -0.008505718782544136, -0.8220704197883606, 0.3222373425960541, -0.25688549876213074, -0.7530304193496704, 0.24915453791618347, -0.7053929567337036, 0.1791267842054367, -0.14682084321975708, -0.236484095454216, -0.8354314565658569, 1.24441659450531, 1.1211485862731934, 0.3952433466911316, 0.5571168065071106, 0.16385845839977264, -0.8717589378356934, -0.5260084271430969, -0.8310405015945435, 1.138473391532898, -0.5007660388946533], [0.34228581190109253, 0.2542038559913635, -0.8419797420501709, -0.061262622475624084, 1.193514108657837, -0.05132150277495384, 0.07231596857309341, 0.2878504693508148, -0.7767564654350281, 1.2487726211547852, -0.8803086876869202, 0.17187641561031342, -0.7898425459861755, 0.18480505049228668, 0.1840372085571289, 0.29193413257598877, -0.727003276348114, -0.2700384259223938, 0.18771491944789886, 0.19641733169555664, 0.3176132142543793, -0.7970550656318665, -0.11368907988071442, 0.04789408668875694, -0.3388541042804718, 1.088118553161621, 0.30534595251083374, 0.7098449468612671, 0.626944899559021, -0.22952455282211304, -0.0736318975687027, -0.7213050723075867, 0.697040855884552, 0.19195690751075745, 0.03730414807796478, -0.7263020277023315, 0.07809117436408997, 0.31340664625167847, 0.1850721389055252, 0.047226570546627045, -0.20324113965034485, 0.21061460673809052, -0.24262434244155884, 0.18936049938201904, 0.14159929752349854, 0.05012253299355507, -0.290723592042923, 0.09988480806350708, 0.19654054939746857, 0.2657994031906128, -0.2910119593143463, 0.4722810983657837, 0.05141390860080719, 0.04131048917770386, -0.7839961647987366, -0.8121033310890198, 0.19282490015029907, 0.15112046897411346, -0.05306389927864075, 0.08770725131034851, 0.21100246906280518, 0.1975426822900772, -0.8090561628341675, 0.253167986869812]], [[-0.4211313724517822, 0.24462664127349854, 0.29699474573135376, 0.5621081590652466, 0.297365665435791, 0.3592883050441742, -0.8212807774543762, -0.837909996509552, 0.19803154468536377, 0.39714550971984863, 0.19598373770713806, 0.6313813924789429, -0.12806956470012665, 0.3278602063655853, -0.7666876316070557, -0.18492090702056885, -0.14567098021507263, 0.6652722358703613, 0.1015707477927208, -0.10376783460378647, 0.43529343605041504, 0.09257269650697708, 0.853960394859314, 0.27021294832229614, 0.21740314364433289, 0.32502827048301697, 0.4253430962562561, 0.09403806179761887, -0.2548847496509552, 0.04087521508336067, 0.023753536865115166, -0.029862429946660995, -0.055345188826322556, 0.25704020261764526, 0.2703527510166168, -0.8376935720443726, -0.20499880611896515, -0.3475874662399292, 0.595798134803772, 0.077926866710186, 0.33820629119873047, -0.18369963765144348, 0.6847507953643799, 0.04495789855718613, 0.15027214586734772, 0.5385769605636597, -0.8443078398704529, -0.13883636891841888, 0.11527299135923386, 0.012963393703103065, 0.07449289411306381, 0.40666794776916504, -0.6367079019546509, -0.4272517263889313, -0.19111043214797974, 0.12377309799194336, 0.3830307722091675, 0.1936488300561905, -0.2817174196243286, -0.7744249701499939, 0.40465375781059265, -0.9345343112945557, 0.2678145468235016, 0.004823985509574413], [0.40802478790283203, -0.2734922766685486, -0.8003869652748108, 0.9656388163566589, 1.2739933729171753, -0.07721798121929169, 0.765760600566864, 0.3849145174026489, 0.7411966919898987, -0.8607993721961975, -0.6895067691802979, -0.7977855801582336, 1.1891067028045654, -0.8429310917854309, 1.136819839477539, 0.017921732738614082, 0.4396362602710724, -0.8445261120796204, -0.49786242842674255, -0.5325443148612976, -0.6017194390296936, 0.45314764976501465, -0.774128794670105, -0.2701989412307739, 0.6086559295654297, 0.9427283406257629, -0.815814197063446, 0.48734480142593384, 1.1122889518737793, 0.7063928246498108, 0.2010658234357834, 0.29620951414108276, -0.11477693915367126, -0.4832790791988373, 0.5678746104240417, 1.1666606664657593, 0.33554449677467346, 0.3957483470439911, -0.8443543314933777, 0.7119066119194031, 1.1592668294906616, 0.21531160175800323, -0.853378176689148, -0.5562238693237305, -0.5136607885360718, -0.8590856790542603, 0.38313114643096924, 0.3478008806705475, 0.22293657064437866, -0.8277221322059631, -0.6328404545783997, -0.7817744612693787, 0.28103193640708923, 0.2632823586463928, -0.018680313602089882, -0.7573741674423218, -0.19170336425304413, 0.4574525058269501, 0.13608412444591522, 0.19034747779369354, -0.7789945006370544, 1.1448702812194824, 1.1265933513641357, 0.32778245210647583], [-0.7706002593040466, 0.10429934412240982, 0.04793320968747139, -0.531608521938324, -0.8276058435440063, 0.3916560113430023, 0.3531493842601776, 0.7089341878890991, -0.7421686053276062, 1.146631121635437, 0.22085897624492645, 0.8947916626930237, -0.8408713340759277, 0.007111582905054092, -0.9005129337310791, 0.012991230003535748, 0.15895448625087738, 1.124149203300476, 0.27034109830856323, 0.018633387982845306, 0.37986233830451965, -0.19630135595798492, 0.6449547410011292, 0.06717457622289658, -0.7770064473152161, -0.8559804558753967, 0.31528377532958984, 0.05917815491557121, -0.8482721447944641, 0.3329114317893982, -0.4995555877685547, -0.15129022300243378, -0.5800648331642151, 0.18185485899448395, -0.7272732257843018, -0.5664237141609192, 0.08504234999418259, -0.16196343302726746, 0.31033918261528015, -0.7798250913619995, -0.875237226486206, -0.6477964520454407, 0.5386793613433838, 0.022836970165371895, 0.2754191756248474, 0.2846795916557312, 0.8840171098709106, -0.2213864028453827, -0.33551260828971863, 0.0654057189822197, 0.11238835006952286, 0.6004596948623657, 0.03727126866579056, -0.16664615273475647, 0.06046944856643677, 0.06407750397920609, -0.06929314881563187, -0.3228723406791687, -0.19632349908351898, 0.8350840210914612, 0.2748834788799286, -0.2513648569583893, -0.8511415123939514, 0.05503055453300476]], [[-0.25786054134368896, 0.10340423136949539, 0.3259623050689697, 0.29367393255233765, 0.09098706394433975, -0.7573987245559692, 0.18446888029575348, -0.3114343285560608, -0.7948858737945557, -0.007038630545139313, 0.08226270228624344, -0.7803975343704224, 0.12688703835010529, 0.1884542554616928, -0.01968800090253353, 0.24674521386623383, -0.11896660923957825, 0.6073775887489319, 0.21548447012901306, 0.17249569296836853, 0.1090802252292633, -0.2740372121334076, -0.33226147294044495, 0.44297441840171814, -0.7784706950187683, 0.20186391472816467, -0.18029551208019257, 0.30230075120925903, 0.3517305254936218, 0.6157217621803284, 0.2194926142692566, 0.3820105493068695, -0.6277450919151306, 0.17796185612678528, -0.8537852168083191, 0.1271965503692627, 0.43250682950019836, -0.7334843873977661, 0.05295952036976814, -0.1730092167854309, -0.4769463837146759, -0.07202086597681046, -0.11487483978271484, -0.8457925915718079, -0.23388542234897614, -0.8295783996582031, 0.3042851686477661, 0.011471619829535484, -0.010986307635903358, 0.14356456696987152, -0.23665958642959595, -0.19005517661571503, 0.6209140419960022, 0.33729076385498047, 0.1683567613363266, 0.07886436581611633, -0.18453189730644226, 0.10748981684446335, 0.2323157638311386, 0.10470595210790634, 0.07496479153633118, 0.2861934006214142, 0.25556838512420654, 0.09484563022851944], [0.551462709903717, 1.23395836353302, -0.841090738773346, -0.7652285695075989, -0.5223276615142822, 1.156907320022583, 1.1193010807037354, 0.18004852533340454, 0.5449104905128479, 0.7520670890808105, 0.6816702485084534, 0.3570983409881592, 0.23358744382858276, -0.2928278148174286, 0.13656550645828247, 1.057270884513855, -0.38689228892326355, -0.8618219494819641, -0.7487322092056274, -0.33378034830093384, -0.8369969129562378, 0.26239457726478577, -0.07720385491847992, -0.788105845451355, 1.2073695659637451, 0.3881455063819885, -0.0035357335582375526, -0.1686633676290512, -0.8703370094299316, -0.8233557343482971, 0.20324774086475372, -0.8128527998924255, -0.2913172245025635, -0.5816088318824768, -0.6228712797164917, -0.2395346760749817, 0.6485000252723694, 0.3164461553096771, -0.5426060557365417, -0.8547646999359131, -0.48343804478645325, 0.04667045921087265, 0.5426374077796936, 0.34057310223579407, 0.2568914592266083, 1.2172050476074219, -0.826143741607666, 0.5072289109230042, -0.8190457224845886, 0.4500742256641388, 0.18225453794002533, 0.2201932817697525, 1.3043701648712158, -0.2275654375553131, 0.5077416896820068, -0.755402147769928, 0.3791968524456024, 0.2641279399394989, -0.4308493137359619, -0.3023203909397125, 0.6055194735527039, -0.8117096424102783, -0.5049337148666382, -0.2556266188621521], [0.01723993755877018, -0.8720671534538269, -0.07230088859796524, 0.00620876532047987, 0.12019500881433487, -0.824284017086029, -0.8013381361961365, 0.016868729144334793, 0.21515928208827972, -0.055326104164123535, -0.7847967147827148, 0.3655942678451538, -0.3585421144962311, 0.1658204197883606, -0.24045589566230774, -0.8441373705863953, -0.0643254742026329, 0.9374002814292908, 0.05533634126186371, -0.09860432147979736, -0.0060021840035915375, -0.08908695727586746, -0.15927812457084656, 0.264227032661438, -0.7954632639884949, -0.11163370311260223, -0.029932519420981407, 0.3646332323551178, 0.34078195691108704, 0.2801981568336487, -0.37783083319664, 0.2089807093143463, 0.7210624814033508, 0.057236574590206146, 0.9668349623680115, -0.057256605476140976, -0.27782776951789856, 0.752997636795044, 0.0321350172162056, 1.1006486415863037, 1.0127443075180054, 0.1683519184589386, 0.05460243299603462, 0.818238377571106, -0.0486324317753315, -0.5779513120651245, 0.11502615362405777, -0.5886344313621521, -0.0487239733338356, -0.26709282398223877, 0.0031104348599910736, -0.204372838139534, -0.7906655073165894, 0.21577557921409607, -0.24298499524593353, 0.04592886194586754, 0.18174779415130615, 0.10638374090194702, 0.19020263850688934, 0.10133565217256546, 0.3483516573905945, 1.1597075462341309, 0.3189449906349182, 0.2859960198402405]], [[-0.8049512505531311, -0.8378899693489075, 0.06485430896282196, 0.2864246070384979, 0.06650417298078537, 0.45168963074684143, -0.16016195714473724, -0.786099374294281, -0.5317144393920898, 0.1837664097547531, -0.06062019616365433, 0.05608644708991051, 0.15248732268810272, -0.8525575399398804, 0.2888321876525879, -0.25656354427337646, 0.5162969827651978, 0.18951837718486786, 0.2976408004760742, 0.06552468240261078, 0.09776618331670761, 0.28369882702827454, 0.1513974666595459, -0.35529088973999023, 0.11656101793050766, -0.3356054425239563, -0.8019878268241882, 0.21260526776313782, -0.1496724635362625, -0.009863992221653461, 0.15688541531562805, 0.29086434841156006, 0.028937751427292824, -0.08261498808860779, 0.37786194682121277, -0.03750067204236984, 0.14052091538906097, -0.23839159309864044, 0.17886818945407867, 0.45848673582077026, 0.06535646319389343, 0.06262591481208801, -0.13531002402305603, 0.4169265031814575, 0.2526797652244568, -0.7896812558174133, 0.2850077748298645, 0.12327437847852707, 0.17022915184497833, 0.40083134174346924, 0.13140928745269775, 0.26387354731559753, 0.07699915766716003, -0.0189580786973238, 0.5483852028846741, 0.2326141595840454, 0.20305335521697998, 0.40078967809677124, -0.4197595417499542, 0.09108631312847137, 0.1437738686800003, 0.5102671980857849, -0.36536017060279846, 0.39794057607650757], [0.13372819125652313, 1.1861952543258667, 0.8458849787712097, -0.13010814785957336, -0.2551610469818115, -0.8052076101303101, 0.2641304135322571, 1.1367387771606445, 1.0703175067901611, -0.4522634744644165, 0.2641671895980835, -0.2912675440311432, -0.3436059057712555, 0.5307303667068481, -0.7547898292541504, 0.5058420300483704, -0.8714697957038879, 0.9091070890426636, 0.39130207896232605, 1.2479209899902344, 0.4582175016403198, 1.140467643737793, 1.2098530530929565, 0.24103263020515442, -0.6397551894187927, 0.23748867213726044, 0.4597194492816925, -0.8771015405654907, 0.7710482478141785, -0.2798978090286255, -0.9024674296379089, 0.6280046701431274, -0.4546786844730377, 0.3556448519229889, -0.793388307094574, -0.5668903589248657, -0.34249261021614075, 0.22443993389606476, 0.33607614040374756, -0.7759494185447693, -0.8568194508552551, 0.3927391469478607, 0.3087404668331146, -0.8513978123664856, -0.9095231890678406, -0.2005324512720108, 1.122498631477356, 0.44969677925109863, -0.6181294322013855, 1.236581563949585, -0.8782622814178467, -0.14169155061244965, 0.023812657222151756, -0.23062390089035034, -0.8337194323539734, -0.8498145341873169, -0.14799727499485016, -0.7854715585708618, 0.3917433023452759, -0.641599714756012, -0.1323002427816391, -0.8040431141853333, 0.1483275443315506, -0.4845059812068939], [0.4308062791824341, -0.7842013835906982, -0.764508068561554, 0.14192350208759308, 0.26019665598869324, 0.27709972858428955, -0.4691913425922394, -0.5649405121803284, -0.84855717420578, 0.15756025910377502, -0.1682395339012146, 0.14256344735622406, 0.1349686235189438, 0.4594007134437561, 0.23131063580513, -0.09968440234661102, 0.925998866558075, -0.8092347979545593, 0.01885928399860859, -0.8389281630516052, -0.031216684728860855, -0.8815522193908691, -0.9045162200927734, -0.0563458651304245, 0.14899832010269165, -0.11509880423545837, -0.09241284430027008, 0.9116397500038147, 0.19795753061771393, -0.0665946751832962, -0.08518224954605103, -0.42954105138778687, -0.042607828974723816, -0.16071316599845886, 0.27380767464637756, 0.12295205146074295, 0.15755686163902283, 0.10314184427261353, -0.05644668638706207, 0.2726166546344757, 0.07644706219434738, -0.7059334516525269, 0.19198179244995117, 0.31185877323150635, 1.2134218215942383, 0.7507561445236206, -0.7814638018608093, -0.37014785408973694, 0.16397811472415924, -0.7913686037063599, 0.1871715486049652, 0.14307524263858795, 0.07680434733629227, 0.027159472927451134, 0.13533006608486176, 0.07034990191459656, 0.3080502450466156, 0.18680521845817566, -0.04544289782643318, 0.8541343212127686, 0.15073034167289734, -0.00814075767993927, -0.2335136979818344, 0.2855013906955719]], [[-0.759965181350708, 0.10876119136810303, -0.15992601215839386, 0.2870066165924072, -0.013029104098677635, 0.019499069079756737, 0.2140026092529297, -0.8683972954750061, 0.42350471019744873, -0.01963016763329506, 0.10262680798768997, 0.25741827487945557, -0.33798331022262573, 0.501330554485321, 0.3941441476345062, 0.006419634912163019, -0.020111124962568283, 0.18187211453914642, 0.08630430698394775, 0.07515720278024673, 0.28608328104019165, 0.20484620332717896, 0.24335084855556488, 0.20109061896800995, -0.8542481064796448, 0.5026294589042664, 0.4735633432865143, -0.8225443959236145, 0.7571985125541687, -0.841883659362793, 0.5458467602729797, -0.4450264871120453, 0.2020227015018463, 0.21526169776916504, 0.19486021995544434, -0.2751869261264801, -0.012830343097448349, -0.8246456980705261, -0.30387794971466064, -0.1800452470779419, 0.3332221210002899, 0.6155306696891785, -0.2633105218410492, -0.14033208787441254, -0.24308694899082184, 0.31145185232162476, -0.11196348071098328, 0.13288308680057526, 0.48738086223602295, 0.053417790681123734, 0.09977764636278152, -0.009517906233668327, 0.3927572965621948, -0.8327905535697937, 0.0022677513770759106, 0.34994107484817505, -0.8167155385017395, -0.011483545415103436, 0.3754716217517853, -0.23430179059505463, 0.0325799398124218, -0.27822303771972656, 0.21167658269405365, 0.2651045024394989], [-0.8219143152236938, 0.4549519419670105, 0.19350343942642212, -0.8368142247200012, -0.8202705979347229, 0.21612495183944702, -0.5046104788780212, 1.1447805166244507, -0.7924367189407349, 0.15857183933258057, -0.860267698764801, -0.020879918709397316, 1.1303273439407349, -0.9074980616569519, -0.5253949165344238, -0.2905050218105316, 0.2661787271499634, -0.5275419354438782, 1.078253984451294, 0.18438442051410675, -0.8272104263305664, -0.4544796943664551, -0.5243476629257202, 0.659768283367157, 0.4501103162765503, -0.5241990685462952, 1.0249109268188477, 0.39993414282798767, 0.21225182712078094, 0.6268960237503052, -0.7368485331535339, 0.20850294828414917, -0.5441158413887024, 0.5649105906486511, -0.15460579097270966, 0.008847963064908981, -0.36695802211761475, 0.2335612028837204, 0.14809730648994446, 0.2065124660730362, -0.8392820358276367, -0.8144108057022095, 0.33835384249687195, 0.33106157183647156, -0.46050578355789185, 0.30377644300460815, 0.23349244892597198, -0.8079828023910522, 0.6199327111244202, 0.378750205039978, -0.1567193567752838, -0.25144606828689575, -0.6587927937507629, 1.0803260803222656, 0.365699827671051, 1.1859086751937866, 1.1493778228759766, 1.1171342134475708, -0.7670087218284607, 0.29534009099006653, 0.3493991792201996, 0.13065946102142334, -0.19075818359851837, 0.8775175213813782], [1.0601216554641724, 0.15321655571460724, 0.13102123141288757, 0.2447187304496765, 0.7332044839859009, -0.19096960127353668, 0.05268409103155136, -0.7339471578598022, 0.3734707832336426, -0.34064415097236633, -0.030222473666071892, 0.2722252607345581, -0.7636827230453491, 0.5884670615196228, 0.26513686776161194, -0.08399485051631927, -0.12595389783382416, 0.3195389211177826, -0.7650851011276245, -0.703163206577301, 0.6670084595680237, 0.3039241135120392, 0.2760809361934662, 0.09719705581665039, -0.431315541267395, 0.3497850298881531, -0.7895633578300476, 1.2155824899673462, -0.5477002263069153, 0.38974329829216003, 0.41603079438209534, -0.12661398947238922, -0.003212188370525837, -0.00031482940539717674, 0.17268769443035126, 0.08738826960325241, 0.1738348752260208, 0.1846550852060318, -0.4464595913887024, -0.2186967432498932, 0.22410768270492554, 0.17660556733608246, -0.015899570658802986, 0.037513166666030884, 0.03010684624314308, 0.4945158362388611, -0.02843260020017624, 1.261658787727356, -0.2876286208629608, -0.46131935715675354, -0.15443560481071472, -0.06537964940071106, 0.2918562591075897, -0.7902085185050964, 0.25469282269477844, -0.8528177738189697, 0.1407361924648285, -0.8660076856613159, 0.2665448486804962, 0.16523925960063934, -0.08506884425878525, 0.007436313200742006, 0.07359817624092102, -0.8488372564315796]]]","[[0.0432874895632267, -0.017217151820659637, -0.02607078105211258], [-0.004442674107849598, -0.030798278748989105, 0.03523893654346466], [0.004123759921640158, 0.009602281264960766, -0.013727495446801186], [-0.05026248097419739, 0.0687512680888176, -0.018490970134735107], [0.12472464144229889, -0.12116064876317978, -0.0035644799936562777]]"
4,0.1,"[[[-0.4860692024230957, 1.0381498336791992], [-0.5295370817184448, 0.3752470910549164], [-0.10814722627401352, -0.7865845561027527], [-0.2153676450252533, 0.8229333758354187], [0.1314614862203598, 0.7336417436599731], [1.22652006149292, -0.6676729917526245], [-0.005507566966116428, 1.2305485010147095], [-0.7822425961494446, -0.8724424839019775], [0.36070504784584045, -0.8379217386245728], [0.7945406436920166, -0.8387808799743652], [-0.30044201016426086, 1.1542835235595703], [0.3414829969406128, -0.8519401550292969], [-0.8839176297187805, -0.1836203783750534], [0.3914453983306885, -0.8251380920410156], [-0.8428517580032349, -0.6721475124359131], [-0.8175889253616333, -0.8605089783668518], [-0.8332547545433044, -0.21946600079536438], [-0.8105946779251099, 0.5747510194778442], [1.1742453575134277, -0.5589206218719482], [1.1294937133789062, -0.8468824028968811], [0.14012891054153442, -0.8338366746902466], [1.2049152851104736, 0.3925744295120239], [0.014727635309100151, 0.20762357115745544], [-0.8436262011528015, 0.2710440158843994], [-0.11079342663288116, -0.8095218539237976], [-0.3076621890068054, -0.8391854166984558], [1.1809840202331543, 0.4260025918483734], [1.1911139488220215, -0.08252039551734924], [-0.7772185802459717, 1.1742902994155884], [1.097746729850769, 1.2067418098449707], [0.29446032643318176, 1.155412197113037], [-0.8107134103775024, 0.07874512672424316], [1.2407516241073608, 0.5284178853034973], [0.5807814002037048, 1.1864913702011108], [1.1296274662017822, 0.04354504123330116], [1.0845495462417603, 1.1159309148788452], [-0.8276020288467407, -0.005353632383048534], [-0.8586925864219666, 0.24398306012153625], [0.8193947076797485, -0.6075399518013], [-0.8337889313697815, 0.5433987975120544], [-0.8138923645019531, -0.8419128060340881], [1.1814486980438232, 1.059729814529419], [1.034372329711914, 0.9025057554244995], [1.1995805501937866, 0.9763873815536499], [-0.8186385631561279, 0.5283907651901245], [0.22986432909965515, 0.47851553559303284], [-0.8326431512832642, 1.1401031017303467], [-0.3112754821777344, 1.1458709239959717], [-0.8326873779296875, 0.47763440012931824], [-0.8044773936271667, 0.15333615243434906], [0.11348096281290054, 1.162765622138977], [-0.8437649011611938, 1.1224339008331299], [0.5550394058227539, 1.199143886566162], [-0.8614469766616821, -0.8435269594192505], [1.1682875156402588, 1.1795430183410645], [1.2205321788787842, -0.38311073184013367], [-0.4368249475955963, -0.8390680551528931], [0.8143151998519897, -0.8090158700942993], [0.12764759361743927, 1.0790594816207886], [-0.8395829200744629, 1.1662564277648926], [-0.8274177312850952, 0.1233089342713356], [-0.3590456545352936, -0.8811659812927246], [1.1246782541275024, -0.8062448501586914], [1.167954921722412, 1.1440768241882324]], [[1.1388537883758545, -0.8570202589035034], [-0.2764018177986145, -0.841598629951477], [1.098809838294983, -0.8510652184486389], [0.2955794334411621, -0.6537980437278748], [0.3008524179458618, 0.335552453994751], [0.8189272284507751, -0.2643163800239563], [-0.8583369255065918, 0.03894156217575073], [1.2143949270248413, 0.11994205415248871], [0.6311721801757812, 1.1943070888519287], [1.1938709020614624, 0.1315089762210846], [-0.8131539225578308, -0.8219231367111206], [0.4241982102394104, -0.8106160163879395], [0.3041922450065613, -0.5136150121688843], [1.1928021907806396, -0.12439275532960892], [-0.5168343186378479, 1.1820008754730225], [0.561888575553894, -0.8358764052391052], [0.38691312074661255, 1.179518222808838], [-0.8365516662597656, 0.35266777873039246], [-0.8334389328956604, -0.6228461861610413], [-0.3271997570991516, -0.8093764185905457], [0.7283729910850525, -0.10992930829524994], [-0.8265466690063477, 0.01276569627225399], [-0.8812271356582642, 0.6755948662757874], [-0.48594751954078674, 1.1987069845199585], [-0.8184124827384949, 0.41478851437568665], [-0.26342058181762695, -0.781908392906189], [1.1452183723449707, 1.192176103591919], [1.1885285377502441, -0.22800929844379425], [-0.8514446020126343, 0.08843216300010681], [1.1759741306304932, 0.7453045845031738], [-0.8347934484481812, -0.0004340708255767822], [1.182607650756836, 1.1992487907409668], [0.9296255111694336, 1.1190954446792603], [-0.8297741413116455, -0.5129250288009644], [1.1579232215881348, 0.7342730164527893], [-0.7963145971298218, 1.1477115154266357], [0.13665184378623962, -0.2312488853931427], [-0.11911627650260925, 1.136110782623291], [0.4403589367866516, 1.1408438682556152], [1.1614410877227783, 0.04858071729540825], [0.6085268259048462, 1.1185411214828491], [-0.8598722219467163, 1.196922779083252], [1.1708855628967285, 0.27761995792388916], [1.1312241554260254, 0.4609462022781372], [-0.13534227013587952, 1.1845701932907104], [1.1864748001098633, -0.6966859102249146], [-0.8375077843666077, -0.8318511247634888], [0.23574191331863403, 1.1674654483795166], [0.26607269048690796, 0.25084182620048523], [0.1023910716176033, -0.8181918263435364], [0.4759356379508972, -0.8626703023910522], [1.1588811874389648, 1.1073014736175537], [-0.8068280220031738, 1.0926363468170166], [-0.35088402032852173, 1.0955965518951416], [1.2356740236282349, 0.21910561621189117], [0.19945178925991058, -0.866131067276001], [0.7434664964675903, -0.3903752863407135], [-0.8453624248504639, 0.5022486448287964], [-0.2602863013744354, -0.7778462767601013], [0.35830822587013245, -0.8050593137741089], [1.198556661605835, 0.8775621056556702], [-0.83650803565979, 0.318685919046402], [-0.2482638657093048, -0.8235978484153748], [-0.8504830002784729, -0.41932520270347595]], [[0.1094944030046463, 1.1636557579040527], [1.1254760026931763, 0.8662671446800232], [0.30512291193008423, -0.8249248266220093], [-0.03642621636390686, 0.029477037489414215], [1.1570345163345337, -0.5365245342254639], [-0.16047358512878418, -0.8476327657699585], [0.7747237086296082, 1.1929785013198853], [0.43501412868499756, 1.1070812940597534], [-0.8380347490310669, 0.5782063603401184], [-0.817764937877655, -0.08088589459657669], [0.3778378963470459, 1.1742429733276367], [1.1461563110351562, -0.5540153980255127], [1.1815108060836792, 0.19934311509132385], [-0.8545310497283936, -0.1991378664970398], [-0.7999081611633301, 1.1455038785934448], [0.36995139718055725, -0.8103978037834167], [1.1924278736114502, -0.8036375641822815], [-0.14880672097206116, 1.2026972770690918], [-0.8561893701553345, 1.0765318870544434], [1.1287174224853516, -0.176034614443779], [-0.8470419645309448, -0.17613136768341064], [0.9093026518821716, -0.4724857211112976], [-0.6228684186935425, 1.1549098491668701], [1.1664451360702515, 0.30240076780319214], [0.8930394053459167, 0.4902953505516052], [0.5288996696472168, 1.15366530418396], [-0.8228815793991089, 0.6996430158615112], [-0.4896999001502991, -0.8325837850570679], [-0.8202006816864014, 1.1528921127319336], [1.1707303524017334, -0.8166379928588867], [1.159757137298584, 0.0003034488472621888], [0.15955688059329987, 1.1544015407562256], [-0.8540521264076233, 0.02897832728922367], [1.128103494644165, -0.6881290674209595], [-0.3662295937538147, 0.9019250869750977], [1.132820725440979, -0.41552361845970154], [0.8693013787269592, -0.8036812543869019], [-0.20240548253059387, -0.82464200258255], [1.1691510677337646, 1.172991156578064], [1.1266088485717773, -0.8002141714096069], [-0.7903639078140259, -0.4960342049598694], [-0.8467391133308411, 0.6635264754295349], [-0.8245813846588135, 0.0934055745601654], [-0.03533036261796951, -0.791050910949707], [-0.8238669633865356, -0.41437000036239624], [-0.7985982894897461, 1.1831330060958862], [0.2266750931739807, -0.8088396787643433], [1.1460381746292114, 0.4437357783317566], [-0.4978089928627014, -0.5565351843833923], [1.2170730829238892, 0.7633427977561951], [-0.7433881163597107, 0.25349563360214233], [-0.7903366088867188, 0.3082787096500397], [1.0881131887435913, 0.4544391632080078], [1.1168198585510254, -0.8054536581039429], [-0.8457990288734436, -0.8383080363273621], [0.5559343695640564, 1.1473487615585327], [1.1658644676208496, 0.6400776505470276], [-0.844720721244812, -0.5408452749252319], [-0.06642601639032364, -0.8320682048797607], [-0.8184622526168823, -0.8166714906692505], [1.1585001945495605, 0.3555838465690613], [1.2351633310317993, 1.0805749893188477], [-0.794001579284668, 1.1471418142318726], [-0.5303487777709961, 1.2046140432357788]], [[-0.38287967443466187, 1.2308599948883057], [0.8785034418106079, 1.2082663774490356], [1.1279531717300415, -0.08273521065711975], [1.2324148416519165, 0.22948405146598816], [1.0657575130462646, 0.3282591700553894], [1.2021229267120361, -0.6254233121871948], [-0.06502775102853775, 0.889795184135437], [-0.6237407922744751, 0.8235034346580505], [1.240868091583252, -0.4604862928390503], [1.1443116664886475, -0.2732718586921692], [-0.8393917083740234, -0.8016074895858765], [1.151930570602417, -0.816821813583374], [0.36660075187683105, 1.2030537128448486], [-0.8140044212341309, 0.5836458206176758], [-0.8451322317123413, -0.2150459587574005], [1.1470683813095093, -0.11601152271032333], [-0.8455641269683838, -0.3600747585296631], [-0.03759094327688217, -0.7650920748710632], [1.2190033197402954, -0.6302205920219421], [0.34420493245124817, -0.8320046663284302], [0.3046870231628418, -0.8329704403877258], [-0.8307774066925049, 0.41647419333457947], [1.212369680404663, 0.4001745283603668], [0.0017507513985037804, 1.1675206422805786], [1.1922868490219116, -0.8119713664054871], [1.206742525100708, -0.24587871134281158], [1.1540758609771729, -0.17336691915988922], [0.4325683116912842, -0.8181723356246948], [-0.25753021240234375, 1.1404509544372559], [0.8346054553985596, -0.8334159851074219], [-0.8394372463226318, -0.8243202567100525], [1.1598931550979614, 0.07678256183862686], [-0.7585266828536987, 0.3750724792480469], [-0.8101853728294373, 0.05589696392416954], [-0.41007745265960693, 0.2794654071331024], [1.1932491064071655, 0.0931047797203064], [-0.3343491554260254, -0.20679587125778198], [1.1744170188903809, 1.1555447578430176], [-0.7435058951377869, 1.017350673675537], [1.1339051723480225, 1.0552232265472412], [-0.8535757064819336, 0.12487177550792694], [0.3976861238479614, 1.1468610763549805], [-0.818970263004303, 0.5638550519943237], [-0.4298381507396698, 1.1973965167999268], [0.23597471415996552, 1.1701083183288574], [-0.41494208574295044, -0.8455031514167786], [-0.2973496913909912, 1.1812841892242432], [-0.8366117477416992, 1.1392087936401367], [1.0204697847366333, 1.1811068058013916], [-0.8190656304359436, -0.6597243547439575], [1.1735702753067017, 0.6285005807876587], [1.1610323190689087, -0.5827499628067017], [-0.8250455260276794, 0.07187137007713318], [-0.05925532802939415, -0.8227938413619995], [-0.8352704048156738, -0.25040364265441895], [-0.8128182888031006, -0.30963313579559326], [-0.5416440963745117, -0.6192922592163086], [-0.6780322194099426, 1.165528655052185], [-0.8554409742355347, 1.1711171865463257], [-0.7709265351295471, 1.1885523796081543], [0.2632526159286499, -0.5047586560249329], [0.2926827669143677, 1.1554893255233765], [-0.39323097467422485, -0.8258056044578552], [1.171879768371582, -0.3113042116165161]], [[0.7591464519500732, -0.45214173197746277], [1.1840158700942993, -0.8260282278060913], [0.47108596563339233, -0.8433833718299866], [-0.82088303565979, -0.4008391499519348], [-0.8559650778770447, 0.5225022435188293], [-0.8132977485656738, 0.14947673678398132], [1.0430359840393066, 1.122006893157959], [-0.8121504783630371, -0.7813465595245361], [-0.8341212868690491, -0.8229195475578308], [-0.5240834355354309, 1.1939128637313843], [-0.18336321413516998, -0.8240072131156921], [-0.05985017865896225, -0.7416315078735352], [-0.2927466034889221, 1.146114706993103], [-0.5874038338661194, -0.06753264367580414], [-0.010082302615046501, 1.1567010879516602], [-0.020098654553294182, -0.7111027836799622], [-0.08568372577428818, 1.1723979711532593], [1.13946533203125, 0.41972774267196655], [1.1973341703414917, 0.2629823386669159], [-0.7935513854026794, 0.4950186610221863], [1.0777108669281006, 1.2104979753494263], [0.15436099469661713, 1.1391013860702515], [-0.8714113235473633, 1.1658047437667847], [0.9410718679428101, 0.16117504239082336], [1.2085422277450562, -0.763300359249115], [-0.39878392219543457, 1.1732677221298218], [1.1921136379241943, -0.8042789101600647], [-0.8634961843490601, 0.18507148325443268], [-0.7926009297370911, -0.21316847205162048], [1.1676181554794312, 0.6594815254211426], [-0.21654830873012543, 0.6696901917457581], [1.2531298398971558, -0.06191330775618553], [1.141692042350769, -0.13156268000602722], [1.1617950201034546, -0.7532345652580261], [-0.707162618637085, -0.7851795554161072], [-0.7963752746582031, 0.538817286491394], [0.39141392707824707, 1.1771249771118164], [-0.8520429730415344, 0.26577624678611755], [1.1536369323730469, -0.2849655747413635], [0.3651386499404907, -0.8069899678230286], [-0.8377674221992493, 1.1795672178268433], [0.11496276408433914, 1.186952829360962], [-0.4764167070388794, 1.2039799690246582], [-0.8137722611427307, 1.1453572511672974], [-0.819817066192627, 0.39482104778289795], [0.4972997307777405, 1.1635375022888184], [1.1614580154418945, 0.5208429098129272], [1.1953030824661255, 0.028603874146938324], [-0.5897800922393799, 1.1932501792907715], [-0.8104491233825684, -0.8389363288879395], [1.1392441987991333, 1.1992084980010986], [1.1419763565063477, -0.14102910459041595], [-0.5917679071426392, 0.9081945419311523], [0.45758020877838135, 1.1763328313827515], [0.3008013963699341, 0.06310947984457016], [-0.7673286199569702, 1.151749849319458], [-0.8486236929893494, -0.48468565940856934], [0.6592466831207275, -0.8210451006889343], [1.1527761220932007, 0.277770459651947], [1.1417086124420166, 0.7361935973167419], [-0.8363280296325684, 0.33127403259277344], [1.1436854600906372, 0.247841939330101], [-0.6097705960273743, 1.1870839595794678], [-0.2170533686876297, -0.8469411134719849]]]","[[-0.5060185194015503, 0.057201728224754333, -0.6415159702301025, -0.4283806383609772, 0.10249367356300354, -1.020524501800537, -0.2889709770679474, -0.08983859419822693, -0.5401044487953186, 0.1568179726600647, 0.19012711942195892, -0.5418149828910828, -0.2797790467739105, -0.6410229802131653, -0.47707095742225647, -0.8197371363639832, -0.2512635886669159, -0.7501558065414429, -0.6170803308486938, -0.15164676308631897, -0.492921382188797, -0.4940304458141327, -0.4902673065662384, -0.7354559898376465, -0.5189979672431946, -0.3072056174278259, -0.4954119920730591, -0.8826172351837158, -0.8358974456787109, -0.16614562273025513, -0.3480827808380127, -0.6454140543937683, -0.819346010684967, -0.8902136087417603, -0.841957688331604, -0.13811083137989044, -0.3378726840019226, -0.1039501205086708, -0.2118530571460724, -0.14888839423656464, -0.742559015750885, -1.0723797082901, -0.3554297089576721, 0.0913337767124176, -0.6158587336540222, 0.18403954803943634, -0.635692298412323, -0.2564457058906555, -0.13971377909183502, 0.1491130143404007, -0.2670258581638336, -0.8579485416412354, -0.7742162346839905, -0.8094643354415894, -1.2104201316833496, -0.550011396408081, -0.6233347654342651, -0.5674425363540649, -0.557616114616394, -0.6330077648162842, -0.6288905739784241, -0.2771863043308258, -0.3202120065689087, -0.5672013163566589], [-0.335986852645874, -0.5539665222167969, -0.9980188012123108, -0.3265824615955353, -0.02185111492872238, -0.20436060428619385, -0.6657511591911316, -0.8599150776863098, -0.4335959851741791, -0.47887179255485535, -0.7800890207290649, -0.5380120873451233, 0.09640485048294067, -0.9838113188743591, -0.8422982096672058, -0.549143373966217, -0.36692479252815247, -0.5757448673248291, -0.2815583646297455, -0.33050528168678284, -0.1615109145641327, -0.680293083190918, -0.1613062471151352, -0.5925806164741516, -0.7166171669960022, 0.14449350535869598, -1.0074820518493652, -0.529175877571106, -0.08616634458303452, -0.5677878260612488, -0.3708169460296631, -1.2256288528442383, 0.07314618676900864, -0.41426965594291687, -0.5168065428733826, -0.6097277998924255, -0.1061689555644989, -0.046913307160139084, -0.8051828742027283, 0.0811743438243866, -0.12708669900894165, -0.848789393901825, -0.8136193156242371, -0.47960689663887024, -0.35761964321136475, -0.6668203473091125, -0.8220224380493164, -0.6946828365325928, -0.6894358396530151, -0.473885715007782, -0.11206800490617752, -0.895770788192749, -0.5936883687973022, -0.2720842957496643, -0.831596851348877, -0.1965917944908142, -0.08959486335515976, -0.7627679109573364, -0.30032479763031006, 0.13422223925590515, -0.1533927470445633, -0.3628932535648346, -0.5548843741416931, -0.2587185800075531], [-0.28791704773902893, -0.8825810551643372, -0.6240688562393188, -0.03926050290465355, -0.574760913848877, -0.5643473863601685, -1.0007667541503906, -0.7006495594978333, -0.774014413356781, -0.6393433809280396, -0.3484746217727661, -0.5967092514038086, -0.4384622275829315, -0.3050190508365631, -0.5821580290794373, -0.4917590022087097, -1.0741782188415527, -0.5622653365135193, -0.24993005394935608, -0.8318265676498413, -0.6622891426086426, -0.23667345941066742, -0.7713876366615295, 0.059201430529356, -0.1779051125049591, -0.7796230912208557, -0.6438011527061462, -0.38195356726646423, -0.8654601573944092, -0.3511841297149658, -0.8548017144203186, 0.23051486909389496, -0.4205981492996216, -0.2394331842660904, 0.23752401769161224, 0.10743218660354614, -0.5961442589759827, -0.5348289608955383, -0.17038372159004211, -0.17414215207099915, -0.634678065776825, -0.818507730960846, -0.33503663539886475, -0.270192950963974, -0.6680800318717957, -0.6548597812652588, -0.49344557523727417, -0.7942242622375488, -0.031817082315683365, -1.083917260169983, -0.07783450186252594, -0.6639198660850525, -0.1774579882621765, -0.18510845303535461, -0.3059432804584503, -0.7547295689582825, -0.48455458879470825, -0.43213942646980286, -0.514360249042511, -0.7572524547576904, -0.13506630063056946, -0.5352433919906616, -0.5975688099861145, -0.28953105211257935], [-0.6008568406105042, -0.5108856558799744, -0.4599703550338745, -0.8161839842796326, -0.12572570145130157, 0.502876341342926, 0.23941859602928162, -0.543481707572937, -0.9595268368721008, -0.21980461478233337, -0.8033812642097473, -1.0722358226776123, -0.7002691626548767, -0.1435917466878891, -0.6448961496353149, 0.1307365894317627, -0.06580407917499542, -0.2264087051153183, -0.17559638619422913, 0.17559729516506195, -0.4860958456993103, -0.6324646472930908, -0.5030605792999268, -0.27452552318573, -0.6588026881217957, -0.5120889544487, -0.2453153133392334, -0.16078777611255646, -0.7724974155426025, -0.5692413449287415, -0.7427765727043152, -0.8687650561332703, -0.11972784996032715, -0.2806095480918884, 0.15896271169185638, -0.8442990183830261, 0.19678330421447754, -1.1530752182006836, -0.5576903223991394, -0.15234406292438507, -0.6655846834182739, -0.33519992232322693, -0.7589592337608337, 0.13796234130859375, 0.26051270961761475, -0.5860649943351746, -0.040546998381614685, -0.8716062903404236, -0.9488430023193359, -0.4092027246952057, -0.40237167477607727, -0.2942541837692261, -0.40864095091819763, -0.48235422372817993, -0.2594364285469055, -0.266297310590744, 0.4335802495479584, -0.5643087029457092, -0.25265341997146606, -0.2374083250761032, -0.1947387158870697, -0.7597792148590088, 0.6321651339530945, 0.10521301627159119], [-0.5705136060714722, -1.0466023683547974, -0.13083741068840027, -0.27036625146865845, -0.11507277190685272, -0.2895936369895935, -0.5399194955825806, -0.4328215718269348, -0.7855445146560669, -0.26463794708251953, -0.5415087342262268, -0.622053325176239, -0.32855305075645447, -0.16503211855888367, -0.07941897213459015, -0.5797253251075745, 0.18972168862819672, -0.937900722026825, -0.8787103295326233, -0.5524638891220093, -0.9180510640144348, -0.7835231423377991, -0.5962898135185242, 0.06674770265817642, -0.32958006858825684, -0.5158502459526062, -0.6723161339759827, -0.675489068031311, -0.3091590404510498, -0.44714125990867615, 0.22955317795276642, -0.9418330788612366, -0.8487752676010132, -0.34475353360176086, -0.4160066246986389, -0.7452771067619324, -0.32471704483032227, -0.7478572726249695, -0.1419367492198944, -0.5142374038696289, -0.9262874126434326, -0.24666279554367065, -0.5519575476646423, -0.6410558223724365, -0.5517446398735046, -0.7358769178390503, -0.7637616991996765, -0.20881439745426178, -0.8158206939697266, -0.7431784868240356, -1.1834657192230225, -0.47827574610710144, -0.20880042016506195, -0.8878325819969177, -0.042896147817373276, 0.19442524015903473, -0.7282063364982605, -0.5628482699394226, -0.21114113926887512, -0.17955616116523743, -0.10853361338376999, -0.43294063210487366, 0.12143594026565552, -0.5622408390045166]]","[[[0.2203882485628128, -0.11038342118263245, 0.5075456500053406, 0.027524061501026154, 0.18130531907081604, 0.46877849102020264, 0.13883984088897705, -0.14853991568088531, 0.23980146646499634, 0.033658694475889206, 0.03761032596230507, 0.31968188285827637, -0.0049959877505898476, 0.5224112272262573, -0.28635692596435547, 0.366131991147995, -0.07165378332138062, -0.34630468487739563, 0.2644179165363312, -0.08232952654361725, 0.1895654797554016, 0.20103056728839874, 0.1957705318927765, -0.8133688569068909, 0.29119494557380676, -0.11027782410383224, 0.36109453439712524, -0.2144722044467926, -0.8198612928390503, -0.23578515648841858, 0.26971521973609924, 0.6819570064544678, 0.2679557204246521, -0.5694457292556763, -0.3422795832157135, -0.10523964464664459, -0.11478602886199951, 0.2157095968723297, -0.20526282489299774, 0.028902869671583176, 0.31880494952201843, -0.2159237116575241, -0.04368157684803009, 0.21478238701820374, -0.8549540638923645, -0.05389125645160675, 0.08328171074390411, 0.07527238130569458, 0.14235952496528625, -0.0751447081565857, -0.01565353199839592, -0.8208280801773071, 0.18934285640716553, 0.24525944888591766, -0.8019259572029114, 0.005030646920204163, 0.3617094159126282, 0.12259538471698761, 0.2263309359550476, 0.07406303286552429, -0.41256916522979736, -0.030981652438640594, -0.27818912267684937, -0.14008064568042755], [0.23334860801696777, 0.0495431050658226, 0.3099707365036011, 0.3030722737312317, 0.43059876561164856, 1.068922758102417, -0.341092586517334, -0.3043730854988098, -0.84103924036026, -0.05577673763036728, 0.34342166781425476, -0.8082617521286011, 0.40947288274765015, -0.790535032749176, 0.3826868534088135, -0.8145450353622437, 0.22019636631011963, -0.8347177505493164, -0.5499314665794373, 0.3526971638202667, -0.8238270282745361, -0.6169545650482178, -0.664616584777832, -0.47982025146484375, -0.8429667949676514, 0.5853610634803772, -0.40086156129837036, 1.1575678586959839, 0.8051456809043884, 0.14066192507743835, -0.40241265296936035, -0.8513509631156921, 0.3886668384075165, 1.1865389347076416, 1.1468446254730225, 0.33540254831314087, 0.49129945039749146, -0.10127002000808716, 0.11756353080272675, -0.4108268618583679, -0.8018631339073181, 1.1832759380340576, -0.1913093626499176, -0.20380963385105133, 0.13814349472522736, 0.3271555006504059, 0.4474537968635559, -0.41840270161628723, -0.3532751202583313, 0.13075844943523407, -0.3566245436668396, 0.6895878911018372, 0.9196092486381531, -0.8538181781768799, 1.1181683540344238, -0.5949519276618958, -0.8183935880661011, -0.5386213064193726, 0.523652195930481, 0.4154278039932251, -0.8397945165634155, 0.41937339305877686, 0.23798510432243347, -0.5314661264419556], [-0.43702685832977295, -0.21045377850532532, -0.0930962935090065, -0.19102755188941956, 0.08253003656864166, -0.6818601489067078, 0.1231083869934082, -0.22463524341583252, 0.026574866846203804, 0.03537840396165848, 0.0636461079120636, 0.14112518727779388, -0.19672521948814392, -0.22340504825115204, 0.23686841130256653, 0.15296107530593872, -0.32402169704437256, 1.2051349878311157, 0.17275090515613556, -0.11881209909915924, 0.08580799400806427, 0.03053652122616768, 0.014418335631489754, 1.0895382165908813, 0.18221473693847656, 0.20756646990776062, 0.2835606336593628, -0.8371729254722595, 0.36328813433647156, 0.04518197849392891, 0.19967803359031677, 1.123430609703064, -0.5344945788383484, -0.5794174075126648, -0.8247830271720886, 0.016008475795388222, -0.20058254897594452, 0.16570354998111725, -0.05638181045651436, -0.04878203570842743, 0.280402272939682, -0.8408356308937073, -0.006342609878629446, -0.026210546493530273, 0.6031835079193115, 0.21364985406398773, -0.3092004060745239, 0.07386725395917892, 0.19757281243801117, 0.14996100962162018, 0.1480657011270523, 0.7211570143699646, -0.8142141103744507, 0.17607179284095764, -0.8235906958580017, -0.004287805408239365, 0.164805606007576, 0.029208583757281303, -0.42744752764701843, -0.3925918936729431, 1.1671456098556519, 0.011544179171323776, 0.023595303297042847, -0.15045130252838135]], [[-0.006854172796010971, 0.26774075627326965, 0.5544283986091614, -0.03103180229663849, 0.15275344252586365, -0.19789183139801025, 0.8134730458259583, 0.15627187490463257, 0.19628417491912842, 0.14352265000343323, 0.2796597182750702, 0.6293622255325317, 0.10281345993280411, -0.4277225732803345, -0.80832439661026, 0.43022778630256653, 0.20362138748168945, -0.8342647552490234, -0.0994708240032196, -0.1251755803823471, -0.25866883993148804, -0.03750485181808472, 0.20475350320339203, 0.22714537382125854, -0.7889456152915955, -0.17064055800437927, 0.12030574679374695, 0.27864497900009155, 0.10066771507263184, 0.20472019910812378, -0.16878555715084076, -0.8146500587463379, 0.1755809336900711, -0.29766845703125, -0.01743527315557003, 0.009609490633010864, -0.23480220139026642, -0.028061382472515106, -0.48804378509521484, 0.12350910902023315, -0.16451573371887207, -0.8039991855621338, 0.13651332259178162, 0.19522812962532043, 0.33019721508026123, 0.37236058712005615, 0.6360691785812378, 0.029969055205583572, 0.00124386977404356, 0.3188741207122803, 0.0012530831154435873, 0.29771941900253296, 0.09496893733739853, 0.13708867132663727, 0.10801441967487335, -0.2761133313179016, -0.1298457682132721, 0.24315392971038818, -0.10764268040657043, 0.26097017526626587, -0.026679230853915215, -0.0733807384967804, 0.4728184938430786, 0.2676675617694855], [0.6020694375038147, -0.8089516758918762, 1.2362958192825317, -0.14625155925750732, 0.289259672164917, 0.2817821502685547, -0.8822816014289856, 0.9665173292160034, -0.27851366996765137, -0.6502827405929565, -0.8336218595504761, -0.7955888509750366, -0.22836890816688538, 1.1928106546401978, 0.31690824031829834, -0.8074089884757996, -0.384321004152298, 0.0356055349111557, 0.2283564805984497, 0.4143296182155609, 0.008845007978379726, -0.8477182388305664, -0.2148655205965042, 0.47734737396240234, -0.49325817823410034, -0.32445991039276123, 1.1499981880187988, -0.5307817459106445, -0.4032782316207886, -0.28703293204307556, 0.28196409344673157, 1.2040517330169678, -0.033976297825574875, 0.20404574275016785, -0.5695781707763672, 0.20901881158351898, 0.23088987171649933, 0.2614893913269043, 1.1907150745391846, -0.1495019495487213, 0.1535860151052475, 0.5149121880531311, 1.19115149974823, -0.3927724361419678, -0.24685776233673096, -0.633296012878418, -0.8077013492584229, 0.7985361218452454, -0.8147462606430054, -0.8766347765922546, 0.21355445683002472, 0.5340738892555237, 0.3751262128353119, -0.27464014291763306, 1.143796682357788, 0.21408623456954956, 0.24725621938705444, -0.8212274312973022, 0.207564577460289, -0.09556016325950623, 0.44011756777763367, 0.46898746490478516, -0.7990148067474365, 0.36634981632232666], [0.2501533031463623, 0.11518359929323196, -0.8439863920211792, 0.15875260531902313, -0.18395254015922546, 0.14101001620292664, 1.1454048156738281, -0.8302700519561768, 0.20295795798301697, 0.1679839789867401, 0.2833546996116638, 0.1841031163930893, -0.12784278392791748, -0.7716988325119019, 1.016309380531311, 0.25837242603302, 0.11487503349781036, 0.5854120254516602, -0.32104456424713135, 0.25732743740081787, 0.0625111535191536, 0.8436892032623291, 0.2160918116569519, -0.4545515179634094, 0.9655991196632385, -0.024114184081554413, -0.8025293350219727, 0.1757173389196396, -0.03917023539543152, 0.11261279881000519, -0.04519783332943916, -0.8514040112495422, 0.02006194181740284, 0.09300345182418823, 0.03456980362534523, -0.390177845954895, -0.14033043384552002, 0.17030495405197144, -0.7917599678039551, 0.07862278074026108, 0.18253850936889648, 0.4014418125152588, -0.684471607208252, 0.21345099806785583, 0.17582131922245026, 0.28247779607772827, 0.40893983840942383, -0.7953367233276367, 0.17147225141525269, 0.285808265209198, -0.2498750537633896, -0.4369262754917145, -0.5823751091957092, 0.2039608657360077, -0.7912402749061584, -0.24873369932174683, -0.16826528310775757, 1.2178963422775269, 0.05382996052503586, 0.27922555804252625, 0.10098075121641159, -0.18764597177505493, 0.33816778659820557, 0.04561794549226761]], [[0.13593551516532898, 0.41835594177246094, 0.7181589007377625, -0.1773868352174759, 0.022775955498218536, 0.05652981251478195, -0.6214584112167358, 0.3332187831401825, -0.8562158942222595, 0.17151138186454773, 0.23493808507919312, 0.2437128871679306, 0.021849581971764565, -0.0532633513212204, 0.3816497325897217, 0.1411188691854477, 0.3317837417125702, -0.06337956339120865, -0.007226189598441124, 0.024118633940815926, 0.2849256992340088, -0.02396683767437935, -0.35037606954574585, 0.49230653047561646, -0.06390561163425446, 0.094802126288414, -0.8017590045928955, -0.2823250889778137, -0.7710255980491638, -0.18730032444000244, -0.17597323656082153, -0.05926623195409775, -0.42239075899124146, 0.02881067432463169, -0.20855207741260529, 0.04999757185578346, 0.21088658273220062, 0.1726289838552475, -0.11385119706392288, -0.023094767704606056, 0.46839314699172974, -0.8127708435058594, -0.04632759094238281, -0.2163277417421341, -0.05328861251473427, 0.0903683602809906, 0.19354423880577087, 0.30298569798469543, 0.1952129304409027, -0.8366967439651489, 0.13589879870414734, 0.3562731146812439, -0.22141636908054352, -0.03134344890713692, 0.018171383067965508, -0.11641751974821091, 0.3095369338989258, -0.2891875207424164, 0.33068108558654785, 0.3188822269439697, -0.2416025698184967, 0.19252897799015045, 0.18919406831264496, 0.14188045263290405], [-0.5312179923057556, 0.8105142712593079, -0.8088641166687012, 0.18183043599128723, -0.675676703453064, -0.6650039553642273, 0.9799206852912903, 0.8100131750106812, -0.0178814809769392, -0.8354393243789673, -0.3966256082057953, -0.7059333920478821, -0.7452095746994019, 0.3188382387161255, 0.5506686568260193, -0.8402291536331177, 0.8278027772903442, -0.048296019434928894, -0.3636656105518341, 1.1519365310668945, -0.8032141327857971, 0.15532882511615753, 0.7636498212814331, -0.089344821870327, 0.050419073551893234, 1.1573606729507446, 0.36957651376724243, 0.08442679792642593, 0.5409863591194153, 0.07612714916467667, 1.2090418338775635, 0.31355857849121094, 0.21239574253559113, 0.40289756655693054, -0.057167697697877884, -0.23198315501213074, -0.5657809376716614, -0.8584458231925964, 0.37987205386161804, 0.30446213483810425, -0.8184434175491333, -0.40208733081817627, 0.289611279964447, 0.3479217290878296, -0.818589985370636, 0.34403377771377563, -0.8448493480682373, 1.0605747699737549, -0.021272405982017517, 1.1942471265792847, -0.2321000099182129, -0.8245329260826111, 0.05600990355014801, 0.2512822449207306, 0.1550227403640747, 1.1956263780593872, -0.6689797043800354, 0.2438845932483673, -0.8235453963279724, -0.7509835362434387, 0.12780246138572693, -0.5480939745903015, 0.28743159770965576, -0.2985890805721283], [0.10648846626281738, -0.8329401016235352, -0.026997201144695282, -0.07206610590219498, -0.04395566135644913, 0.05738459527492523, -0.5265458822250366, -0.7753514647483826, 1.1752710342407227, 0.9321435689926147, 0.44277048110961914, 0.17197580635547638, -0.053258683532476425, -0.22214576601982117, -0.268932968378067, -0.025341428816318512, -0.7697081565856934, -0.6360936760902405, 0.17154854536056519, -0.8265143632888794, 0.01159787829965353, 0.14154459536075592, 0.05831516534090042, 0.13903142511844635, -0.03223814815282822, -0.8113061189651489, 0.6615127325057983, -0.0010810010135173798, 0.674639105796814, 0.21236425638198853, -0.7941645383834839, -0.11103217303752899, -0.24305842816829681, 0.1079443097114563, -0.12141454219818115, 0.05037715286016464, 0.08026991039514542, 0.02445119433104992, 0.09428995102643967, -0.14993008971214294, 0.3516642451286316, 1.1922798156738281, -0.1408368945121765, 0.03225923329591751, 0.49959444999694824, -0.2534180283546448, 0.09164626896381378, -0.7266739010810852, 0.1256154179573059, -0.8210415840148926, 0.020688237622380257, 1.150191068649292, -0.04807020723819733, -0.08346857130527496, -0.18485121428966522, -0.8425294160842896, 0.31174397468566895, -0.0384540781378746, 0.1577879786491394, 0.25884565711021423, -0.13268709182739258, 0.18651838600635529, -0.4042338728904724, 0.1356535106897354]], [[0.25042787194252014, 0.42448344826698303, 0.11951884627342224, 0.18299750983715057, -0.09639652073383331, -0.029600534588098526, -0.23827697336673737, -0.09891904890537262, 0.17166583240032196, -0.13055013120174408, 0.5164238214492798, 0.674015998840332, 0.2933637201786041, 0.16987353563308716, 0.025570746511220932, -0.13891732692718506, 0.09286460280418396, -0.37726891040802, -0.061106812208890915, 0.1171812117099762, 0.516541063785553, -0.5352541208267212, 0.30290651321411133, 0.3495248556137085, 0.29284417629241943, 0.27066364884376526, -0.15377211570739746, -0.1289476603269577, -0.841328501701355, 0.15300539135932922, 0.36886322498321533, -0.41113752126693726, 0.1461966335773468, -0.02463475801050663, -0.11488579213619232, 0.13172481954097748, -0.1460217535495758, -0.6292575001716614, 0.009187016636133194, 0.14013460278511047, 0.4581718444824219, 0.357947438955307, -0.8725422620773315, 0.004772290587425232, 0.030966470018029213, 0.3729965388774872, -0.1361106038093567, -0.8402650356292725, -0.273783802986145, -0.1810915768146515, 0.07852698117494583, -0.362239271402359, -0.5343765020370483, 0.6196455955505371, 0.15274760127067566, 0.008777583949267864, -0.2193213403224945, 0.3914141356945038, 0.09421831369400024, 0.08951536566019058, -0.23925942182540894, -0.08946526050567627, 0.10005588084459305, 0.17062436044216156], [0.49293258786201477, -0.28112053871154785, -0.7594857215881348, 1.1356422901153564, 0.37912148237228394, 0.153191477060318, 0.07680924236774445, 0.4161304235458374, 1.1656521558761597, 0.3036019504070282, -0.8362178802490234, 1.203007698059082, 0.7940826416015625, -0.23037104308605194, -0.8260822892189026, -0.4053390324115753, -0.22005344927310944, 0.34934544563293457, 0.41664934158325195, -0.1648465394973755, -0.8088306188583374, -0.25052499771118164, -0.703486442565918, -0.15294945240020752, -0.8222359418869019, -0.5525640845298767, 0.09895441681146622, 0.22984470427036285, 0.7846165895462036, -0.8438223600387573, -0.831791341304779, 1.153982400894165, -0.3726847767829895, 0.3736342191696167, 0.033092137426137924, 0.9722601175308228, -0.08309458196163177, 1.0948362350463867, 0.4426444172859192, 0.44309818744659424, -0.8068231344223022, -0.4825139045715332, -0.31142163276672363, 0.08080200105905533, 0.3024275600910187, -0.8047652244567871, 0.18167656660079956, 0.49351561069488525, 1.0545700788497925, 0.41746097803115845, -0.38412797451019287, 0.08866027742624283, 0.34122130274772644, -0.8329117894172668, 0.32961001992225647, 0.4260708689689636, 0.03436445817351341, 0.4481923580169678, -0.013511777855455875, -0.2386561632156372, -0.23231375217437744, 1.1858620643615723, 0.3033731281757355, -0.09583387523889542], [-0.4789666533470154, 0.3046863377094269, -0.07011200487613678, -0.8551256060600281, -0.0601162426173687, -0.1495826542377472, -0.06865444779396057, -0.571832537651062, -0.8193913698196411, -0.00171308359131217, 0.2643558382987976, -0.830438494682312, -0.6587475538253784, -0.011557333171367645, 0.6928054094314575, -0.12900595366954803, -0.03513144329190254, -0.05371095612645149, -0.12398690730333328, 0.29023003578186035, 0.15743392705917358, 1.070082664489746, 0.027051003649830818, 0.3165798783302307, 0.33323150873184204, 0.21431106328964233, 0.22206294536590576, -0.20172835886478424, 1.0094190835952759, -0.031937796622514725, 0.3307526409626007, -0.8151601552963257, 0.06916938722133636, -0.20167340338230133, 0.09467631578445435, -0.8356715440750122, -0.17001304030418396, -0.7251931428909302, -0.41289976239204407, 0.28455644845962524, 1.0936729907989502, 0.34158840775489807, 1.0995545387268066, -0.28558075428009033, 0.024961667135357857, 0.16688834130764008, 0.16159534454345703, 0.9733471870422363, -0.853130042552948, 0.15094229578971863, 0.2713502049446106, -0.14430846273899078, 0.1943485140800476, 0.42343923449516296, -0.059741873294115067, -0.24536383152008057, -0.09340967237949371, -0.28713250160217285, 0.17318587005138397, 0.1850837916135788, -0.10815441608428955, -0.7958945035934448, 0.06591255962848663, 0.05534183233976364]], [[0.40976154804229736, 0.38395488262176514, -0.04091120511293411, 0.2096950113773346, 0.0930396169424057, 0.08527515083551407, 0.2737933099269867, -0.21207255125045776, 0.298170804977417, -0.049163706600666046, 0.5934581160545349, 0.009640810079872608, 0.3193737268447876, 0.013696110807359219, -0.20426613092422485, 0.3475182056427002, -0.3401212692260742, -0.7929239869117737, -0.12018143385648727, -0.8586270809173584, 0.3775216341018677, -0.4432334005832672, -0.03487975150346756, 0.04931583255529404, -0.0027832575142383575, 0.18562589585781097, 0.2603723704814911, 0.23655138909816742, -0.259463906288147, 0.24230462312698364, 0.04823721945285797, -0.09403552114963531, -0.19204379618167877, -0.2907882034778595, -0.2742404639720917, 0.31505340337753296, 0.012357834726572037, -0.3233013153076172, -0.1389237344264984, 0.27280932664871216, -0.8261938095092773, -0.20063631236553192, 0.246023029088974, -0.019412938505411148, -0.8192127346992493, 0.14972686767578125, 0.1619737148284912, -0.38710498809814453, -0.8205401301383972, 0.10952290892601013, -0.4984983801841736, 0.4002379775047302, -0.03727523609995842, -0.522826075553894, -0.10337729007005692, -0.22910410165786743, 0.5227758884429932, 0.1148533970117569, 0.01045101135969162, -0.2485150694847107, 0.39483126997947693, 0.11244527250528336, -0.023724889382719994, 0.2782221734523773], [-0.4092232584953308, 1.1496859788894653, 0.26074743270874023, 0.3921754062175751, -0.34774163365364075, 0.33616334199905396, -0.45514005422592163, 0.43235641717910767, -0.8304781317710876, -0.4008997082710266, -0.814816415309906, -0.23044316470623016, -0.1374756544828415, -0.04567944258451462, 0.15788748860359192, -0.7990309000015259, -0.03010454773902893, 1.1651380062103271, 1.238709568977356, 0.33219587802886963, 0.9092140197753906, 1.1590461730957031, 0.22224432229995728, -0.4200701117515564, 0.23588986694812775, -0.01577000692486763, -0.8086063861846924, -0.8342795372009277, 0.30464082956314087, -0.5395007133483887, 0.04047524556517601, 1.2178599834442139, 0.8957067728042603, 0.014712800271809101, 0.13500574231147766, -0.86556077003479, -0.43875652551651, -0.8293461203575134, 0.1641789674758911, -0.8195711374282837, 0.7694836854934692, -0.6522890329360962, 0.2308928668498993, 0.669154942035675, 0.12820783257484436, 0.6234821081161499, 0.4118524193763733, 0.049758292734622955, 0.7196611166000366, -0.820565402507782, 1.1423486471176147, -0.5767390131950378, -0.4093311131000519, 1.1654307842254639, 0.34443458914756775, -0.04080573841929436, -0.8353005647659302, -0.8307617902755737, 0.18802303075790405, 0.16108807921409607, -0.12637272477149963, -0.7393035292625427, 0.1405286192893982, -0.792364776134491], [0.03815186768770218, -0.8587785363197327, -0.1765104979276657, -0.058270618319511414, 0.15417489409446716, -0.19330842792987823, 0.2128235548734665, 0.06834150105714798, 0.13628213107585907, 0.032492272555828094, 0.42924046516418457, -0.4339454770088196, -0.17348352074623108, -0.18365244567394257, 0.0335850790143013, -0.09585709124803543, -0.35254842042922974, -0.8139166235923767, -0.8340466618537903, 0.4805436432361603, -0.7960596680641174, -0.8351467847824097, -0.46119260787963867, -0.23039810359477997, 0.1516537070274353, -0.42826488614082336, 0.29742202162742615, 0.6901509761810303, -0.2365213930606842, 0.29749149084091187, 0.18542805314064026, -0.8180740475654602, -0.800584077835083, -0.006247848272323608, -0.006412157788872719, 1.1173914670944214, 0.15575501322746277, 1.1118735074996948, -0.10716205835342407, 0.03726688027381897, 1.1646701097488403, 0.06234918534755707, -0.09471689909696579, -0.5812801718711853, 0.3002004623413086, -0.493990957736969, -0.5085818767547607, -0.18514907360076904, 0.24915757775306702, 0.24756433069705963, -0.8088810443878174, 0.16841278970241547, 0.07373606413602829, -0.6567578315734863, -0.10375596582889557, -0.34772446751594543, 0.6731256246566772, -0.07993598282337189, 0.12738285958766937, -0.206659197807312, 0.37332597374916077, -0.03252573311328888, -0.0016406867653131485, 0.15300467610359192]]]","[[0.05855371430516243, -0.07131578773260117, 0.012759359553456306], [-0.052511394023895264, 0.08091215044260025, -0.028401494026184082], [0.0033033767249435186, -0.03027472272515297, 0.02697088196873665], [0.1538008451461792, -0.2866057753562927, 0.13280433416366577], [0.030737217515707016, -0.055437102913856506, 0.02469855174422264]]"
