num_tiles,noise,w1,b1,w2,b2
1,0.1,"[[[0.11559025198221207, -0.3339715003967285], [-0.0027770656161010265, -0.19728517532348633], [0.14375396072864532, -0.278176486492157], [0.08997379243373871, -0.35696250200271606], [-0.027019035071134567, -0.04571424797177315], [-0.21444225311279297, -0.2264104187488556], [-0.10579965263605118, -0.188203364610672], [0.165044903755188, 0.22941593825817108], [-0.2242218405008316, 0.1251448094844818], [0.0234060138463974, 0.06499822437763214], [0.15393288433551788, -0.034825388342142105], [-0.15781961381435394, -0.23224283754825592], [0.20998191833496094, -0.06679622828960419], [0.16534574329853058, -0.028944816440343857], [0.028181293979287148, -0.11782006919384003], [0.09815758466720581, 0.15825039148330688], [-0.12353228777647018, 0.25434410572052], [0.11236778646707535, 0.13752736151218414], [-0.007323752157390118, 0.22857697308063507], [-0.07382947951555252, -0.24040865898132324], [0.1542719602584839, -0.032072942703962326], [0.22907580435276031, 0.24560771882534027], [-0.045739371329545975, 0.49246665835380554], [0.005358648020774126, 0.0374593548476696], [0.15933045744895935, -0.29777491092681885], [0.31877684593200684, -0.064269058406353], [-0.11631472408771515, -0.053983282297849655], [-0.0898096039891243, 0.26443320512771606], [-0.03223193809390068, 0.24114848673343658], [-0.23749986290931702, -0.12706910073757172], [-0.265468955039978, -0.04257557541131973], [0.08139518648386002, -0.004673141986131668], [-0.29944297671318054, -0.05393538624048233], [-0.07773902267217636, -0.11263442039489746], [-0.02882401831448078, -0.13113273680210114], [-0.2277325838804245, 0.10287303477525711], [0.1460806131362915, -0.07068482786417007], [0.13097842037677765, -0.033787984400987625], [-0.15930677950382233, -0.06675412505865097], [-0.13857240974903107, -0.05685681104660034], [0.15327323973178864, -0.2626579701900482], [0.07499656826257706, 0.050166886299848557], [-0.34529685974121094, 0.1445109099149704], [-0.1562778353691101, -0.16771161556243896], [0.15246406197547913, -0.16675372421741486], [-0.27522987127304077, -0.08706516027450562], [-0.09188798815011978, 0.28712576627731323], [-0.1688278466463089, 0.25537270307540894], [-0.18879173696041107, -0.004463409073650837], [-0.36201244592666626, 0.06379136443138123], [-0.03029073402285576, -0.07796823978424072], [-0.1667768955230713, 0.10979292541742325], [0.027455084025859833, 0.35793575644493103], [-0.46150583028793335, -0.18171599507331848], [-0.3245934545993805, -0.055736906826496124], [0.10823564976453781, -0.3313043713569641], [0.05337336286902428, -0.020465921610593796], [-0.10103725641965866, -0.023058511316776276], [0.010742238722741604, 0.28220081329345703], [-0.2949460744857788, -0.1481872946023941], [-0.19288313388824463, 0.31757718324661255], [0.07701695710420609, -0.13325685262680054], [-0.12405559420585632, -0.1517440527677536], [0.49855491518974304, 0.012217569164931774]], [[-0.11474791914224625, -0.1448667049407959], [0.04483848437666893, 0.26717856526374817], [0.23026439547538757, -0.09985491633415222], [-0.019288036972284317, 0.14561665058135986], [0.04451055824756622, -0.30147188901901245], [-0.1968633234500885, 0.18693460524082184], [0.18672306835651398, -0.200983926653862], [0.568711519241333, -0.17774923145771027], [-0.1094752699136734, -0.17222076654434204], [-0.06691938638687134, 0.09596415609121323], [-0.046203307807445526, 0.47799357771873474], [0.13948068022727966, -0.056478939950466156], [-0.1202893853187561, 0.1030445247888565], [-0.15341106057167053, 0.034144893288612366], [0.14855656027793884, -0.06664565950632095], [0.15651462972164154, 0.03934650123119354], [-0.1454419195652008, 0.012083369307219982], [0.1614111214876175, 0.09517084807157516], [0.02411160059273243, -0.2752436399459839], [0.03887985646724701, -0.14593563973903656], [0.024396048858761787, -0.28363972902297974], [0.2793945074081421, 0.16184002161026], [-0.014029067941009998, -0.09163966029882431], [-0.28181201219558716, 0.12078167498111725], [-0.08694835007190704, 0.13078473508358002], [0.08010448515415192, -0.10096175223588943], [-0.1171821802854538, -0.08060545474290848], [0.19214566051959991, -0.06196561083197594], [0.18134965002536774, -0.10971871018409729], [0.41585245728492737, 0.10083004087209702], [-0.10625910013914108, -0.07753947377204895], [-0.14725475013256073, -0.09563355147838593], [0.030049145221710205, 0.12672175467014313], [-0.07126479595899582, -0.04442901164293289], [0.042257603257894516, 0.080168217420578], [-0.08189081400632858, -0.090799480676651], [-0.0773252621293068, 0.26709499955177307], [0.04848760366439819, -0.006827422883361578], [0.21286167204380035, 0.25027337670326233], [0.21138784289360046, -0.11139606684446335], [-0.117306187748909, -0.16464869678020477], [0.050433628261089325, -0.2757754623889923], [0.13756029307842255, 0.1476898342370987], [-0.052551720291376114, 0.014180021360516548], [-0.21827830374240875, -0.04403268173336983], [0.03809071332216263, -0.09842494130134583], [-0.2665803134441376, 0.0027148532681167126], [-0.2339523434638977, 0.028470396995544434], [0.23302128911018372, 0.02785259298980236], [-0.07105714082717896, -0.07745455950498581], [-0.1269303262233734, 0.04491357505321503], [-0.08711632341146469, -0.18133538961410522], [0.07801620662212372, 0.019838891923427582], [0.05206214636564255, -0.3368397057056427], [0.07720202952623367, 0.07803568243980408], [-0.10082051157951355, 0.09108899533748627], [0.13267938792705536, 0.2374596893787384], [0.12825588881969452, -0.029821963980793953], [0.3215021789073944, 0.13013561069965363], [0.10128840059041977, -0.11280261725187302], [0.09832967072725296, -0.41308310627937317], [0.11278653889894485, 0.019769802689552307], [0.16685311496257782, 0.024330368265509605], [0.1108013316988945, 0.14573101699352264]], [[0.22803623974323273, -0.04842164367437363], [0.06418152898550034, -0.08903183788061142], [0.09822383522987366, -0.01522817648947239], [-0.1691526472568512, 0.07757964730262756], [-0.0447482094168663, 0.23632676899433136], [0.06217535212635994, -0.08307991176843643], [-0.08606169372797012, -0.07776851952075958], [-0.09227651357650757, 0.07489918172359467], [0.10645073652267456, -0.20133604109287262], [-0.20513412356376648, 0.017826592549681664], [-0.1645045429468155, -0.13656610250473022], [0.034598592668771744, -0.057310551404953], [-0.41994670033454895, -0.19152575731277466], [-0.11893727630376816, 0.22833670675754547], [0.1842799037694931, -0.01963820494711399], [0.3137859106063843, -0.024282148107886314], [-0.047191072255373, 0.12456667423248291], [0.013556023128330708, -0.2624565660953522], [-0.126083642244339, -0.031996484845876694], [0.26107874512672424, 0.049200378358364105], [0.21439260244369507, 0.20158444344997406], [-0.1160452589392662, -0.046525273472070694], [-0.014402162283658981, -0.11701793223619461], [-0.10493697226047516, -0.022402910515666008], [0.20468515157699585, 0.011424320749938488], [-0.30980515480041504, -0.10630431026220322], [-0.2342391312122345, -0.048348598182201385], [-0.266370952129364, 0.07821392267942429], [0.029147015884518623, -0.18032054603099823], [-0.10702899098396301, -0.2853284180164337], [-0.2960067391395569, -0.16952964663505554], [-0.12126234918832779, -0.03813936561346054], [0.2805325984954834, 0.3564535081386566], [-0.11385742574930191, -0.04705756530165672], [-0.08093207329511642, -0.10809347778558731], [-0.2965715527534485, -0.11156158149242401], [0.33205175399780273, 0.05677935481071472], [0.16923657059669495, -0.1502787470817566], [-0.2772071659564972, -0.03361564129590988], [-0.14415676891803741, -0.14319734275341034], [0.18873284757137299, 0.016340656206011772], [-0.04095005244016647, -0.016140758991241455], [-0.12162166833877563, 0.1158888041973114], [-0.03687657415866852, -0.1763698011636734], [-0.03555575758218765, 0.16862890124320984], [0.3718133866786957, 0.020233644172549248], [0.07099040597677231, -0.06512265652418137], [0.21202711760997772, -0.19685353338718414], [0.026903752237558365, 0.010516174137592316], [0.3269031047821045, -0.09543067216873169], [-0.1515311896800995, -0.05394141748547554], [0.38500547409057617, 0.01458680722862482], [-0.18972355127334595, 0.07569975405931473], [0.06554067879915237, 0.048829663544893265], [0.09141737222671509, 0.11169314384460449], [-0.5802737474441528, -0.0666450634598732], [0.07144021987915039, 0.10333305597305298], [-0.029589354991912842, 0.051502831280231476], [0.13108016550540924, 0.08630514144897461], [0.0520259253680706, 0.13901777565479279], [-0.15780678391456604, -0.1588377207517624], [-0.014672018587589264, 0.25640302896499634], [0.15305030345916748, 0.10178229957818985], [0.04378411918878555, 0.13361410796642303]], [[-0.11269878596067429, 0.21062426269054413], [-0.030021555721759796, -0.06590408831834793], [0.26936066150665283, 0.031589530408382416], [-0.13104070723056793, -0.07651962339878082], [0.2489604353904724, -0.183319091796875], [-0.02084948495030403, 0.01404818519949913], [-0.21490570902824402, -0.29749080538749695], [0.11928030103445053, 0.16219618916511536], [-0.13887906074523926, -0.10092147439718246], [0.010195617564022541, 0.1579817682504654], [-0.13343197107315063, 0.004400074016302824], [0.24738070368766785, -0.016555866226553917], [-0.08805449306964874, -0.07548486441373825], [0.11149513721466064, 0.13754510879516602], [-0.03972671553492546, -0.12871216237545013], [0.015153810381889343, -0.1960437148809433], [-0.036238089203834534, 0.1660606414079666], [-0.3776630461215973, 0.1710706651210785], [0.27321451902389526, -0.2700217366218567], [-0.16891159117221832, 0.3572784662246704], [-0.2678755521774292, -0.024033458903431892], [0.00472426088526845, -0.2427724003791809], [0.15125688910484314, -0.22684413194656372], [-0.054068002849817276, 0.13728593289852142], [-0.004816270433366299, 0.023653749376535416], [-0.08207780122756958, -0.1190621629357338], [0.024097740650177002, -0.0708293616771698], [-0.08009539544582367, 0.34585487842559814], [-0.054439377039670944, 0.11504705250263214], [0.05360337346792221, 0.1857958883047104], [-0.07265298068523407, -0.23821896314620972], [0.06041507050395012, -0.03222453594207764], [-0.31019875407218933, 0.05152346193790436], [-0.060770582407712936, -0.1610986441373825], [-0.14972883462905884, 0.09500622004270554], [0.01746445894241333, -0.27357035875320435], [-0.09129203855991364, 0.00206567021086812], [0.3039138615131378, -0.22326511144638062], [0.16338689625263214, -0.08935611695051193], [0.09205085039138794, -0.23809342086315155], [0.21220587193965912, 0.33190464973449707], [0.18343491852283478, -0.26210546493530273], [0.07088613510131836, 0.05048390477895737], [-0.09225000441074371, -0.15583305060863495], [0.13304324448108673, -0.2620760202407837], [-0.31804925203323364, -0.16219346225261688], [0.2044769525527954, 0.09205976128578186], [-0.09104860574007034, 0.0528385266661644], [-0.0676039531826973, 0.02165665104985237], [0.066850446164608, -0.024094615131616592], [-0.08480001240968704, 0.10801921784877777], [0.27269870042800903, -0.1474904865026474], [0.09148769080638885, 0.023927820846438408], [0.04903092980384827, -0.04749978706240654], [-0.16114182770252228, 0.2994682490825653], [-0.3139704167842865, 0.03468089923262596], [-0.18826721608638763, -0.17657428979873657], [0.14110983908176422, 0.2663745582103729], [0.04080796614289284, -0.04371679946780205], [0.16362573206424713, -0.28471872210502625], [0.026222918182611465, -0.28089162707328796], [0.21305625140666962, -0.13593700528144836], [-0.15140961110591888, -0.2676335573196411], [0.16198424994945526, 0.013696668669581413]], [[-0.16899912059307098, 0.09060075134038925], [0.20010684430599213, 0.10934965312480927], [0.0653156116604805, -0.10662171989679337], [-0.1756037324666977, 0.014905284158885479], [0.05922591686248779, -0.4421072006225586], [0.004170568659901619, 0.2694423496723175], [-0.08872566372156143, -0.2926524877548218], [-0.02221698686480522, -0.21454888582229614], [0.021782785654067993, 0.22498819231987], [0.12559214234352112, -0.2040209323167801], [-0.07788140326738358, -0.0394153818488121], [-0.04951808974146843, 0.0008788875420577824], [-0.10452349483966827, 0.04087502881884575], [0.1731875240802765, 0.1536550670862198], [0.2155856341123581, -0.4164856970310211], [-0.2245570570230484, -0.06540270149707794], [-0.16321399807929993, -0.21867330372333527], [0.006236019544303417, 0.04862618073821068], [-0.11635982245206833, -0.21636289358139038], [0.03343864157795906, -0.06290320307016373], [-0.08326318114995956, -0.2060684859752655], [0.271575391292572, 0.10499276220798492], [-0.09155518561601639, 0.07989610731601715], [-0.06705701351165771, -0.2064964920282364], [0.06296241283416748, -0.07625465840101242], [-0.007179193198680878, 0.2622092664241791], [0.10602518171072006, -0.1307658553123474], [-0.0751713365316391, 0.13682222366333008], [-0.014485900290310383, -0.2638011872768402], [0.0008029538439586759, 0.08622585982084274], [0.0997176542878151, 0.21512697637081146], [0.060756389051675797, 0.04453568533062935], [-0.21684251725673676, 0.04343528673052788], [-0.31759437918663025, 0.17371490597724915], [-0.2938651740550995, 0.11461198329925537], [-0.18356607854366302, 0.06370185315608978], [0.0005637113936245441, -0.18575498461723328], [-0.010815714485943317, 0.16314385831356049], [0.0450335331261158, 0.25239166617393494], [-0.03270716592669487, -0.2613854706287384], [-0.16877508163452148, -0.14070656895637512], [0.10307352244853973, -0.06638851016759872], [-0.043537482619285583, -0.001368862111121416], [-0.19598186016082764, -0.12430001050233841], [0.36816608905792236, 0.13372421264648438], [-0.006885740906000137, -0.13019618391990662], [0.23597846925258636, -0.05177408456802368], [0.11438281089067459, -0.1894848495721817], [0.27984169125556946, -0.1361372023820877], [0.10478340089321136, -0.14695440232753754], [0.34649592638015747, -0.13245294988155365], [-0.1348932832479477, -0.17709441483020782], [0.0034297348465770483, 0.2472732812166214], [-0.04036477208137512, 0.08464603126049042], [0.15145458281040192, -0.013948662206530571], [-0.3570798337459564, -0.0539902001619339], [-0.15934012830257416, 0.03459890931844711], [0.14718466997146606, 0.022835982963442802], [0.14753928780555725, 0.007791207171976566], [0.04064053297042847, -0.08280318230390549], [-0.11030260473489761, 0.07467196136713028], [0.003556592157110572, 0.07993210107088089], [-0.059503957629203796, 0.008403142914175987], [-0.014307364821434021, 0.1534048169851303]]]","[[0.0, 0.0, 0.0, 0.0, 0.0, 0.0, 0.0, 0.0, 0.0, 0.0, 0.0, 0.0, 0.0, 0.0, 0.0, 0.0, 0.0, 0.0, 0.0, 0.0, 0.0, 0.0, 0.0, 0.0, 0.0, 0.0, 0.0, 0.0, 0.0, 0.0, 0.0, 0.0, 0.0, 0.0, 0.0, 0.0, 0.0, 0.0, 0.0, 0.0, 0.0, 0.0, 0.0, 0.0, 0.0, 0.0, 0.0, 0.0, 0.0, 0.0, 0.0, 0.0, 0.0, 0.0, 0.0, 0.0, 0.0, 0.0, 0.0, 0.0, 0.0, 0.0, 0.0, 0.0], [0.0, 0.0, 0.0, 0.0, 0.0, 0.0, 0.0, 0.0, 0.0, 0.0, 0.0, 0.0, 0.0, 0.0, 0.0, 0.0, 0.0, 0.0, 0.0, 0.0, 0.0, 0.0, 0.0, 0.0, 0.0, 0.0, 0.0, 0.0, 0.0, 0.0, 0.0, 0.0, 0.0, 0.0, 0.0, 0.0, 0.0, 0.0, 0.0, 0.0, 0.0, 0.0, 0.0, 0.0, 0.0, 0.0, 0.0, 0.0, 0.0, 0.0, 0.0, 0.0, 0.0, 0.0, 0.0, 0.0, 0.0, 0.0, 0.0, 0.0, 0.0, 0.0, 0.0, 0.0], [0.0, 0.0, 0.0, 0.0, 0.0, 0.0, 0.0, 0.0, 0.0, 0.0, 0.0, 0.0, 0.0, 0.0, 0.0, 0.0, 0.0, 0.0, 0.0, 0.0, 0.0, 0.0, 0.0, 0.0, 0.0, 0.0, 0.0, 0.0, 0.0, 0.0, 0.0, 0.0, 0.0, 0.0, 0.0, 0.0, 0.0, 0.0, 0.0, 0.0, 0.0, 0.0, 0.0, 0.0, 0.0, 0.0, 0.0, 0.0, 0.0, 0.0, 0.0, 0.0, 0.0, 0.0, 0.0, 0.0, 0.0, 0.0, 0.0, 0.0, 0.0, 0.0, 0.0, 0.0], [0.0, 0.0, 0.0, 0.0, 0.0, 0.0, 0.0, 0.0, 0.0, 0.0, 0.0, 0.0, 0.0, 0.0, 0.0, 0.0, 0.0, 0.0, 0.0, 0.0, 0.0, 0.0, 0.0, 0.0, 0.0, 0.0, 0.0, 0.0, 0.0, 0.0, 0.0, 0.0, 0.0, 0.0, 0.0, 0.0, 0.0, 0.0, 0.0, 0.0, 0.0, 0.0, 0.0, 0.0, 0.0, 0.0, 0.0, 0.0, 0.0, 0.0, 0.0, 0.0, 0.0, 0.0, 0.0, 0.0, 0.0, 0.0, 0.0, 0.0, 0.0, 0.0, 0.0, 0.0], [0.0, 0.0, 0.0, 0.0, 0.0, 0.0, 0.0, 0.0, 0.0, 0.0, 0.0, 0.0, 0.0, 0.0, 0.0, 0.0, 0.0, 0.0, 0.0, 0.0, 0.0, 0.0, 0.0, 0.0, 0.0, 0.0, 0.0, 0.0, 0.0, 0.0, 0.0, 0.0, 0.0, 0.0, 0.0, 0.0, 0.0, 0.0, 0.0, 0.0, 0.0, 0.0, 0.0, 0.0, 0.0, 0.0, 0.0, 0.0, 0.0, 0.0, 0.0, 0.0, 0.0, 0.0, 0.0, 0.0, 0.0, 0.0, 0.0, 0.0, 0.0, 0.0, 0.0, 0.0]]","[[[0.037657324224710464, -0.13156265020370483, 0.28512653708457947, 0.07803928852081299, -0.01810581050813198, -0.2626352906227112, 0.06249387562274933, 0.09043393284082413, 0.037589751183986664, -0.11243872344493866, -0.054738886654376984, -0.00989981833845377, -0.18443673849105835, -0.10838831216096878, -0.1499873250722885, -0.07936860620975494, -0.06588570028543472, -0.16850866377353668, -0.19641974568367004, 0.261556476354599, -0.052299026399850845, -0.028094999492168427, -0.16243334114551544, -0.1650979220867157, 0.10321921855211258, -0.04945237934589386, 0.05193663015961647, 0.09582839161157608, -0.03563724830746651, 0.46637651324272156, -0.39092326164245605, 0.029744882136583328, 0.11599522083997726, -0.10472742468118668, -0.1230158805847168, -0.31929534673690796, 0.10769736766815186, -0.1422877162694931, 0.0289600919932127, 0.08297593891620636, 0.00887003168463707, 0.25168874859809875, 0.047107767313718796, -0.009235461242496967, 0.35710224509239197, -0.09190969914197922, -0.10062312334775925, 0.04382834583520889, 0.22047214210033417, 0.12953124940395355, 0.176213800907135, 0.07810506224632263, -0.10520755499601364, 0.3120504915714264, -0.008914181962609291, -0.015497265383601189, -0.11504605412483215, 0.033164672553539276, 0.11664874106645584, 0.21381039917469025, 0.1263941377401352, -0.445516973733902, -0.20828546583652496, 0.16703085601329803], [-0.17208760976791382, -0.3180713355541229, 0.19708190858364105, -0.10751856118440628, 0.25892287492752075, 0.26984909176826477, -0.009358574636280537, -0.27021709084510803, -0.0109286829829216, -0.2725769877433777, 0.18854160606861115, -0.03389411047101021, 0.025697024539113045, 0.08569557219743729, -0.04233153164386749, -0.07432015240192413, 0.04188224673271179, -0.09986044466495514, 0.16680175065994263, -0.18725267052650452, -0.07197988033294678, 0.2969949543476105, -0.11818742007017136, -0.12331324815750122, -0.2849586606025696, -0.06453833729028702, -0.07999568432569504, 0.06451261043548584, 0.08058956265449524, -0.04061867296695709, 0.07481934130191803, 0.006152044050395489, -0.15294258296489716, -0.033245157450437546, -0.030128175392746925, -0.3421114683151245, -0.14718501269817352, 0.1425548642873764, 0.06475502252578735, -0.05200447887182236, -0.08703719079494476, -0.18215349316596985, -0.07571569085121155, -0.10240694880485535, -0.33081555366516113, -0.027470743283629417, -0.033225227147340775, 0.15341582894325256, 0.17481692135334015, 0.12990917265415192, 0.4170818328857422, -0.3000485599040985, 0.12052372097969055, 0.136616051197052, 0.008701041340827942, -0.08166184276342392, -0.03704115375876427, 0.016745129600167274, 0.1600869596004486, -0.07510490715503693, 0.2699619233608246, 0.18575337529182434, -0.04675028845667839, 0.12440760433673859], [0.11693600565195084, 0.212818443775177, 0.004685238469392061, 0.22494393587112427, -0.3920728266239166, 0.06257456541061401, 0.2268899530172348, 0.12023400515317917, -0.26396697759628296, -0.1093134954571724, -0.1260460913181305, -0.22425279021263123, 0.1770736277103424, 0.340628981590271, 0.06130457669496536, -0.018066218122839928, 0.07234087586402893, -0.20090268552303314, -0.2943580150604248, 0.16848425567150116, 0.11221738159656525, 0.20971454679965973, 0.04999431222677231, 0.026842990890145302, -0.31513890624046326, -0.028925348073244095, -0.39365971088409424, 0.07030642777681351, 0.12356864660978317, -0.06965869665145874, 0.21794554591178894, -0.02644954062998295, 0.08102245628833771, 0.23379790782928467, -0.04394839331507683, -0.029495660215616226, 0.05422566458582878, 0.18593181669712067, 0.11110565811395645, -0.1776529997587204, 0.0990096777677536, -0.029480017721652985, 0.00037329838960431516, -0.14778995513916016, 0.4752207398414612, -0.05078037083148956, 0.11611887067556381, 0.3153075575828552, 0.04360729828476906, -0.015363558195531368, 0.2835689187049866, -0.2082555890083313, 0.06419208645820618, 0.10875973850488663, 0.21417498588562012, -0.019873211160302162, 0.2166825383901596, 0.13080592453479767, -0.2570946514606476, 0.05388874188065529, -0.2357345074415207, 0.10585086047649384, -0.2725699841976166, -0.0061050280928611755]], [[-0.10926687717437744, 0.1782091110944748, -0.04487810656428337, -0.35784491896629333, -0.09418264031410217, -0.2742430567741394, -0.21492236852645874, -0.31146591901779175, 0.008639485575258732, -0.06284414976835251, -0.06169869750738144, 0.02960178628563881, 0.01986149325966835, -0.05296614393591881, 0.11072434484958649, -0.433138906955719, 0.0935409665107727, 0.13320645689964294, -0.11253520101308823, -0.08336064219474792, 0.17201970517635345, -0.12268486618995667, 0.08213614672422409, 0.03039504587650299, 0.1005990281701088, 0.1955249160528183, 0.1991543024778366, -0.28081953525543213, -0.2041960507631302, 0.14269182085990906, 0.06137465685606003, 0.16984611749649048, -0.009073990397155285, -0.09980808198451996, -0.02249797433614731, -0.2895704209804535, -0.12422219663858414, 0.06496645510196686, 0.13932043313980103, -0.0523652508854866, 0.12082094699144363, -0.05908789858222008, 0.06769318133592606, 0.05716891586780548, 0.1743568331003189, -0.03946232423186302, 0.049121856689453125, 0.1921539008617401, -0.18884597718715668, -0.044213227927684784, -0.17254135012626648, 0.16488969326019287, 0.15086251497268677, 0.004332263953983784, -0.2901116907596588, 0.18690980970859528, 0.342236191034317, -0.14611390233039856, 0.14666004478931427, -0.34266600012779236, 0.08101298660039902, 0.025125741958618164, 0.23987977206707, 0.14226283133029938], [-0.009878439828753471, -0.20381341874599457, 0.08928047865629196, -0.03630637377500534, 0.04289139062166214, 0.00035978088271804154, -0.23775316774845123, 0.2460528314113617, -0.1346368044614792, -0.05779125541448593, 0.13251464068889618, -0.24215258657932281, 0.05759492889046669, -0.005817117169499397, -0.07045963406562805, 0.016917776316404343, -0.04931728169322014, -0.1714855432510376, -0.1429358869791031, 0.013554345816373825, 0.4256419241428375, -0.28162989020347595, 0.26912522315979004, 0.01850472204387188, 0.029134567826986313, -0.3001353442668915, 0.10987763851881027, 0.02171287313103676, -0.32972797751426697, 0.15539062023162842, -0.002924555679783225, 0.09939467906951904, 0.12279553711414337, -0.30717387795448303, 0.19683055579662323, 0.030483679845929146, -0.09869108349084854, -0.05182230472564697, 0.03716587275266647, -0.10815531015396118, 0.2392522245645523, -0.09429085999727249, -0.16922716796398163, -0.19621963798999786, -0.042291756719350815, -0.29499202966690063, 0.25193318724632263, 0.17123974859714508, -0.27774807810783386, 0.026475362479686737, -0.37574446201324463, 0.2268766611814499, -0.11576007306575775, -0.002516240580007434, 0.0972583070397377, -0.2428044080734253, -0.013967775739729404, -0.1150047555565834, 0.04074370115995407, -0.24027881026268005, -0.07334702461957932, -0.13425761461257935, -0.19596226513385773, 0.12815527617931366], [0.046139635145664215, -0.04381940886378288, 0.2619003355503082, 0.4348209500312805, -0.027648957446217537, 0.12944602966308594, 0.1704522967338562, 0.3687373697757721, 0.1677655726671219, 0.006480236537754536, -0.002224563155323267, 0.08186261355876923, 0.017623329535126686, 0.04743341729044914, -0.31938236951828003, 0.04084761068224907, 0.30193012952804565, -0.1441684365272522, 0.21136803925037384, -0.1534416526556015, -0.05923698842525482, 0.04093720391392708, 0.04773330315947533, -0.14507955312728882, 0.06265745311975479, -0.06104067713022232, 0.013535220175981522, -0.01170965377241373, 0.030850274488329887, -0.1539156138896942, 0.04397062584757805, -0.03410879522562027, -0.22408929467201233, -0.06301142275333405, 0.050018854439258575, 0.3524361550807953, -0.192450150847435, 0.13183251023292542, -0.00943109393119812, -0.3011590242385864, 0.553372859954834, -0.1606786549091339, -0.14516273140907288, 0.07060981541872025, -0.27004489302635193, -0.20580460131168365, 0.08314238488674164, 0.007219529710710049, 0.06618276983499527, 0.18998393416404724, 0.029858509078621864, 0.24570713937282562, 0.08636181801557541, -0.09306350350379944, -0.09777932614088058, -0.4701118767261505, -0.1732117235660553, -0.22308854758739471, 0.5900588035583496, 0.33056315779685974, -0.3238486051559448, 0.003712759120389819, 0.11825946718454361, -0.2475041151046753]], [[-0.09000326693058014, -0.19965828955173492, 0.12265333533287048, 0.11291281878948212, 0.09781385958194733, 0.07944824546575546, -0.1507452130317688, -0.11713984608650208, -0.15539737045764923, 0.12369347363710403, -0.007239359896630049, -0.2811437249183655, 0.010058917105197906, -0.1379196047782898, -0.05911300331354141, 0.020329393446445465, 0.17780345678329468, -0.25840118527412415, -0.22012124955654144, -0.07894457876682281, 0.10632368177175522, 0.19700853526592255, -0.06645112484693527, 0.0442422479391098, 0.4639929533004761, 0.1943052113056183, 0.07813610136508942, -0.11428391933441162, 0.016025371849536896, -0.029512163251638412, -0.2810196876525879, 0.15181897580623627, -0.24277456104755402, -0.029163016006350517, -0.10353690385818481, 0.18926212191581726, 0.012921709567308426, 0.11988504230976105, -0.28260037302970886, -0.1997818499803543, -0.05775836110115051, -0.23655454814434052, 0.46901625394821167, 0.2025526911020279, -0.10321663320064545, 0.09373502433300018, 0.02928859367966652, -0.036680445075035095, 0.14663942158222198, 0.0001532619644422084, -0.1321660727262497, -0.026341604068875313, -0.016957275569438934, -0.11939753592014313, 0.1070140078663826, 0.12506356835365295, -0.15858589112758636, 0.377175897359848, -0.18368478119373322, 0.4921703338623047, 0.23594021797180176, -0.16214610636234283, 0.06581984460353851, 0.007276435382664204], [-0.07505445182323456, -0.09632838517427444, 0.05692652240395546, 0.2366468608379364, -0.23019324243068695, -0.07557244598865509, -0.06971694529056549, -0.28340670466423035, -0.11154462397098541, 0.0354694165289402, -0.13390979170799255, -0.2719956338405609, 0.10809089988470078, 0.11830049753189087, 0.27358072996139526, -0.25447848439216614, -0.1333644688129425, 0.0074004135094583035, -0.2428203523159027, -0.19401580095291138, -0.26342588663101196, 0.03536437451839447, -0.07321228086948395, 0.020959168672561646, 0.0508057065308094, -0.46262988448143005, -0.04802815988659859, 0.35539230704307556, -0.1688661426305771, 0.11318611353635788, -0.3488185405731201, -0.20808959007263184, -0.2666999101638794, -0.12956301867961884, -0.1197960302233696, 0.18102839589118958, -0.1738973706960678, 0.059118229895830154, -0.15696361660957336, -0.047884758561849594, 0.045946814119815826, 0.008621633052825928, -0.03098655305802822, 0.18122754991054535, -0.05471465364098549, -0.11493940651416779, -0.1352829486131668, 0.07152336835861206, -0.18960276246070862, 0.20777831971645355, 0.09743652492761612, 0.30789315700531006, -0.14235298335552216, -0.10982243716716766, 0.09145176410675049, -0.02004459872841835, -0.22416366636753082, -0.13035203516483307, -0.016979772597551346, -0.10932810604572296, 0.2328510731458664, -0.1621215045452118, 0.11929238587617874, 0.12134348601102829], [-0.025157708674669266, 0.20745563507080078, 0.03822486847639084, 0.13502830266952515, 0.15887762606143951, 0.2432377189397812, 0.09677108377218246, -0.3428950011730194, 0.1356898546218872, 0.0030140241142362356, -0.09414766728878021, -0.14936688542366028, 0.13782212138175964, 0.1070125550031662, -0.030764533206820488, 0.06736855208873749, -0.394766628742218, 0.05572724714875221, -0.10366348922252655, -0.17127273976802826, -0.036261510103940964, -0.06076958030462265, 0.20289729535579681, 0.21931619942188263, 0.025414839386940002, 0.10829857736825943, -0.18192030489444733, 0.09407078474760056, -0.04414200782775879, 0.038757286965847015, -0.03233810141682625, -0.06536882370710373, -0.007167401257902384, 0.10537295043468475, 0.1503235548734665, 0.1759917289018631, -0.04942229390144348, -0.22717972099781036, -0.22442089021205902, -0.44799113273620605, 0.151038259267807, 0.13282273709774017, -0.38406088948249817, -0.1509367823600769, -0.128008633852005, 0.09288183599710464, -0.09151802211999893, 0.1986721307039261, 0.17388513684272766, 0.15071503818035126, 0.008273229002952576, -0.1631278097629547, -0.0754551962018013, -0.173926442861557, -0.4750537574291229, -0.14880622923374176, -0.0725511908531189, -0.07007105648517609, -0.13238556683063507, 0.4649863839149475, 0.07421433180570602, 0.1781066656112671, -0.0066552781499922276, 0.12151698768138885]], [[-0.18471989035606384, 0.11007709056138992, 0.08773482590913773, 0.2922687530517578, -0.02006397396326065, -0.15371471643447876, 0.40552034974098206, 0.04373997449874878, -0.2428368479013443, 0.31204721331596375, 0.13422557711601257, -0.0922989472746849, -0.018264610320329666, -0.0658494234085083, -0.04697695001959801, -0.14019201695919037, -0.43086540699005127, 0.17246268689632416, -0.08022679388523102, -0.08110887557268143, -0.0921032726764679, 0.09060795605182648, -0.22862905263900757, -0.3332538902759552, 0.11960951238870621, 0.1224358081817627, 0.19004659354686737, 0.019108038395643234, 0.030100269243121147, -0.12603849172592163, 0.04001202806830406, -0.046086955815553665, -0.3115108609199524, 0.19403699040412903, -0.145942822098732, 0.047822944819927216, -0.11792246997356415, 0.027250031009316444, 0.20691059529781342, -0.060443226248025894, 0.08891572058200836, 0.21647386252880096, -0.046403300017118454, -0.1574506163597107, -0.13799728453159332, 0.07678207010030746, -0.05798463895916939, -0.02925523929297924, 0.2024705857038498, -0.10254347324371338, 0.020413603633642197, 0.13672150671482086, -0.16395914554595947, -0.13527430593967438, -0.3281972408294678, 0.027455555275082588, -0.12936697900295258, 0.034092243760824203, -0.014250882901251316, -0.009304889477789402, 0.35092970728874207, 0.05165886878967285, 0.09066443145275116, -0.05706045776605606], [-0.05507897958159447, 0.143528550863266, -0.1746024638414383, 0.01608639396727085, 0.029350483790040016, 0.007649165112525225, 0.04172435402870178, -0.15392063558101654, -0.020880697295069695, -0.18548372387886047, 0.3179505169391632, 0.027408594265580177, -0.19794102013111115, -0.006804510485380888, 0.34019115567207336, -0.18235339224338531, 0.08074048906564713, 0.3031579852104187, 0.13488012552261353, -0.007185560651123524, 0.08990702778100967, -0.22054865956306458, 0.0055198692716658115, 0.20867973566055298, 0.05026530846953392, -0.06274630129337311, -0.20324911177158356, 0.007249726448208094, 0.2353513538837433, -0.15000376105308533, -0.012597361579537392, 0.13864699006080627, 0.2160065770149231, -0.056471697986125946, 0.028678948059678078, -0.10467323660850525, 0.010607565753161907, 0.06538720428943634, -0.13290168344974518, -0.04980824515223503, -0.23196420073509216, 0.2633301615715027, -0.07372696697711945, -0.025652019307017326, 0.10519301146268845, 0.08445002883672714, 0.11897574365139008, 0.08262652158737183, 0.07603003829717636, 0.26567694544792175, -0.010622687637805939, -0.007301905192434788, -0.04802902415394783, -0.03250962123274803, 0.13953539729118347, -0.16734835505485535, 0.005898948293179274, 0.21308065950870514, -0.013760216534137726, 0.16662563383579254, 0.12690138816833496, 0.1646268367767334, 0.055514365434646606, -0.17205747961997986], [0.20327870547771454, 0.20033793151378632, -0.09487509727478027, 0.14468830823898315, -0.14838014543056488, 0.00029611476929858327, 0.25506335496902466, -0.21642130613327026, 0.27754756808280945, 0.005252560134977102, -0.058720655739307404, 0.20961499214172363, 0.20992988348007202, -0.03569275140762329, -0.0324096716940403, -0.032556988298892975, -0.060017455369234085, 0.0914890468120575, -0.31377682089805603, -0.1433265656232834, 0.354079931974411, 0.21818095445632935, 0.27931612730026245, -0.27503088116645813, 0.029574405401945114, 0.2304350584745407, 0.06637056171894073, 0.15692047774791718, -0.09877211600542068, -0.2061993032693863, 0.0018527015345171094, -0.08062124997377396, 0.0908045694231987, 0.05581961199641228, -0.2124428153038025, -0.26315703988075256, 0.024720095098018646, 0.10703858733177185, 0.45029905438423157, -0.019059041514992714, -0.18313908576965332, -0.07681696861982346, -0.19236057996749878, 0.1085687056183815, 0.12401904910802841, 0.17296066880226135, 0.05451470986008644, 0.11375543475151062, 0.18943838775157928, -0.0668259710073471, 0.07555215060710907, -0.20928622782230377, 0.14002861082553864, 0.6281552314758301, 0.08595900982618332, -0.003841556143015623, 0.07001946121454239, 0.1471138894557953, -0.04133368656039238, -0.023440204560756683, 0.10471747815608978, -0.06064847856760025, -0.029821274802088737, 0.03761836513876915]], [[0.2620515525341034, -0.1890023797750473, -0.028859823942184448, -0.013281652703881264, -0.1492701768875122, 0.18862298130989075, -0.05011700838804245, -0.1482003629207611, -0.0613567978143692, -0.009363461285829544, -0.14468924701213837, 0.12363474071025848, -0.049297526478767395, -0.3023301362991333, -0.15677198767662048, 0.20923146605491638, 0.33351805806159973, 0.0912068784236908, -0.1632661670446396, 0.05336955189704895, -0.2262129932641983, 0.03534046560525894, 0.024959778413176537, -0.21517716348171234, 0.11450885236263275, -0.18032580614089966, 0.13976235687732697, 0.08625392615795135, 0.23376570641994476, -0.3266383707523346, -0.2787669003009796, 0.036882705986499786, 0.15565678477287292, -0.37811002135276794, -0.34734752774238586, 0.3242863118648529, -0.054252058267593384, 0.14283695816993713, 0.049487996846437454, 0.2069319635629654, 0.04910536855459213, 0.1295403242111206, 0.025418778881430626, -0.04393854737281799, 0.04193119704723358, 0.1352134346961975, 0.0477612279355526, -0.4227672815322876, -0.2528270184993744, 0.17768627405166626, 0.0698518380522728, -0.1687375158071518, 0.11483090370893478, -0.1405838578939438, -0.16368161141872406, -0.12556323409080505, 0.06446897238492966, -0.041504308581352234, -0.15563960373401642, 0.10264837741851807, -0.23409146070480347, -0.018813766539096832, 0.09092622995376587, -0.0022893676068633795], [0.16170525550842285, -0.0214834026992321, -0.05949114263057709, -0.3117493689060211, -0.06336275488138199, 0.061368729919195175, 0.07013373076915741, -0.20475256443023682, 0.36473599076271057, -0.04350533336400986, 0.08344486355781555, -0.06951091438531876, -0.02754219062626362, -0.05950956419110298, 0.05870801955461502, -0.02746441401541233, 0.33426302671432495, 0.16153891384601593, 0.12163708359003067, -0.06168956309556961, 0.13405312597751617, 0.08242389559745789, 0.3720983564853668, 0.0703132152557373, 0.13817286491394043, 0.10957027971744537, 0.12913891673088074, -0.02575288899242878, -0.08784231543540955, -0.023369962349534035, 0.07621423900127411, 0.04854526370763779, -0.1301504373550415, 0.022890502586960793, -0.18942347168922424, -0.24849487841129303, -0.20228713750839233, 0.09386740624904633, 0.002911778399720788, 0.13668903708457947, 0.00433468958362937, 0.09185207635164261, -0.026058677583932877, 0.18006721138954163, 0.09760597348213196, 0.2794124484062195, 0.10543640702962875, -0.12072059512138367, 0.29141515493392944, 0.2892853915691376, -0.16585922241210938, -0.08405591547489166, -0.14726285636425018, -0.09499458223581314, 0.2094605416059494, -0.2336745709180832, 0.2782793641090393, 0.11063862591981888, -0.0735812559723854, 0.14114181697368622, -0.046040114015340805, -0.4744676649570465, 0.011223413981497288, -0.04698992893099785], [0.16238538920879364, -0.016523098573088646, 0.1831815540790558, -0.19124943017959595, -0.2611618638038635, -0.021849382668733597, 0.14150670170783997, 0.19019736349582672, -0.4247068762779236, 0.04742641746997833, 0.13091115653514862, 0.08811242878437042, 0.09564156085252762, -0.008022334426641464, -0.0030654689762741327, -0.1719633936882019, -0.32514509558677673, -0.1898288130760193, -0.20535950362682343, 0.3032437264919281, 0.14609770476818085, -0.07845622301101685, 0.1115962564945221, 0.3839787542819977, -0.11282449215650558, -0.2643651068210602, -0.07650860399007797, -0.061342328786849976, 0.034466490149497986, 0.14609172940254211, -0.44900333881378174, 0.04479960724711418, -0.0794897973537445, -0.10136719048023224, 0.30148956179618835, 0.023161383345723152, -0.012341199442744255, 0.04647531732916832, -0.0547785758972168, -0.04602030664682388, 0.09879881143569946, 0.056071650236845016, 0.05519350990653038, -0.02272152714431286, 0.06817314773797989, -0.10102689266204834, -0.2228158861398697, -0.039301153272390366, 0.06826788932085037, 0.06655360758304596, -0.09960339963436127, 0.06848477572202682, 0.07098019123077393, 0.18589316308498383, 0.17511272430419922, -0.18745392560958862, -0.2037976235151291, -0.012781636789441109, 0.23732420802116394, 0.056292518973350525, -0.006678554229438305, -0.21517732739448547, 0.01941857300698757, 0.06433366239070892]]]","[[0.0, 0.0, 0.0], [0.0, 0.0, 0.0], [0.0, 0.0, 0.0], [0.0, 0.0, 0.0], [0.0, 0.0, 0.0]]"
4,0.1,"[[[0.049827419221401215, 0.14036236703395844], [-0.09787016361951828, 0.41490116715431213], [0.05665874853730202, -0.05547588691115379], [-0.11580757051706314, -0.15659770369529724], [0.24650157988071442, 0.08455418050289154], [0.22726662456989288, 0.23472385108470917], [0.34177273511886597, -0.03319668769836426], [0.10026093572378159, 0.23020003736019135], [0.01730703003704548, -0.061054591089487076], [-0.1539822518825531, 0.23767049610614777], [0.27623793482780457, 0.160589337348938], [-0.08074343949556351, 0.11297408491373062], [0.010916722938418388, 0.12445826083421707], [0.2252076417207718, 0.05838458612561226], [-0.02457171306014061, -0.09324586391448975], [0.14562639594078064, -0.033586084842681885], [0.08151931315660477, 0.21702785789966583], [0.008037100546061993, -0.22499260306358337], [-0.22900505363941193, 0.037336934357881546], [0.21854735910892487, 0.1237531378865242], [0.021282928064465523, -0.16535960137844086], [0.2260141670703888, -0.13469034433364868], [-0.19842477142810822, 0.139609694480896], [0.07758122682571411, 0.2423824667930603], [0.151361346244812, 0.03870520368218422], [-0.10714899003505707, 0.005355393048375845], [0.23278406262397766, -0.04721209406852722], [-0.01231735572218895, 0.1804356426000595], [0.23627951741218567, 0.06972586363554001], [-0.01520313136279583, -0.013981502503156662], [-0.1202915832400322, -0.08519001305103302], [0.09325307607650757, -0.03630812093615532], [0.23186028003692627, 0.09290529787540436], [0.10223697125911713, -0.2616157829761505], [-0.031996939331293106, 0.025402342900633812], [-0.11920580267906189, -0.46120768785476685], [0.3496909439563751, 0.07771098613739014], [0.04274008050560951, 0.1711660474538803], [0.00019931388669647276, 0.08387869596481323], [-0.16308754682540894, 0.2278573215007782], [0.010600556619465351, -0.22876998782157898], [0.23749716579914093, -0.024766972288489342], [0.1341845542192459, 0.32439562678337097], [-0.11800706386566162, -0.22919511795043945], [0.1505117118358612, -0.07720433920621872], [0.43037647008895874, -0.23105540871620178], [0.1903514266014099, -0.37996718287467957], [0.24715135991573334, -0.2807624638080597], [-0.01680268719792366, 0.034279126673936844], [-0.05670081079006195, 0.12103937566280365], [0.279977947473526, -0.21571367979049683], [0.009616590104997158, 0.19096539914608002], [-0.012014642357826233, 0.5064837336540222], [0.15077008306980133, -0.14399796724319458], [0.05010655149817467, 0.07649395614862442], [0.16806156933307648, 0.4739311635494232], [-0.04966010898351669, 0.0645081177353859], [0.1428080052137375, 0.137965127825737], [-0.09548334032297134, -0.2248854786157608], [-0.3319224417209625, -0.09066103398799896], [-0.033629581332206726, 0.1022408977150917], [-0.08868660777807236, -0.1044282466173172], [0.09475654363632202, -0.04569649323821068], [-0.21491014957427979, 0.022442491725087166]], [[-0.23578812181949615, 0.3458753228187561], [-0.057512931525707245, 0.061634983867406845], [0.048159483820199966, -0.2445306032896042], [-0.1683482527732849, -0.3627886176109314], [0.09935282915830612, -0.0829305350780487], [-0.09269768744707108, -0.0700688436627388], [-0.3000412583351135, 0.015779437497258186], [0.30377253890037537, -0.10481131076812744], [0.006892356090247631, 0.2909106910228729], [0.1973133236169815, 0.05879141762852669], [0.23220466077327728, 0.26478031277656555], [-0.014954392798244953, -0.02479180134832859], [-0.07239978015422821, 0.06108614802360535], [0.2073415368795395, 0.017738576978445053], [0.08247725665569305, 0.001517890952527523], [-0.2942582964897156, 0.0964348316192627], [0.09180860966444016, 0.10151177644729614], [-0.28046897053718567, -0.1982935220003128], [-0.00835860799998045, 0.1762630045413971], [-0.28036177158355713, 0.2060404121875763], [0.15607082843780518, -0.2588615417480469], [-0.5686548352241516, 0.3635546863079071], [0.5097730755805969, -0.3584440052509308], [0.2447906881570816, -0.0769948661327362], [0.12979766726493835, 0.20836257934570312], [0.1525041162967682, 0.10261078923940659], [-0.06325215846300125, 0.05071108788251877], [-0.00927550159394741, -0.04552076756954193], [0.22661486268043518, 0.016939252614974976], [0.1248335912823677, -0.21542753279209137], [0.02573118358850479, 0.10935492813587189], [0.37042826414108276, -0.06252644211053848], [-0.1802564561367035, -0.04542247951030731], [0.21814663708209991, 0.1849479228258133], [-0.042421478778123856, 0.23352797329425812], [-0.1411944180727005, -0.4986484944820404], [0.0710984393954277, 0.15025442838668823], [-0.12568910419940948, -0.20722165703773499], [0.24685126543045044, 0.15755406022071838], [-0.08893927186727524, -0.08026082068681717], [-0.18733978271484375, 0.13799434900283813], [0.16856640577316284, -0.027235064655542374], [0.11409705132246017, 0.01936844177544117], [-0.05864650383591652, -0.018088040873408318], [0.31247439980506897, -0.06884483247995377], [0.08798880875110626, -0.158332958817482], [0.05220767855644226, -0.047482602298259735], [0.060487665235996246, -0.1548803746700287], [0.28101521730422974, 0.05476781353354454], [0.5140699744224548, 0.02395646646618843], [0.09183698892593384, -0.3305220901966095], [-0.048107605427503586, -0.026387697085738182], [-0.24475209414958954, -0.11100848764181137], [0.19460737705230713, -0.06622952222824097], [-0.036476124078035355, 0.4922192394733429], [-0.2922685146331787, 0.23477010428905487], [-0.01675952598452568, 0.19969442486763], [-0.18977604806423187, -0.01778542436659336], [-0.05145532637834549, 0.03568902611732483], [0.07499381899833679, -0.022002626210451126], [-0.015968943014740944, 0.18313659727573395], [0.02497098222374916, -0.19043035805225372], [-0.17318202555179596, 0.07704699039459229], [-0.2982535660266876, -0.03319145739078522]], [[0.005479891784489155, -0.30623748898506165], [0.2127857357263565, 0.27027347683906555], [-0.18289026618003845, 0.13942210376262665], [0.14567670226097107, -0.10693657398223877], [0.02039274200797081, 0.08069669455289841], [0.30099087953567505, -0.0033395688515156507], [0.019558638334274292, -0.24785642325878143], [-0.07128128409385681, -0.13151472806930542], [0.08027473092079163, -0.08131610602140427], [0.0354546494781971, 0.2832285463809967], [-0.08904024958610535, 0.03858906030654907], [0.00011041413381462917, 0.11118856817483902], [0.06994948536157608, -0.2608456313610077], [0.17009463906288147, 0.2725253999233246], [0.15840250253677368, -0.11305545270442963], [-0.032994236797094345, -0.23863005638122559], [0.040519870817661285, 0.28143587708473206], [-0.3143317997455597, -0.050638552755117416], [0.09406918287277222, 0.3025086522102356], [0.16009551286697388, 0.04174767807126045], [-0.0022033487912267447, 0.3677982687950134], [0.08816908299922943, -0.22762899100780487], [-0.27622947096824646, 0.12188110500574112], [-0.17117683589458466, -0.1846630871295929], [0.011404073797166348, -0.19954855740070343], [0.03791135177016258, 0.1685863882303238], [-0.03307588770985603, 0.11961734294891357], [-0.04416922852396965, -0.3718149960041046], [-0.16728752851486206, 0.2954498529434204], [0.04125906899571419, 0.027280215173959732], [-0.15732857584953308, 0.14584222435951233], [-0.25670325756073, 0.06525097042322159], [0.02897886000573635, -0.13428723812103271], [0.2562987506389618, 0.16883745789527893], [0.3033472001552582, -0.05256964638829231], [-0.20632825791835785, -0.03734872117638588], [-0.09412900358438492, 0.034851133823394775], [0.009061173535883427, -0.05178910866379738], [-0.09744653105735779, -0.14000245928764343], [-0.00506702670827508, 0.2792968451976776], [0.08795611560344696, -0.13067416846752167], [0.0011456029023975134, 0.33467891812324524], [0.254408061504364, -0.18000905215740204], [-0.16155314445495605, -0.005268346052616835], [-0.16547636687755585, -0.05226825177669525], [0.09364774078130722, -0.1739681214094162], [-0.22753940522670746, 0.07794585824012756], [-0.010559501126408577, 0.40532949566841125], [0.09646667540073395, -0.20425675809383392], [0.5771905779838562, -0.12770037353038788], [0.6212344169616699, 0.03313957527279854], [0.12207698076963425, -0.05765901878476143], [0.3100261390209198, -0.17426641285419464], [0.1828959435224533, -0.005616709589958191], [0.01565691828727722, -0.04260668531060219], [-0.3110274374485016, 0.08379778265953064], [0.2950804531574249, 0.14374804496765137], [-0.13441598415374756, 0.0013098838971927762], [0.09015258401632309, 0.1985849142074585], [-0.09813765436410904, 0.057405002415180206], [0.2117958664894104, -0.08602578938007355], [-0.2542390823364258, 0.4244195818901062], [0.12079142779111862, 0.14463311433792114], [0.02405046485364437, -0.0545537956058979]], [[0.35808050632476807, 0.3277282118797302], [-0.05961241200566292, 0.01896080933511257], [0.03105720691382885, -0.05902107059955597], [-0.20775353908538818, -0.05204266309738159], [-0.23263581097126007, 0.2782330811023712], [-0.27864184975624084, -0.11097543686628342], [-0.060980699956417084, -0.15592028200626373], [0.02165190875530243, 0.2822050154209137], [0.041613299399614334, 0.044208306819200516], [-0.04958372935652733, -0.010727009736001492], [-0.2358790934085846, -0.026759784668684006], [-0.1192001923918724, -0.09666133671998978], [0.37739792466163635, 0.13730034232139587], [-0.1243673786520958, 0.16002072393894196], [-0.1748208850622177, -0.1270158886909485], [-0.0795811116695404, -0.14710184931755066], [0.13270822167396545, -0.12326531112194061], [-0.046804312616586685, -0.14077851176261902], [0.18544647097587585, 0.2519451975822449], [0.16254612803459167, -0.27336713671684265], [-0.1731024533510208, 0.09515193849802017], [-0.23170219361782074, -0.04811306297779083], [0.07356142997741699, 0.00396419083699584], [0.3041040599346161, -0.20840239524841309], [-0.08693044632673264, -0.25017112493515015], [-0.12760747969150543, 0.15035516023635864], [0.13199563324451447, 0.13200540840625763], [0.038409870117902756, -0.4322108328342438], [0.012525607831776142, 0.11044632643461227], [-0.3104921579360962, 0.22560027241706848], [-0.3148244321346283, -0.13384412229061127], [-0.12934276461601257, -0.10348794609308243], [0.16306056082248688, -0.14245113730430603], [0.13724437355995178, -0.19282080233097076], [0.50456303358078, 0.07754109054803848], [-0.07039562612771988, -0.11637802422046661], [-0.033052410930395126, 0.06489958614110947], [-0.2526465356349945, 0.1034076064825058], [-0.013622548431158066, 0.20014794170856476], [-0.053709935396909714, -0.055289603769779205], [-0.01684544049203396, -0.08996197581291199], [0.12459255009889603, 0.004614488687366247], [-0.20947247743606567, 0.16027681529521942], [0.3062218725681305, -0.2077774703502655], [-0.33475926518440247, -0.2219620794057846], [0.3373996913433075, -0.07813985645771027], [-0.13816706836223602, -0.09765265882015228], [0.23129118978977203, -0.11059728264808655], [0.15176662802696228, 0.17696654796600342], [0.20029804110527039, -0.09798853099346161], [0.12632206082344055, -0.1689624935388565], [0.027572311460971832, -0.047643378376960754], [-0.04421534389257431, 0.28102362155914307], [0.1647491455078125, -0.10508319735527039], [0.05016133189201355, -0.1036258116364479], [-0.1661175787448883, 0.08252132683992386], [0.06154951825737953, 0.05238949507474899], [0.1017632856965065, -0.1570507287979126], [-0.1450907588005066, 0.037718769162893295], [0.04694504290819168, -0.09345933794975281], [-0.2826153635978699, -0.10645655542612076], [-0.2932244837284088, -0.008199145086109638], [0.16345630586147308, 0.1418515145778656], [-0.1334071308374405, 0.3576333522796631]], [[0.24184025824069977, 0.2399340718984604], [-0.3348575830459595, -0.2208232581615448], [-0.1262149065732956, 0.023441145196557045], [-0.053037114441394806, -0.04439954459667206], [0.07146617025136948, 0.12133688479661942], [-0.24771252274513245, -0.2129276841878891], [0.032038286328315735, 0.2802170515060425], [0.08406156301498413, -0.011547107249498367], [-0.11908912658691406, 0.052477817982435226], [-0.013500887900590897, -0.03590535372495651], [0.03737073019146919, -0.21065987646579742], [0.3028547167778015, -0.1283084899187088], [-0.010252836160361767, -0.26032769680023193], [-0.1921720653772354, 0.005926601588726044], [-0.07551110535860062, 0.2557896673679352], [0.08472441136837006, 0.11369465291500092], [0.24291257560253143, 0.12277504056692123], [0.057171780616045, -0.07103120535612106], [0.060879990458488464, -0.17840662598609924], [-0.09156586229801178, 0.16246074438095093], [-0.08546176552772522, -0.033513203263282776], [-0.1458934247493744, 0.1318850815296173], [-0.061192307621240616, -0.08847090601921082], [-0.06926644593477249, -0.08095768839120865], [-0.056920409202575684, -0.13718459010124207], [0.2576518654823303, -0.21506869792938232], [-0.04148060455918312, -0.1128852367401123], [-0.24814490973949432, 0.12232284247875214], [-0.07157178968191147, -0.23939716815948486], [-0.258762001991272, 0.19259323179721832], [-0.08361341059207916, -0.007911493070423603], [-0.014000771567225456, -0.03171149268746376], [-0.07729393243789673, 0.12881134450435638], [0.06593990325927734, 0.04957902431488037], [0.007852832786738873, 0.39863404631614685], [0.0019285284215584397, -0.4337928295135498], [0.005010611843317747, -0.041601140052080154], [-0.0966542512178421, -0.22043268382549286], [-0.03186763450503349, -0.06765883415937424], [0.08260606229305267, 0.03971107676625252], [-0.14950278401374817, -0.2950524091720581], [-0.07004862278699875, -0.024439550936222076], [-0.27174001932144165, 0.20703256130218506], [-0.1826789826154709, 0.08514557778835297], [-0.1558491438627243, 0.016794396564364433], [-0.02512490004301071, 0.0198447797447443], [0.04821880906820297, -0.25146979093551636], [-0.2122812569141388, -0.03436015546321869], [0.20575453341007233, 0.1276911199092865], [0.019762801006436348, -0.46754592657089233], [-0.10740475356578827, 0.1895519196987152], [-0.1754608452320099, 0.07856424152851105], [0.02153964713215828, -0.11293509602546692], [-0.011046863161027431, 0.11818597465753555], [-0.02353779971599579, -0.17335405945777893], [-0.11970818787813187, 0.041854504495859146], [-0.10581079125404358, -0.10638368874788284], [0.28851693868637085, -0.11701669543981552], [-0.11296610534191132, -0.02099192515015602], [-0.04151814058423042, 0.24800792336463928], [-0.03816298395395279, 0.04706019163131714], [0.4038783013820648, -0.11389196664094925], [0.15138612687587738, -0.10342633724212646], [-0.018182864412665367, 0.16364134848117828]]]","[[0.0, 0.0, 0.0, 0.0, 0.0, 0.0, 0.0, 0.0, 0.0, 0.0, 0.0, 0.0, 0.0, 0.0, 0.0, 0.0, 0.0, 0.0, 0.0, 0.0, 0.0, 0.0, 0.0, 0.0, 0.0, 0.0, 0.0, 0.0, 0.0, 0.0, 0.0, 0.0, 0.0, 0.0, 0.0, 0.0, 0.0, 0.0, 0.0, 0.0, 0.0, 0.0, 0.0, 0.0, 0.0, 0.0, 0.0, 0.0, 0.0, 0.0, 0.0, 0.0, 0.0, 0.0, 0.0, 0.0, 0.0, 0.0, 0.0, 0.0, 0.0, 0.0, 0.0, 0.0], [0.0, 0.0, 0.0, 0.0, 0.0, 0.0, 0.0, 0.0, 0.0, 0.0, 0.0, 0.0, 0.0, 0.0, 0.0, 0.0, 0.0, 0.0, 0.0, 0.0, 0.0, 0.0, 0.0, 0.0, 0.0, 0.0, 0.0, 0.0, 0.0, 0.0, 0.0, 0.0, 0.0, 0.0, 0.0, 0.0, 0.0, 0.0, 0.0, 0.0, 0.0, 0.0, 0.0, 0.0, 0.0, 0.0, 0.0, 0.0, 0.0, 0.0, 0.0, 0.0, 0.0, 0.0, 0.0, 0.0, 0.0, 0.0, 0.0, 0.0, 0.0, 0.0, 0.0, 0.0], [0.0, 0.0, 0.0, 0.0, 0.0, 0.0, 0.0, 0.0, 0.0, 0.0, 0.0, 0.0, 0.0, 0.0, 0.0, 0.0, 0.0, 0.0, 0.0, 0.0, 0.0, 0.0, 0.0, 0.0, 0.0, 0.0, 0.0, 0.0, 0.0, 0.0, 0.0, 0.0, 0.0, 0.0, 0.0, 0.0, 0.0, 0.0, 0.0, 0.0, 0.0, 0.0, 0.0, 0.0, 0.0, 0.0, 0.0, 0.0, 0.0, 0.0, 0.0, 0.0, 0.0, 0.0, 0.0, 0.0, 0.0, 0.0, 0.0, 0.0, 0.0, 0.0, 0.0, 0.0], [0.0, 0.0, 0.0, 0.0, 0.0, 0.0, 0.0, 0.0, 0.0, 0.0, 0.0, 0.0, 0.0, 0.0, 0.0, 0.0, 0.0, 0.0, 0.0, 0.0, 0.0, 0.0, 0.0, 0.0, 0.0, 0.0, 0.0, 0.0, 0.0, 0.0, 0.0, 0.0, 0.0, 0.0, 0.0, 0.0, 0.0, 0.0, 0.0, 0.0, 0.0, 0.0, 0.0, 0.0, 0.0, 0.0, 0.0, 0.0, 0.0, 0.0, 0.0, 0.0, 0.0, 0.0, 0.0, 0.0, 0.0, 0.0, 0.0, 0.0, 0.0, 0.0, 0.0, 0.0], [0.0, 0.0, 0.0, 0.0, 0.0, 0.0, 0.0, 0.0, 0.0, 0.0, 0.0, 0.0, 0.0, 0.0, 0.0, 0.0, 0.0, 0.0, 0.0, 0.0, 0.0, 0.0, 0.0, 0.0, 0.0, 0.0, 0.0, 0.0, 0.0, 0.0, 0.0, 0.0, 0.0, 0.0, 0.0, 0.0, 0.0, 0.0, 0.0, 0.0, 0.0, 0.0, 0.0, 0.0, 0.0, 0.0, 0.0, 0.0, 0.0, 0.0, 0.0, 0.0, 0.0, 0.0, 0.0, 0.0, 0.0, 0.0, 0.0, 0.0, 0.0, 0.0, 0.0, 0.0]]","[[[-0.14665357768535614, -0.3902878165245056, -0.035865429788827896, -0.1944345235824585, 0.05341307073831558, -0.13640478253364563, 0.10856302082538605, 0.039295073598623276, -0.032535139471292496, -0.1564856916666031, -0.21244783699512482, 0.1318453997373581, 0.10408692061901093, 0.1522473394870758, 0.14914721250534058, 0.018357746303081512, 0.09903541952371597, -0.39711448550224304, 0.05811593681573868, -0.20942214131355286, 0.013422814197838306, -0.08892859518527985, 0.1397479623556137, -0.2631906270980835, -0.056888941675424576, 0.0374041385948658, 0.2581530213356018, 0.24558843672275543, -0.04828415438532829, -0.10396986454725266, -0.20633083581924438, 0.0095451008528471, -0.03609159588813782, 0.13688300549983978, -0.2590654790401459, 0.047744620591402054, 0.09169534593820572, -0.1494048535823822, -0.11977501958608627, -0.04368715360760689, -0.23914121091365814, 0.06825512647628784, 0.20020216703414917, 0.07958292961120605, -0.19610252976417542, -0.23048000037670135, 0.1283894032239914, -0.04262164607644081, -0.028887614607810974, 0.17151957750320435, -0.09824775904417038, -0.07563190162181854, -0.2845458686351776, -0.001650504651479423, 0.021915875375270844, -0.18612709641456604, -0.20339199900627136, -0.2520431578159332, -0.034151218831539154, -0.1371062695980072, 0.05737029388546944, -0.042739059776067734, -0.10935740917921066, 0.2798963785171509], [-0.10035262256860733, -0.22291412949562073, -0.066031314432621, 0.17786069214344025, -0.0500723160803318, 0.054473668336868286, 0.2364923506975174, 0.10102186352014542, 0.2965693771839142, -0.1614162027835846, -0.34049758315086365, 0.04618905112147331, 0.07874979078769684, -0.00944489799439907, 0.03438219800591469, -0.22607551515102386, -0.1596374213695526, -0.24676768481731415, -0.32481369376182556, -0.16919483244419098, 0.05813698470592499, 0.011996516957879066, -0.04981221631169319, -0.10999543964862823, 0.015535506419837475, 0.051881998777389526, -0.08794932812452316, -0.09300918132066727, 0.01688271202147007, -0.37610262632369995, -0.01793249510228634, -0.3423798382282257, 0.24722294509410858, -0.05418306961655617, 0.0495171844959259, -0.17966516315937042, -0.09858576208353043, 0.13850407302379608, -0.042200978845357895, -0.07948827743530273, 0.07232309877872467, -0.02461998723447323, -0.004903796594589949, -0.15599700808525085, 0.1662522554397583, -0.38993942737579346, 0.0789441242814064, -0.12438968569040298, -0.2508653700351715, -0.3699020743370056, 0.1275128722190857, 0.10146289318799973, -0.0511813648045063, 0.13698703050613403, -0.13053962588310242, 0.14632423222064972, 0.03713438659906387, -0.05678160488605499, 0.2165859192609787, -0.10373144596815109, 0.36309176683425903, 0.0842718780040741, -0.06166835129261017, -0.22647817432880402], [0.1291435807943344, 0.08602996170520782, -0.19794738292694092, 0.0032731867395341396, -0.17575427889823914, -0.22298108041286469, 0.06291075050830841, 0.13673993945121765, 0.18411141633987427, 0.1526552140712738, 0.15996402502059937, -0.18079274892807007, 0.3051244914531708, 0.21846666932106018, 0.2058844268321991, -0.05835255607962608, 0.11734604835510254, 0.19937002658843994, 0.05830272287130356, -0.1708749383687973, 0.343697190284729, 0.22456029057502747, 0.04595396667718887, 0.041657425463199615, -0.20869311690330505, 0.36021217703819275, -0.16456027328968048, -0.2427303045988083, -0.4399239420890808, -0.2556050419807434, 0.11943882703781128, -0.025942092761397362, 0.06883314996957779, 0.005946160294115543, 0.11002851277589798, 0.3454783856868744, -0.039081260561943054, 0.0867450013756752, -0.07681300491094589, -0.051768261939287186, 0.20632222294807434, -0.2053757756948471, 0.15012873709201813, -0.0965086966753006, 0.05312551558017731, 0.19097793102264404, -0.012631314806640148, -0.04443921521306038, 0.35380956530570984, -0.10095438361167908, -0.29458317160606384, 0.25531989336013794, -0.16002213954925537, -0.08114568889141083, -0.29755446314811707, -0.08491837233304977, -0.008243902586400509, 0.061257943511009216, 0.16715213656425476, -0.337902694940567, -0.27300015091896057, -0.08338518440723419, -0.24927949905395508, -0.1764916628599167]], [[0.027529243379831314, 0.1393393725156784, -0.1063525527715683, -0.046078022569417953, 0.060214877128601074, 0.09808481484651566, 0.14828546345233917, 0.04954695329070091, -0.12991923093795776, 0.24913433194160461, -0.3003663420677185, 0.11964741349220276, 0.12213882058858871, -0.18774603307247162, -0.0165120717138052, 0.001607838668860495, 0.14396318793296814, -0.06702085584402084, 0.03760209307074547, -0.1038995012640953, -0.28167468309402466, 0.1150435134768486, -0.05364576727151871, 0.18617314100265503, 0.009247503243386745, -0.11948525905609131, -0.09467853605747223, -0.09545600414276123, 0.12981776893138885, -0.045679524540901184, -0.06574711948633194, 0.10207894444465637, 0.15801621973514557, -0.11376643180847168, 0.17561742663383484, 0.1984238624572754, 0.3783094584941864, 0.12050985544919968, 0.462847501039505, 0.12006750702857971, 0.16068243980407715, 0.4440445899963379, -0.055663857609033585, 0.20278355479240417, -0.044568780809640884, 0.2829168140888214, -0.14378440380096436, 0.12091051787137985, -0.04527123644948006, 0.22339516878128052, -0.08848518878221512, -0.270231693983078, 0.24833814799785614, -0.01993248425424099, 0.18473610281944275, 0.1488349586725235, 0.05113638937473297, 0.01819361001253128, -0.1990256905555725, 0.21053220331668854, -0.082951620221138, 0.01715758442878723, 0.2577957212924957, 0.057384513318538666], [0.23515622317790985, -0.04467920958995819, 0.05648306757211685, 0.07407771795988083, -0.09155115485191345, -0.37826845049858093, -0.04159393161535263, 0.19148331880569458, 0.2569592595100403, -0.02292071469128132, -0.41760924458503723, 0.05863387510180473, -0.34684786200523376, 0.04986920952796936, 0.08591470867395401, -0.16877733170986176, -0.052685920149087906, 0.03289076313376427, -0.12944316864013672, -0.08217097073793411, -0.06864261627197266, 0.05833381414413452, 0.18525877594947815, -0.02053234912455082, -0.002067713299766183, 0.16566073894500732, 0.28834080696105957, -0.013594678603112698, 0.30581867694854736, -0.05879875645041466, 0.10216456651687622, 0.18131905794143677, -0.2057928889989853, -0.1750771850347519, -0.2630346119403839, -0.21015378832817078, 0.20686939358711243, 0.3114628791809082, 0.10830316692590714, -0.24453556537628174, -0.004010448232293129, 0.13423028588294983, -0.04469794034957886, -0.24067197740077972, 0.12450676411390305, -0.11204714328050613, 0.09495139122009277, -0.21034568548202515, -0.1667202115058899, -0.11049249768257141, 0.013296442106366158, -0.02714141644537449, -0.10323326289653778, 0.31629106402397156, 0.0723210945725441, 0.11896436661481857, 0.27810877561569214, -0.17535950243473053, -0.1808355301618576, -0.011423715390264988, -0.25985002517700195, 0.445854514837265, 0.12639297544956207, -0.1489751636981964], [0.043523840606212616, 0.07355258613824844, 0.10658762603998184, 0.28311240673065186, -0.03289296478033066, -0.313884973526001, 0.0010001120390370488, -0.3351771831512451, -0.2350614368915558, 0.022239580750465393, -0.044973235577344894, -0.024652225896716118, -0.03583358973264694, 0.11731422692537308, -0.038544826209545135, 0.005516107194125652, -0.11613306403160095, -0.05051311105489731, 0.09665198624134064, -0.08088581264019012, 0.09265363961458206, 0.16936281323432922, -0.0020964108407497406, -0.1617192178964615, -0.38661864399909973, -0.01975863240659237, -0.11337947845458984, -0.072430819272995, -0.23315247893333435, 0.30427539348602295, -0.11649715155363083, -0.10829893499612808, -0.122937873005867, -0.1971360594034195, -0.10825369507074356, 0.1667478233575821, -0.29067233204841614, -0.004055024590343237, -0.2326292097568512, -0.2829973101615906, -0.18083423376083374, 0.13632996380329132, -0.09767024964094162, 0.05766696855425835, -0.08051878213882446, 0.11223363131284714, -0.046456996351480484, 0.09017187356948853, 0.29731032252311707, 0.18678246438503265, 0.014568462036550045, -0.25499221682548523, -0.036598168313503265, -0.44658929109573364, 0.14052173495292664, 0.004475172609090805, 0.005840787198394537, 0.2864486277103424, 0.2717365622520447, 0.19177937507629395, -0.01900405064225197, 0.22171248495578766, -0.04178966209292412, 0.17099857330322266]], [[-0.17239628732204437, 0.058482296764850616, 0.11018005758523941, 0.2097276747226715, -0.12276101112365723, 0.017345696687698364, -0.5761789083480835, -0.24005429446697235, -0.049764588475227356, -0.057370129972696304, -0.055523768067359924, 0.08218836039304733, 0.3201031982898712, -0.13106228411197662, -0.01260578166693449, -0.04230286553502083, -0.01272720005363226, 0.010781706310808659, -0.02513498067855835, -0.12572260200977325, -0.08945133537054062, -0.020910291001200676, 0.0073092058300971985, 0.015748703852295876, -0.09986292570829391, 0.1570684015750885, 0.006628014612942934, -0.22342146933078766, 0.16439606249332428, -0.08055485785007477, 0.04761398583650589, -0.3748183250427246, -0.05376802384853363, -0.3458399772644043, 0.15310880541801453, -0.2054472416639328, 0.12878337502479553, -0.278654009103775, -0.24797721207141876, -0.0348142609000206, -0.12064819782972336, 0.27565184235572815, -0.03758283331990242, -0.21784138679504395, 0.22863560914993286, -0.30411139130592346, 0.09445670247077942, -0.2546263635158539, -0.23062896728515625, 0.13748623430728912, -0.020815441384911537, -0.12042395770549774, -0.03214786946773529, 0.11235066503286362, -0.1896907538175583, -0.44761595129966736, 0.2792493402957916, 0.12543684244155884, 0.21405096352100372, -0.36531558632850647, -0.0032465816475450993, -0.12009669095277786, 0.08569180220365524, 0.003638871479779482], [-0.13527213037014008, 0.14453068375587463, 0.10626037418842316, 0.05395584926009178, 0.1571771800518036, -0.06146359443664551, -0.13990621268749237, 0.07321764528751373, -0.04152442514896393, 0.015232257544994354, -0.13869057595729828, 0.11514025926589966, 0.1654430776834488, 0.003983108792454004, -0.0035526480060070753, 0.011480801738798618, -0.12700878083705902, -0.12196121364831924, 0.04990411177277565, -0.11303198337554932, 0.09414451569318771, -0.026896962895989418, -0.1360534280538559, 0.13983358442783356, -0.12505826354026794, 0.20461535453796387, -0.04199962317943573, -0.29407620429992676, 0.08364379405975342, -0.07807537913322449, -0.11948530375957489, -0.18131010234355927, 0.004950179252773523, -0.043015968054533005, -0.10168659687042236, -0.0951351523399353, 0.10269096493721008, 0.031422413885593414, -0.045774057507514954, -0.09982889890670776, -0.29735350608825684, -0.19514793157577515, 0.05577140673995018, -0.04184659570455551, 0.08800572156906128, 0.0581451877951622, 0.03990322723984718, -0.19236613810062408, -0.08093293756246567, -0.08743896335363388, 0.034100111573934555, -0.23481875658035278, -0.31193453073501587, 0.2836795151233673, -0.017264220863580704, -0.04245954379439354, -0.10376206785440445, -0.004190763458609581, -0.1085457056760788, -0.1600198596715927, -0.31626757979393005, -0.12070688605308533, 0.1824168860912323, -0.034985560923814774], [-0.09738398343324661, -0.0026218027342110872, 0.029530975967645645, 0.23382587730884552, -0.05943495035171509, 0.041944220662117004, -0.27477237582206726, -0.030628496780991554, -0.3012651801109314, 0.039509113878011703, 0.2975052297115326, 0.06945580989122391, -0.00800363440066576, 0.003683638758957386, -0.11255195736885071, -0.11294540017843246, -0.12957443296909332, 0.020821239799261093, 0.08112744241952896, -0.06412322074174881, 0.0051937345415353775, -0.052415378391742706, -0.03317823261022568, -0.017811940982937813, 0.10694977641105652, -0.04788113385438919, 0.1124061867594719, -0.01360535528510809, 0.15644055604934692, -0.08309751003980637, 0.177758127450943, -0.17503468692302704, 0.04970238730311394, 0.06411100178956985, -0.0057197497226297855, -0.13627959787845612, 0.005290075205266476, 0.20583133399486542, 0.2073407918214798, -0.01180821843445301, 0.14180858433246613, -0.4276677668094635, -0.08563664555549622, 0.01613669842481613, -0.25980308651924133, 0.00656395498663187, 0.006946733221411705, 0.1271597445011139, 0.07988051325082779, 0.09862455725669861, -0.12821193039417267, 0.4250534772872925, -0.2681962549686432, 0.18343590199947357, -0.134220153093338, 0.2673267126083374, 0.08882742375135422, 0.16024722158908844, 0.05341986194252968, 0.17036691308021545, 0.14984072744846344, -0.09445760399103165, -0.12340794503688812, 0.12384198606014252]], [[-0.025704795494675636, 0.14047017693519592, -0.3070715367794037, 0.03635554760694504, 0.11549738794565201, -0.010190900415182114, 0.10144142806529999, 0.06325854361057281, 0.025356044992804527, 0.4122334420681, 0.06234266981482506, 0.11700264364480972, -0.12083994597196579, -0.039391499012708664, -0.10050949454307556, 0.17374972999095917, -0.31215807795524597, -0.18439728021621704, -0.004950441885739565, 0.21986043453216553, -0.24551922082901, -0.20043368637561798, 0.14508424699306488, 0.27173030376434326, 0.039192862808704376, 0.521624743938446, 0.11981600522994995, 0.3202299177646637, -0.03152695298194885, 0.038066454231739044, 0.010298527777194977, 0.031003884971141815, -0.025211874395608902, -0.024961529299616814, 0.03165249899029732, -0.055552221834659576, -0.2667820155620575, 0.09374140948057175, -0.03067055530846119, 0.06655505299568176, -0.09443289786577225, -0.3188925087451935, 0.16690246760845184, -0.027357270941138268, -0.28980982303619385, -0.002396124182268977, -0.019601795822381973, -0.26479583978652954, -0.3178756535053253, 0.2186334729194641, -0.3125515878200531, 0.011170843616127968, -0.2089373916387558, 0.03567105531692505, -0.10141342878341675, 0.1850079447031021, -0.1227671280503273, 0.31897684931755066, 0.08787892013788223, -0.31282728910446167, 0.03763509914278984, -0.1338345855474472, 0.22464598715305328, 0.03705534711480141], [0.033446941524744034, 0.2950060963630676, 0.13598507642745972, 0.18130776286125183, -0.06756432354450226, 0.11082195490598679, -0.3883080780506134, 0.1159173995256424, -0.01432113442569971, 0.002592081669718027, 0.04536837711930275, -0.07203294336795807, 0.04339548572897911, -0.23099805414676666, 0.16102659702301025, 0.36880481243133545, 0.2855777442455292, 0.16185061633586884, 0.0804433599114418, 0.19035831093788147, 0.026057176291942596, -0.19175297021865845, 0.0010701980208978057, -0.03091198392212391, 0.15493611991405487, -0.23415842652320862, -0.05377495661377907, 0.2643046975135803, -0.3368304669857025, -0.008942610584199429, 0.04750824347138405, 0.11941412091255188, 0.06895162910223007, -0.22071227431297302, -0.15850035846233368, 0.13622136414051056, -0.03661665320396423, -0.09392108023166656, 0.14886973798274994, 0.01851837709546089, 0.10150524973869324, -0.032825689762830734, -0.08934403955936432, -0.1420871764421463, 0.026801645755767822, -0.010074264369904995, 0.1870356947183609, -0.14428456127643585, 0.06596759706735611, 0.20556268095970154, -0.22286394238471985, 0.09110964089632034, 0.2194942981004715, 0.12310906499624252, 0.11112651228904724, -0.17614369094371796, 0.2614155411720276, 0.39807039499282837, 0.020588571205735207, -0.04338447377085686, 0.15870653092861176, 0.059311505407094955, 0.41799336671829224, 0.5382379293441772], [-0.04749263823032379, 0.37484264373779297, -0.11097467690706253, 0.1795734316110611, -0.07844889163970947, -0.025809859856963158, 0.21226415038108826, -0.06445737928152084, -0.09361647069454193, 0.1609046906232834, 0.0270149577409029, -0.006241798400878906, 0.07869807630777359, 0.11590153723955154, 0.18070681393146515, -0.10017896443605423, -0.026405222713947296, -0.10989741235971451, 0.1831420361995697, -0.3849123418331146, 0.2544947564601898, 0.23441894352436066, -0.17616602778434753, 0.15497130155563354, 0.13785336911678314, -0.04184833541512489, 0.022930940613150597, 0.07408612966537476, -0.036967817693948746, 0.09940916299819946, 0.22084656357765198, -0.17825201153755188, -0.14967070519924164, 0.23128996789455414, 0.1485499143600464, -0.15679055452346802, -0.17999356985092163, 0.1115737035870552, -0.13535724580287933, 0.2029971480369568, 0.10729802399873734, 0.13545359671115875, -0.27866578102111816, 0.2421204149723053, -0.06826687604188919, -0.09377671033143997, 0.017927998676896095, -0.14092350006103516, 0.2679029405117035, 0.2393423318862915, 0.08440572768449783, 0.11317981779575348, 0.22466455399990082, -0.049434080719947815, 0.13216200470924377, -0.1173270121216774, -0.11335728317499161, 0.07800813764333725, 0.15596003830432892, 0.09187624603509903, -0.3507485091686249, -0.10410436242818832, 0.03187168017029762, 0.13588276505470276]], [[0.046969786286354065, 0.07455796003341675, 0.04416191950440407, 0.19224272668361664, -0.17804792523384094, -0.03335264325141907, -0.21070288121700287, 0.11806287616491318, -0.11969015002250671, -0.21581871807575226, -0.03610062599182129, -0.021043507382273674, -0.1141873374581337, 0.040233541280031204, 0.2467716783285141, -0.08768855780363083, 0.0339992418885231, -0.15633240342140198, 0.11268707364797592, -0.11258667707443237, -0.09546010196208954, -0.15729525685310364, 0.21586528420448303, -0.10671135038137436, -0.18192681670188904, -0.09894649684429169, -0.10037889331579208, -0.2265377789735794, 0.19991272687911987, 0.2787642180919647, -0.058071840554475784, -0.3559315502643585, -0.12077780812978745, 0.1688343584537506, -0.29067695140838623, -0.07475234568119049, -0.2555146813392639, 0.0448339581489563, -0.029736991971731186, -0.09034676849842072, -0.20707157254219055, 0.16601821780204773, -0.03655119612812996, -0.22645734250545502, -0.3169688582420349, 0.19708403944969177, -0.1323854774236679, 0.27397122979164124, -0.0824405625462532, 0.03357356786727905, 0.1911480724811554, 0.3458365797996521, 0.17383375763893127, -0.13031165301799774, -0.17217020690441132, 0.029998764395713806, 0.32030507922172546, -0.2367757111787796, 0.06469206511974335, 0.03363814577460289, 0.2733194828033447, 0.10230381786823273, 0.16792142391204834, -0.02581724151968956], [0.006084259133785963, -0.06397659331560135, -0.045810796320438385, 0.0594618022441864, -0.1821427047252655, 0.3842328190803528, 0.3464168608188629, -0.02974950335919857, -0.28583523631095886, -0.13274554908275604, 0.07827792316675186, -0.15971475839614868, 0.21414165198802948, 0.10157302767038345, 0.036802612245082855, 0.22908052802085876, 0.28194159269332886, -0.047280970960855484, 0.024159852415323257, -0.012495397590100765, 0.006659308914095163, 0.08648190647363663, -0.04140555486083031, -0.14842645823955536, 0.4594244062900543, 0.020618921145796776, 0.2735556960105896, 0.41971904039382935, -0.009150167927145958, -0.17613567411899567, -0.27997714281082153, 0.3224737048149109, -0.09818077832460403, 0.0614725798368454, -0.1372031420469284, 0.16530707478523254, -0.08874146640300751, -0.1456110030412674, -0.1749262660741806, -0.18778251111507416, -0.008405123837292194, -0.08659036457538605, -0.013450364582240582, -0.18363094329833984, -0.08484915643930435, 0.033032145351171494, -0.19677720963954926, -0.02764766663312912, -0.2684958875179291, -0.10876157879829407, -0.32695916295051575, 0.021633431315422058, -0.004839199595153332, -0.019802618771791458, -0.07520169764757156, 0.16128124296665192, 0.15837982296943665, 0.2122693657875061, 0.33042439818382263, -0.16652673482894897, 0.2470998913049698, 0.207060307264328, 0.22395706176757812, 0.08260408788919449], [0.07009043544530869, -0.18334147334098816, 0.07541494816541672, 0.29514065384864807, 0.20596954226493835, -0.2776504456996918, -0.07359705120325089, -0.1505708247423172, -0.005661997944116592, -0.2757471203804016, 0.4601970613002777, 0.29905328154563904, 0.11732716858386993, -0.31423717737197876, 0.19388319551944733, -0.14338479936122894, 0.20634959638118744, 0.2654954493045807, -0.04688702151179314, 0.005893666297197342, 0.16615737974643707, -0.045317988842725754, -0.04517434537410736, -0.3753690719604492, 0.041218001395463943, 0.19284124672412872, 0.26756733655929565, 0.22680021822452545, -0.11049950867891312, 0.1786840260028839, -0.13690075278282166, 0.27714303135871887, -0.2882023751735687, 0.15657977759838104, -0.047735195606946945, 0.1573001593351364, 0.12010706961154938, -0.013476689346134663, 0.09138233959674835, 0.01498388685286045, -0.11042800545692444, -0.2964063584804535, 0.034093212336301804, -0.19828209280967712, 0.12331651896238327, -0.044926825910806656, 0.17746849358081818, -0.04169254004955292, 0.06129737198352814, 0.33517909049987793, -0.42515134811401367, -0.41943973302841187, 0.29852959513664246, -0.24088208377361298, 0.10898805409669876, 0.19506485760211945, -0.1033010259270668, -0.016963131725788116, 0.05739938095211983, 0.029482726007699966, 0.38106587529182434, 0.0702577605843544, -0.1709928959608078, -0.032835524529218674]]]","[[0.0, 0.0, 0.0], [0.0, 0.0, 0.0], [0.0, 0.0, 0.0], [0.0, 0.0, 0.0], [0.0, 0.0, 0.0]]"
16,0.1,"[[[-0.1417306810617447, 0.11186064034700394], [0.2345121055841446, 0.00016054461593739688], [0.11013814806938171, 0.09598235040903091], [0.09570253640413284, -0.06193571910262108], [0.09626971185207367, 0.18145011365413666], [0.09733736515045166, -0.2757408320903778], [0.003932886756956577, -0.052569106221199036], [0.17707674205303192, -0.41868674755096436], [0.1563837230205536, 0.2087300419807434], [0.23809093236923218, -0.00288772233761847], [-0.1668245792388916, -0.16437220573425293], [-0.0009951685788109899, 0.37326863408088684], [-0.021334121003746986, -0.1160224974155426], [-0.28999918699264526, -0.03404775261878967], [-0.04816563427448273, -0.05165531486272812], [-0.06879206001758575, -0.1714923232793808], [0.07964619249105453, -0.21285134553909302], [0.09395013749599457, -0.036154039204120636], [0.16202983260154724, 0.19307571649551392], [-0.02146082930266857, -0.12078725546598434], [-0.22697974741458893, -0.24484039843082428], [-0.10612881928682327, -0.2504923939704895], [-0.007990911602973938, -0.0406932458281517], [0.16406044363975525, 0.187387153506279], [0.23160581290721893, 0.07117147743701935], [-0.055940642952919006, 0.13047561049461365], [-0.19520306587219238, -0.17450006306171417], [-0.040054284036159515, -0.14737679064273834], [-0.18208001554012299, 0.2705985903739929], [0.06182008609175682, 0.04396457225084305], [0.1157751977443695, 0.12282992154359818], [0.047395654022693634, 0.3205175995826721], [-0.2617902159690857, 0.14990051090717316], [-0.23475122451782227, 0.03916608914732933], [-0.2559667229652405, -0.003016563830897212], [-0.09659279137849808, 0.24570895731449127], [0.15886464715003967, 0.04381544142961502], [0.2616806626319885, -0.1971708983182907], [-0.08571509271860123, -0.08355506509542465], [0.4749917685985565, 0.010740294121205807], [0.09349726885557175, 0.20978473126888275], [-0.15751050412654877, 0.19415976107120514], [-0.018989283591508865, 0.0402999147772789], [-0.34996476769447327, -0.26013851165771484], [-0.2725197970867157, 0.1809200495481491], [0.07336355745792389, 0.20754028856754303], [-0.14642879366874695, 0.07684586942195892], [-0.24182552099227905, 0.03960637375712395], [-0.011937587521970272, -0.25902223587036133], [-0.30134087800979614, 0.06778962165117264], [0.07739699631929398, 0.12218713015317917], [-0.38482987880706787, 0.03249708563089371], [-0.23728923499584198, -0.4060903787612915], [-0.09156633168458939, -0.293637216091156], [0.0030172879341989756, 0.19530034065246582], [0.15251579880714417, 0.004043031018227339], [-0.003755010664463043, 0.0735270231962204], [0.018091481178998947, -0.06736689060926437], [0.058254048228263855, -0.29544833302497864], [0.25711894035339355, 0.053699418902397156], [0.20007461309432983, 0.13866792619228363], [0.07662654668092728, -0.14856483042240143], [0.3133867383003235, -0.2889275848865509], [-0.05137687921524048, 0.004588134586811066]], [[-0.1767612248659134, 0.050824686884880066], [0.24674032628536224, 0.11752226948738098], [0.019506502896547318, 0.25486281514167786], [-0.053911611437797546, 0.04807937517762184], [0.0030222388450056314, -0.04613131657242775], [0.11514437943696976, -0.05421091616153717], [-0.14357343316078186, -0.2600831389427185], [0.08036504685878754, 0.12505590915679932], [0.22934061288833618, -0.15461918711662292], [0.22797037661075592, -0.06837749481201172], [0.11172974854707718, -0.05445825681090355], [-0.2797076404094696, 0.20443131029605865], [-0.03258731961250305, -0.05213707312941551], [0.13957500457763672, 0.18872188031673431], [-0.08835257589817047, -0.20914942026138306], [0.1257527768611908, 0.11264561861753464], [0.034292370080947876, -0.20989345014095306], [0.08293569833040237, 0.07848373800516129], [0.12654712796211243, -0.010038947686553001], [-0.2020087093114853, 0.02154574729502201], [0.051350053399801254, 0.25617459416389465], [-0.30127906799316406, 0.34877124428749084], [-0.4421548843383789, -0.008581086993217468], [0.06344407051801682, -0.167893648147583], [0.0999046266078949, 0.01097080297768116], [-0.0869046300649643, -0.3341040313243866], [0.273449182510376, 0.04292261227965355], [-0.19214485585689545, -0.0015039124991744757], [-0.11896087974309921, 0.07513245195150375], [0.08092891424894333, 0.04918209835886955], [-0.10495733469724655, 0.03749508038163185], [-0.027457864955067635, -0.07135510444641113], [0.3821078836917877, 0.002621373627334833], [-0.27629023790359497, 0.08663798868656158], [-0.09782131761312485, 0.05041896924376488], [-0.1884264200925827, -0.13700446486473083], [-0.09774552285671234, 0.24640224874019623], [0.15004321932792664, -0.3038487434387207], [-0.10788356512784958, 0.005607664119452238], [-0.08537081629037857, -0.06298534572124481], [-0.17031382024288177, -0.15221691131591797], [-0.2490079253911972, -0.08237989991903305], [-0.13933290541172028, -0.19326351583003998], [0.06628222018480301, -0.10952529311180115], [0.11777579039335251, -0.08254729211330414], [0.3459897041320801, -0.08497463166713715], [-0.37389132380485535, 0.21682444214820862], [0.011210937984287739, 0.04932624474167824], [-0.11695924401283264, 0.12725302577018738], [0.13300715386867523, 0.016627643257379532], [0.22294734418392181, -0.7384958863258362], [0.06735806912183762, 0.21160393953323364], [0.3433440625667572, -0.2503966987133026], [0.1257430613040924, -0.08130776137113571], [-0.043702442198991776, 0.12195659428834915], [0.15629957616329193, -0.06434060633182526], [0.31772381067276, 0.23457957804203033], [0.10950743407011032, -0.05901217833161354], [0.2974875867366791, -0.23720146715641022], [0.15659382939338684, -0.06207060441374779], [0.08496137708425522, 0.09802926331758499], [0.1562948077917099, -0.05139637365937233], [0.20593143999576569, 0.1275552362203598], [0.17283885180950165, 0.2362351268529892]], [[0.2757149040699005, 0.16085103154182434], [0.11876258254051208, -0.08765126764774323], [0.14928850531578064, -0.0338481105864048], [-0.2585590183734894, -0.20930081605911255], [-0.26761099696159363, -0.041571635752916336], [0.22954177856445312, 0.4181903600692749], [0.06889659911394119, 0.1536218822002411], [-0.12598344683647156, 0.017860528081655502], [0.19500954449176788, -0.11043927073478699], [0.03882267326116562, -0.22888775169849396], [-0.060630913823843, 0.09537554532289505], [0.4178781807422638, 0.11620643734931946], [-0.1728416234254837, 0.18352819979190826], [-0.15874871611595154, -0.25542548298835754], [-0.04991936311125755, -0.09735150635242462], [0.20970243215560913, 0.0466192327439785], [0.1151866614818573, 0.09122133255004883], [0.21236175298690796, 0.03940010815858841], [0.029853640124201775, 0.19048474729061127], [-0.03637665510177612, 0.12852679193019867], [-0.11417186260223389, -0.20520848035812378], [-0.3428397476673126, -0.35789865255355835], [0.10423991084098816, -0.16014179587364197], [0.21795439720153809, -0.1340489536523819], [0.12025535851716995, 0.08444143086671829], [-0.11333701759576797, -0.0874028280377388], [0.05029924213886261, -0.21677008271217346], [0.054347679018974304, 0.07791166007518768], [-0.20695947110652924, 0.29729992151260376], [0.2266249805688858, -0.1406635046005249], [0.4658757448196411, 0.012015669606626034], [-0.017610907554626465, -0.08512835204601288], [-0.22367145121097565, -0.18517710268497467], [0.0012599907349795103, -0.16190122067928314], [0.029448844492435455, -0.056000348180532455], [-0.242948517203331, -0.14247764647006989], [-0.08796347677707672, -0.04159088805317879], [-0.15112830698490143, -0.02980870008468628], [0.3365221321582794, -0.09269393235445023], [-0.22963334619998932, -0.18613474071025848], [0.07035748660564423, -0.1619657576084137], [0.10709046572446823, -0.07381952553987503], [-0.07854600250720978, -0.06877803057432175], [0.28250619769096375, 0.08787258714437485], [-0.24565362930297852, -0.09475036710500717], [0.04431444779038429, 0.10329724103212357], [0.24194149672985077, 0.16659213602542877], [0.050050243735313416, -0.10745751112699509], [0.18639270961284637, -0.025849072262644768], [-0.017216529697179794, 0.22693563997745514], [-0.061945442110300064, -0.13237878680229187], [0.03515387326478958, 0.22942449152469635], [0.23731237649917603, 0.1976817399263382], [-0.28025028109550476, 0.22834183275699615], [0.05787836015224457, -0.07044654339551926], [-0.24962209165096283, 0.022835901007056236], [0.1248687207698822, -0.16491572558879852], [0.17149297893047333, -0.10026515275239944], [-0.2833428382873535, -0.07682633399963379], [-0.09624358266592026, 0.045613229274749756], [-0.06694114953279495, 0.1546771228313446], [-0.16484734416007996, -0.10271520912647247], [0.04679648578166962, 0.13750790059566498], [0.14599648118019104, 0.4482288062572479]], [[0.19010001420974731, -0.09674417227506638], [-0.024137912318110466, 0.0438174232840538], [0.2820894718170166, -0.023144235834479332], [0.030829129740595818, -0.10944628715515137], [-0.0543530136346817, 0.14388252794742584], [0.11970683932304382, -0.1584058701992035], [-0.066028892993927, -0.08817542344331741], [0.08232636749744415, 0.04540252313017845], [-0.038272760808467865, 0.09250034391880035], [-0.20565412938594818, -0.3077808916568756], [0.09959041327238083, 0.08489944040775299], [-0.31854504346847534, 0.006641812156885862], [0.21329735219478607, -0.1664334237575531], [0.17618544399738312, 0.059373024851083755], [0.0604640357196331, -0.19363468885421753], [0.2548682987689972, 0.20584577322006226], [-0.10869777947664261, 0.0964745357632637], [-0.028609365224838257, -0.24423909187316895], [0.1204281747341156, -0.06817734241485596], [0.0164475180208683, -0.06626035273075104], [0.16041693091392517, 0.15431801974773407], [-0.20285290479660034, 0.354667991399765], [-0.2528269290924072, 0.04173304885625839], [0.04368362948298454, 0.004574119113385677], [-0.380886435508728, -0.06415225565433502], [-0.09246786683797836, -0.2772047221660614], [0.08443983644247055, 0.38527876138687134], [-0.09450612962245941, 0.15391817688941956], [-0.1350252479314804, 0.017877738922834396], [0.2752890884876251, 0.011028666980564594], [-0.018976230174303055, 0.09273327142000198], [0.14361277222633362, 0.020883169025182724], [0.23267382383346558, 0.03518404811620712], [0.0315818190574646, 0.2661314606666565], [0.0436239056289196, 0.09286677092313766], [0.2521044909954071, -0.3524118959903717], [-0.1639309823513031, 0.1669120043516159], [-0.1362316757440567, -0.12229921668767929], [0.006531849969178438, 0.08163460344076157], [0.39437803626060486, 0.16472837328910828], [0.014161870814859867, -0.011041210032999516], [0.07259173691272736, 0.1674923151731491], [0.07114042341709137, 0.012830897234380245], [-0.2344222217798233, 0.2289779633283615], [0.18290184438228607, 0.04064257815480232], [0.15812961757183075, 0.10637935996055603], [0.18359486758708954, 0.0003747438604477793], [-0.17678973078727722, -0.05154765024781227], [-0.05744589865207672, -0.22136038541793823], [0.09109263122081757, -0.03761564940214157], [-0.37815648317337036, -0.1424809843301773], [-0.03185287490487099, 0.1600053608417511], [-0.18786486983299255, 0.07387059926986694], [0.02490803971886635, -0.09195701032876968], [-0.2745155990123749, -0.050593361258506775], [-0.12655009329319, 0.13026605546474457], [0.06299997866153717, -0.09639599919319153], [-0.08557824045419693, 0.13119295239448547], [0.25886696577072144, 0.06550872325897217], [0.13132604956626892, -0.18824316561222076], [-0.19436971843242645, 0.07200277596712112], [-0.1584395468235016, 0.17509151995182037], [-0.16454856097698212, 0.1062462255358696], [-0.2450399249792099, -0.34878572821617126]], [[-0.21498161554336548, 0.2977070212364197], [0.08781250566244125, -0.2634434700012207], [-0.0686047226190567, -0.07468996942043304], [-0.056663159281015396, 0.19476889073848724], [0.16805799305438995, 0.059472743421792984], [-0.0556652694940567, 0.02143382839858532], [0.23521138727664948, -0.2234218716621399], [0.20387190580368042, 0.004398512654006481], [-0.03566402941942215, -0.016776379197835922], [0.2100374549627304, 0.20007918775081635], [-0.34396329522132874, -0.23065494000911713], [-0.07998110353946686, 0.10227218270301819], [0.2810320258140564, 0.28344962000846863], [0.06448502093553543, 0.016613975167274475], [-0.19426673650741577, 0.25558191537857056], [-0.22216004133224487, -0.07010652124881744], [0.13793133199214935, 0.07252673804759979], [0.1317884624004364, -0.2710157036781311], [-0.004782152362167835, 0.0558360256254673], [-0.1525869220495224, -0.1374494731426239], [0.005657719913870096, 0.13855768740177155], [0.1797948181629181, 0.08791507035493851], [0.14250555634498596, -0.2344110608100891], [0.13558200001716614, 0.23930954933166504], [-0.15179166197776794, -0.0736178308725357], [-0.04306044057011604, -0.10821132361888885], [0.34603849053382874, 0.039685867726802826], [-0.2676849365234375, 0.1455276757478714], [-0.15770742297172546, 0.05109447240829468], [0.42478033900260925, -0.01754928007721901], [-0.17037270963191986, 0.13338413834571838], [0.20621754229068756, 0.06751494109630585], [0.30844539403915405, -0.05386531352996826], [-0.21725131571292877, 0.3947277367115021], [-0.07502437382936478, 0.1361015886068344], [0.34054264426231384, 0.15599551796913147], [0.02201526239514351, -0.02961713634431362], [-0.08224602043628693, 0.10032406449317932], [0.33491045236587524, -0.00028059681062586606], [-0.04232514277100563, 0.10229066014289856], [0.1751512736082077, 0.09787117689847946], [-0.4216422736644745, 0.16598770022392273], [0.2802104651927948, 0.12924109399318695], [0.23807574808597565, -0.12490484118461609], [0.08992146700620651, -0.02873297967016697], [-0.36236587166786194, 0.20974944531917572], [-0.08051296323537827, 0.26622632145881653], [0.0817386656999588, 0.06726271659135818], [0.23502133786678314, -0.43519771099090576], [-0.11044332385063171, -0.02017032913863659], [0.10855234414339066, -0.11404048651456833], [0.1408187299966812, -0.35289719700813293], [-0.12853345274925232, 0.1856190413236618], [-0.1749163568019867, 0.07787095755338669], [-0.0633164644241333, 0.29669758677482605], [-0.2403869777917862, -0.08378752321004868], [-0.046671751886606216, -0.021845171228051186], [-0.20150795578956604, 0.12676694989204407], [-0.0983058512210846, 0.1273118406534195], [-0.0390145406126976, 0.1159193217754364], [0.13729240000247955, 0.0853738933801651], [-0.36800238490104675, -0.22100621461868286], [-0.170513316988945, 0.15885455906391144], [-0.057829972356557846, -0.09485530108213425]]]","[[0.0, 0.0, 0.0, 0.0, 0.0, 0.0, 0.0, 0.0, 0.0, 0.0, 0.0, 0.0, 0.0, 0.0, 0.0, 0.0, 0.0, 0.0, 0.0, 0.0, 0.0, 0.0, 0.0, 0.0, 0.0, 0.0, 0.0, 0.0, 0.0, 0.0, 0.0, 0.0, 0.0, 0.0, 0.0, 0.0, 0.0, 0.0, 0.0, 0.0, 0.0, 0.0, 0.0, 0.0, 0.0, 0.0, 0.0, 0.0, 0.0, 0.0, 0.0, 0.0, 0.0, 0.0, 0.0, 0.0, 0.0, 0.0, 0.0, 0.0, 0.0, 0.0, 0.0, 0.0], [0.0, 0.0, 0.0, 0.0, 0.0, 0.0, 0.0, 0.0, 0.0, 0.0, 0.0, 0.0, 0.0, 0.0, 0.0, 0.0, 0.0, 0.0, 0.0, 0.0, 0.0, 0.0, 0.0, 0.0, 0.0, 0.0, 0.0, 0.0, 0.0, 0.0, 0.0, 0.0, 0.0, 0.0, 0.0, 0.0, 0.0, 0.0, 0.0, 0.0, 0.0, 0.0, 0.0, 0.0, 0.0, 0.0, 0.0, 0.0, 0.0, 0.0, 0.0, 0.0, 0.0, 0.0, 0.0, 0.0, 0.0, 0.0, 0.0, 0.0, 0.0, 0.0, 0.0, 0.0], [0.0, 0.0, 0.0, 0.0, 0.0, 0.0, 0.0, 0.0, 0.0, 0.0, 0.0, 0.0, 0.0, 0.0, 0.0, 0.0, 0.0, 0.0, 0.0, 0.0, 0.0, 0.0, 0.0, 0.0, 0.0, 0.0, 0.0, 0.0, 0.0, 0.0, 0.0, 0.0, 0.0, 0.0, 0.0, 0.0, 0.0, 0.0, 0.0, 0.0, 0.0, 0.0, 0.0, 0.0, 0.0, 0.0, 0.0, 0.0, 0.0, 0.0, 0.0, 0.0, 0.0, 0.0, 0.0, 0.0, 0.0, 0.0, 0.0, 0.0, 0.0, 0.0, 0.0, 0.0], [0.0, 0.0, 0.0, 0.0, 0.0, 0.0, 0.0, 0.0, 0.0, 0.0, 0.0, 0.0, 0.0, 0.0, 0.0, 0.0, 0.0, 0.0, 0.0, 0.0, 0.0, 0.0, 0.0, 0.0, 0.0, 0.0, 0.0, 0.0, 0.0, 0.0, 0.0, 0.0, 0.0, 0.0, 0.0, 0.0, 0.0, 0.0, 0.0, 0.0, 0.0, 0.0, 0.0, 0.0, 0.0, 0.0, 0.0, 0.0, 0.0, 0.0, 0.0, 0.0, 0.0, 0.0, 0.0, 0.0, 0.0, 0.0, 0.0, 0.0, 0.0, 0.0, 0.0, 0.0], [0.0, 0.0, 0.0, 0.0, 0.0, 0.0, 0.0, 0.0, 0.0, 0.0, 0.0, 0.0, 0.0, 0.0, 0.0, 0.0, 0.0, 0.0, 0.0, 0.0, 0.0, 0.0, 0.0, 0.0, 0.0, 0.0, 0.0, 0.0, 0.0, 0.0, 0.0, 0.0, 0.0, 0.0, 0.0, 0.0, 0.0, 0.0, 0.0, 0.0, 0.0, 0.0, 0.0, 0.0, 0.0, 0.0, 0.0, 0.0, 0.0, 0.0, 0.0, 0.0, 0.0, 0.0, 0.0, 0.0, 0.0, 0.0, 0.0, 0.0, 0.0, 0.0, 0.0, 0.0]]","[[[0.15622831881046295, 0.167262002825737, -0.15420940518379211, 0.0712902620434761, -0.046010129153728485, -0.16703875362873077, -0.2217053472995758, 0.15533114969730377, -0.17212770879268646, 0.018046576529741287, 0.3624778389930725, -0.1054709255695343, 0.16699416935443878, -0.041725270450115204, -0.04084969311952591, 0.07255740463733673, -0.08898182958364487, 0.17838528752326965, -0.29766136407852173, -0.06711435317993164, -0.0001961702946573496, -0.25048020482063293, 0.2215096801519394, -0.13218237459659576, 0.16999079287052155, -0.09702552109956741, 0.046683527529239655, 0.06395643204450607, -0.011419967748224735, -0.2726113200187683, 0.054121796041727066, -0.09897816926240921, -0.011795472353696823, 0.2841012179851532, -0.04575143754482269, 0.007922811433672905, -0.12180877476930618, -0.031516559422016144, 0.032843925058841705, 0.20426473021507263, -0.08301747590303421, 0.004930228926241398, 0.18589900434017181, -0.2315370887517929, -0.16624954342842102, 0.23280192911624908, 0.07756029814481735, 0.193603053689003, -0.18984772264957428, 0.18619179725646973, -0.015219329856336117, -0.22688746452331543, 0.17916251718997955, 0.47115957736968994, 0.3063187897205353, 0.21065615117549896, 0.10123013705015182, -0.013461928814649582, -0.05147678032517433, -0.15573331713676453, -0.12424159795045853, -0.026469379663467407, -0.19600461423397064, -0.13619007170200348], [0.03807774931192398, 0.17833183705806732, 0.10138039290904999, 0.05275028571486473, -0.1370617300271988, 0.033471230417490005, -0.1516665518283844, 0.0407564602792263, 0.005261855665594339, -0.073532834649086, 0.04091856628656387, 0.04153680428862572, -0.2953915297985077, 0.07702387124300003, -0.21531683206558228, 0.20239299535751343, 0.029236527159810066, 0.05133670195937157, -0.16993115842342377, -0.11913350224494934, -0.2198367714881897, -0.11974009871482849, 0.1474459320306778, -0.19674037396907806, 0.031838949769735336, -0.08333674818277359, -0.188190758228302, 0.21348382532596588, -0.16635623574256897, 0.22081774473190308, -0.20272380113601685, -0.08179251849651337, 0.041639767587184906, -0.14632104337215424, -0.05050140246748924, 0.0007078285561874509, -0.07032120227813721, -0.2628287971019745, 0.298463374376297, 0.1315615177154541, -0.003030613297596574, 0.02461087517440319, -0.14325770735740662, 0.16782237589359283, 0.02678198367357254, -0.11848116666078568, 0.06522268801927567, -0.00794237107038498, -0.17304697632789612, -0.15487082302570343, 0.19761870801448822, -0.19639723002910614, -0.3622860312461853, 0.11051324009895325, -0.04528634995222092, 0.13546434044837952, 0.012441460974514484, 0.2616099715232849, -0.16392937302589417, 0.13065896928310394, -0.15341350436210632, 0.10610996931791306, -0.19238565862178802, -0.06428391486406326], [-0.33416447043418884, 0.14710283279418945, 0.043308790773153305, 0.1806187480688095, -0.23516462743282318, 0.1081257164478302, -0.2737276256084442, 0.060419078916311264, 0.15786758065223694, 0.43303143978118896, 0.28848931193351746, -0.13411137461662292, -0.08590921014547348, 0.012999352067708969, 0.06413161754608154, -0.4766426980495453, -0.03153589367866516, 0.07582098245620728, 0.28034666180610657, -0.04409557208418846, -0.17932946979999542, 0.1854543387889862, 0.14830566942691803, -0.1454419195652008, 0.17251726984977722, -0.025067778304219246, 0.44786784052848816, 0.20173026621341705, -0.003669760888442397, -0.040030337870121, 0.08605741709470749, -0.0003437571576796472, 0.2477840781211853, 0.054639581590890884, 0.11015209555625916, -0.09642817080020905, -0.26653891801834106, 0.11964274197816849, -0.2534176707267761, -0.3206053376197815, -0.1970980018377304, 0.01806226186454296, 0.23255987465381622, -0.01645510084927082, 0.01275841984897852, 0.06937211006879807, -0.06288953125476837, 0.25645166635513306, 0.040260691195726395, -0.332582026720047, -0.0030795885249972343, -0.12182200700044632, -0.13167549669742584, -0.08208993822336197, 0.006057406309992075, 0.08135269582271576, 0.13682125508785248, -0.11109627038240433, -0.20087915658950806, 0.07920145988464355, 0.015323806554079056, -0.13319051265716553, 0.2057397961616516, 0.07689087092876434]], [[0.1188269555568695, -0.22459529340267181, -0.029237357899546623, -0.031797442585229874, -0.2626461684703827, -0.1146627739071846, -0.24646323919296265, 0.05570714548230171, -0.173161581158638, -0.34443792700767517, -0.08012433350086212, -0.01635601930320263, 0.17981863021850586, 0.414156436920166, -0.04404691979289055, -0.03722447529435158, -0.31356683373451233, 0.34359925985336304, 0.35056033730506897, 0.23030072450637817, -0.23535770177841187, 0.04820050671696663, 0.0802556648850441, -0.05405791103839874, -0.28005316853523254, 0.2825186252593994, -0.1774740219116211, 0.07098625600337982, -0.27903369069099426, -0.5767769813537598, 0.003487461246550083, -0.0425860695540905, -0.20037434995174408, 0.016550321131944656, -0.17866572737693787, -0.01785103790462017, 0.046283360570669174, 0.08181687444448471, 0.21418732404708862, 0.0911027267575264, 0.16777198016643524, 0.32023006677627563, -0.0966883972287178, 0.06432229280471802, 0.1673154979944229, 0.13051438331604004, -0.2329539656639099, -0.06034630909562111, 0.4554375410079956, -0.12461043149232864, 0.2662056088447571, 0.04842183738946915, -0.14144720137119293, -0.011618493124842644, 0.1907498985528946, 0.023399081081151962, 0.33265525102615356, 0.09156202524900436, 0.193059504032135, 0.06412697583436966, 0.0005193342221900821, 0.1191791370511055, -0.35437777638435364, 0.01977342553436756], [0.3005165755748749, 0.019563835114240646, 0.07150161266326904, -0.020791450515389442, 0.11060332506895065, 0.08719109743833542, -0.22693635523319244, 0.02208285592496395, 0.1643340289592743, 0.08897112309932709, 0.018867705017328262, -0.1612648218870163, 0.1800992339849472, -0.0014638868160545826, 0.07829976081848145, 0.08274019509553909, 0.23511314392089844, -0.09135545045137405, 0.2834186255931854, -0.2418646365404129, 0.23100973665714264, 0.13949252665042877, 0.008385716937482357, -0.1910555511713028, 0.031240612268447876, -0.2929883301258087, 0.05218964442610741, 0.06457740813493729, -0.04093097895383835, -0.24853207170963287, 0.37564995884895325, 0.031053418293595314, 0.03303185850381851, 0.047553900629282, 0.04570003226399422, 0.12579979002475739, 0.3161320090293884, 0.2881660759449005, -0.13573668897151947, -0.06611807644367218, -0.19910605251789093, -0.2640027701854706, -0.12968400120735168, 0.23711137473583221, -0.11587273329496384, -0.027348928153514862, 0.16441097855567932, -0.1737275868654251, -0.00913110189139843, 0.013422311283648014, 0.03318605199456215, -0.12762843072414398, 0.1400463879108429, 0.09468964487314224, -0.0705031007528305, 0.17496807873249054, -0.013486458919942379, -0.04975138232111931, -0.11736974120140076, 0.002713720081374049, 0.19010362029075623, -0.1501154601573944, -0.04432665556669235, -0.218791663646698], [0.4711261987686157, -0.010229836218059063, 0.18282510340213776, 0.2095043659210205, 0.3026884198188782, -0.21832060813903809, 0.298676460981369, -0.1429375857114792, -0.23342444002628326, -0.08462048321962357, 0.04055029898881912, -0.162698432803154, 0.05718250200152397, 0.14696051180362701, 0.06226265802979469, -0.12446272373199463, -0.07836787402629852, 0.016232149675488472, -0.20277279615402222, -0.24567198753356934, 0.041376691311597824, 0.03635739907622337, -0.3167462646961212, -0.16011641919612885, 0.3283446431159973, -0.22648192942142487, 0.14148962497711182, -0.026849962770938873, -0.10772228986024857, -0.08972593396902084, 0.1353628784418106, -0.23611325025558472, -0.09417672455310822, 0.03952484577894211, -0.07673998177051544, 0.23641544580459595, -0.20782583951950073, -0.18106386065483093, 0.12401018291711807, 0.0085458904504776, 0.006200022529810667, -0.100784532725811, 0.007153762504458427, 0.3396759331226349, 0.09617434442043304, -0.0994214192032814, -0.06453584134578705, 0.10530397295951843, 0.17791035771369934, 0.08597569167613983, -0.028605051338672638, -0.03204292804002762, 0.25512880086898804, 0.27483004331588745, -0.2668089270591736, -0.048079412430524826, 0.14900963008403778, 0.11113998293876648, -0.25917500257492065, 0.10078215599060059, 0.19189254939556122, 0.10590673238039017, -0.09940453618764877, -0.11460231989622116]], [[0.14938083291053772, 0.1388172060251236, -0.20450283586978912, 0.1721438467502594, -0.14768783748149872, 0.02412840537726879, 0.018022926524281502, 0.43809032440185547, -0.180330291390419, -0.2631228268146515, 0.10835731774568558, -0.09031987935304642, 0.23719094693660736, 0.14441263675689697, -0.19272516667842865, -0.034563951194286346, 0.05642224848270416, 0.03839457780122757, -0.18573562800884247, -0.039711810648441315, -0.018012091517448425, 0.026841608807444572, 0.17275182902812958, -0.21491624414920807, -0.027383895590901375, -0.009555688127875328, 0.19991806149482727, 0.3797838091850281, -0.03582552820444107, 0.06312893331050873, 0.11213859915733337, 0.014525171369314194, 0.17241263389587402, -0.11757805943489075, 0.09401772916316986, 0.019021620973944664, -0.024172397330403328, 0.011097763665020466, 0.0801200419664383, -0.1802264004945755, -0.24966734647750854, -0.36118167638778687, -0.18924731016159058, -0.0722576454281807, -0.014861942268908024, 0.27930739521980286, -0.13378570973873138, -0.12610851228237152, -0.18799154460430145, -0.03232106938958168, 0.0401240810751915, -0.31734272837638855, 0.13322116434574127, 0.041714031249284744, 0.08765801042318344, 0.2184290885925293, -0.023457644507288933, -0.016452444717288017, 0.25207382440567017, 0.1329774558544159, -0.015683500096201897, -0.0753154307603836, -0.12750038504600525, -0.3291162848472595], [0.09047341346740723, 0.06482984125614166, 0.01995830610394478, 0.007974177598953247, 0.08110936731100082, -0.20075160264968872, -0.26088812947273254, 0.35401013493537903, -0.25017669796943665, -0.3219347298145294, 0.3424336016178131, 0.19406811892986298, -0.0303670484572649, -0.05781817063689232, 0.05056546628475189, -0.06444840878248215, -0.07329808920621872, -0.29673928022384644, 0.14033982157707214, 0.2715775966644287, -0.057701870799064636, -0.12304332852363586, -0.07241934537887573, 0.18728357553482056, 0.1162402331829071, -0.12495935708284378, 0.11031600832939148, 0.4113803207874298, 0.27819016575813293, -0.19485808908939362, 0.05433793365955353, 0.05960713326931, 0.030072622001171112, -0.07845829427242279, 0.08299966901540756, -0.4033212959766388, -0.001740470645017922, -0.2568085491657257, 0.35913580656051636, -0.05022084340453148, -0.17437931895256042, 0.03636270388960838, -0.011636470444500446, -0.25897306203842163, 0.052727099508047104, -0.01365648116916418, 0.14099611341953278, 