num_tiles,noise,w1,b1,w2,b2
1,0.0,"[[[-0.814253568649292, 0.713053286075592], [1.14934504032135, 1.1251946687698364], [-0.8842682242393494, -0.49049168825149536], [1.182687520980835, 0.13846297562122345], [1.0619865655899048, -0.544694721698761], [0.19789256155490875, -0.8614253997802734], [-0.31075748801231384, 1.0018330812454224], [0.1438775211572647, 0.9648451805114746], [-0.23801857233047485, -0.5188876390457153], [0.7185883522033691, 1.1579041481018066], [-0.8106186389923096, 0.23081517219543457], [-0.8112943768501282, 0.15875503420829773], [-0.856774091720581, -0.3715302646160126], [-0.8209115266799927, -0.7644120454788208], [0.6717879176139832, -0.707126259803772], [1.1776360273361206, -0.613366425037384], [0.014787456020712852, 1.1923632621765137], [0.9480040073394775, -0.057720787823200226], [1.2122300863265991, -0.5414241552352905], [-0.7208526730537415, 0.29051658511161804], [-0.8748633861541748, -0.31398704648017883], [1.2557623386383057, 0.5418892502784729], [1.0123323202133179, -0.8511770963668823], [-0.8402410745620728, 0.7592793703079224], [-0.7571876049041748, -0.6333847045898438], [1.222696304321289, 1.0600816011428833], [-0.8786349892616272, -0.740470826625824], [-0.8011241555213928, -0.4753835201263428], [0.6250655055046082, 1.2288321256637573], [-0.3364744782447815, -0.8348979353904724], [1.010541319847107, -0.8415998220443726], [-0.044322431087493896, 1.2430511713027954], [1.2122608423233032, -0.5933994650840759], [-0.15236300230026245, 0.45404213666915894], [0.6127890944480896, 1.1872870922088623], [1.241326928138733, 0.01289062388241291], [1.1261732578277588, -0.6416203379631042], [-0.09336862713098526, -0.8426164984703064], [-0.5913387537002563, 1.1440292596817017], [-0.806101381778717, -0.3376597762107849], [1.1346675157546997, -0.5506789684295654], [-0.7537958025932312, 1.142209529876709], [-0.7183406352996826, 1.2130708694458008], [-0.8766470551490784, 0.9853553771972656], [-0.6511120200157166, -0.8923450708389282], [-0.596031665802002, -0.013434998691082], [0.15630441904067993, -0.583665668964386], [1.1469979286193848, 0.8653665781021118], [1.1767158508300781, 1.200744390487671], [-0.5163851976394653, 0.9647984504699707], [-0.4931047260761261, -0.27459660172462463], [1.1818867921829224, 0.13762497901916504], [-0.3781154155731201, -0.6127489805221558], [-0.17718641459941864, 1.0789268016815186], [-0.741943359375, -0.4523627460002899], [-0.7740252017974854, -0.7507590651512146], [-0.5948054194450378, 1.1595510244369507], [-0.8567560911178589, -0.24745696783065796], [-0.3616521656513214, 1.2351590394973755], [-0.8171716928482056, 0.9285485148429871], [0.8303921222686768, -0.05965074151754379], [-0.8268392086029053, -0.043690718710422516], [-0.8373590707778931, -0.4918712079524994], [-0.748572051525116, 0.3114754557609558]], [[0.3795517086982727, -0.8586714863777161], [0.09301620721817017, 1.1417994499206543], [0.7380043268203735, 1.1099234819412231], [-0.8821340799331665, 0.013964086771011353], [1.1345492601394653, -0.2712266743183136], [1.223738670349121, -0.3769536018371582], [-0.819996178150177, -0.8302919864654541], [-0.7919029593467712, -0.2604958713054657], [-0.18687382340431213, -0.7508953809738159], [-0.8599854707717896, -0.5872653722763062], [1.1816514730453491, 0.10960477590560913], [-0.1679404079914093, -0.832391083240509], [-0.6690004467964172, 0.7725531458854675], [0.9332327246665955, 1.0863759517669678], [-0.7081428170204163, 1.0030548572540283], [1.1129006147384644, 1.124550700187683], [-0.8063103556632996, 0.5681845545768738], [-0.2570897936820984, -0.8161730170249939], [-0.7401944398880005, 1.1454615592956543], [-0.018421193584799767, -0.797705352306366], [-0.09396495670080185, 1.1509459018707275], [0.9133727550506592, 0.2811954915523529], [-0.8308157324790955, 0.14215846359729767], [-0.8013365864753723, -0.1569560021162033], [0.39634305238723755, -0.8149149417877197], [-0.7920246124267578, 0.8719422221183777], [0.11933621019124985, 1.159319519996643], [1.035805344581604, 0.8874922394752502], [1.1466596126556396, 0.6281026005744934], [-0.13678206503391266, -0.3888343870639801], [-0.858677327632904, -0.7102121114730835], [1.107643723487854, -0.738308846950531], [0.3615603446960449, 0.7423456907272339], [-0.35837239027023315, -0.6406890153884888], [0.940303385257721, -0.1920822560787201], [0.010240493342280388, 0.5611007809638977], [-0.43070390820503235, 1.159314751625061], [1.0931791067123413, 1.0834286212921143], [-0.7513703107833862, -0.7091284990310669], [1.1180293560028076, -0.8298403024673462], [-0.8310686945915222, 0.6566325426101685], [0.786469042301178, 1.2225149869918823], [0.7718735933303833, 1.124036431312561], [1.2466267347335815, 0.005175748839974403], [0.26196083426475525, 0.914071261882782], [1.2661718130111694, 0.18036577105522156], [1.3021881580352783, 0.5740353465080261], [1.2363351583480835, -0.7633266448974609], [-0.5654481649398804, 1.1445449590682983], [-0.17748472094535828, 1.1727614402770996], [-0.3317512273788452, 1.1443992853164673], [-0.6536622047424316, 0.9259277582168579], [1.2282365560531616, -0.08300811797380447], [-0.826926589012146, 0.32417595386505127], [1.1913760900497437, -0.3374740481376648], [1.1360368728637695, -0.5158957242965698], [-0.10540766268968582, -0.8327632546424866], [-0.8478293418884277, 0.3939686119556427], [-0.7949756383895874, 0.25868451595306396], [0.14435040950775146, 1.1925746202468872], [-0.8206725120544434, -0.043397437781095505], [1.136706829071045, -0.7630840539932251], [1.1763405799865723, 1.0958067178726196], [-0.7143599390983582, 1.0859899520874023]], [[1.0870312452316284, 1.0648914575576782], [1.158219337463379, 0.6625202298164368], [0.9609065055847168, 1.2614308595657349], [0.6536726355552673, -0.7954382300376892], [1.2197209596633911, 0.04662047326564789], [0.1948883980512619, 1.2095493078231812], [-0.9352033138275146, 0.45955929160118103], [0.4242430031299591, 0.08289424329996109], [-0.4194110929965973, -0.774796724319458], [1.2491363286972046, 0.30931195616722107], [1.1663234233856201, -0.03554488718509674], [-0.527190089225769, 1.1524618864059448], [1.1105718612670898, 1.2169346809387207], [0.6354534029960632, 1.032340407371521], [-0.5054850578308105, 1.1502379179000854], [0.08951610326766968, -0.8764585256576538], [0.6226224303245544, 1.142290472984314], [0.6558152437210083, 1.1940314769744873], [-0.23141810297966003, -0.8429161310195923], [1.0128881931304932, -0.4569355547428131], [-0.8234599232673645, -0.07245185971260071], [-0.9134448766708374, -0.1871727705001831], [-0.8088626265525818, 0.08617442846298218], [-0.7703578472137451, 0.8311870098114014], [0.43570470809936523, 1.0801290273666382], [-0.7865261435508728, 0.3390200436115265], [-0.8671355843544006, 1.106103539466858], [1.2545441389083862, 0.815601110458374], [-0.3794090747833252, 1.1973744630813599], [-0.7647213339805603, -0.25263991951942444], [-0.8045616149902344, -0.3974252939224243], [-0.8390274047851562, -0.8505665063858032], [1.2339060306549072, -0.5093961358070374], [-0.18012623488903046, -0.8839423656463623], [-0.5092621445655823, 0.10895762592554092], [-0.36991244554519653, 1.193943977355957], [-0.8264198899269104, -0.8586781620979309], [1.0557290315628052, 0.5909706354141235], [1.189895510673523, 1.0643055438995361], [1.2079650163650513, -0.7501399517059326], [-0.13861201703548431, 1.2456536293029785], [-0.7608753442764282, 1.131361961364746], [1.076263189315796, -0.14934130012989044], [0.016232969239354134, 1.0080676078796387], [-0.523440420627594, 1.3056081533432007], [0.9375779032707214, 0.39269310235977173], [-0.16963200271129608, -0.6542029976844788], [1.2349869012832642, -0.6791876554489136], [-0.7988376617431641, 0.9403342008590698], [-0.8659605383872986, 1.0876319408416748], [1.2340004444122314, -0.22558918595314026], [-0.12801791727542877, -0.6879197955131531], [0.2638603746891022, -0.8052895665168762], [-0.7997820973396301, -0.6014623641967773], [-0.8571551442146301, -0.41783151030540466], [-0.9641841650009155, -0.007445843890309334], [-0.6414377689361572, -0.811667263507843], [-0.8165290355682373, -0.870819628238678], [1.1941440105438232, 0.25395509600639343], [-0.8374232649803162, 0.5263325572013855], [1.2202787399291992, 1.0110924243927002], [-0.7324241399765015, 0.584820032119751], [0.9504122734069824, 1.1612006425857544], [0.30875569581985474, -0.8438182473182678]], [[-0.21769802272319794, 1.1163280010223389], [0.3581037223339081, 1.1076674461364746], [-0.34812131524086, -0.8650489449501038], [1.1685048341751099, 0.8407303094863892], [1.0750435590744019, -0.4917773902416229], [1.2265613079071045, 0.48752790689468384], [-0.8310984969139099, 0.5333030819892883], [1.1926735639572144, 1.2096314430236816], [-0.16539569199085236, -0.43407368659973145], [0.2781759202480316, -0.8279219269752502], [-0.8414066433906555, 1.1318161487579346], [-0.09408636391162872, 1.176316261291504], [0.21897916495800018, -0.7707332968711853], [-0.8455552458763123, -0.8341211676597595], [1.1953948736190796, 1.0016062259674072], [-0.5694447159767151, 0.18921737372875214], [-0.8380041122436523, -0.904212474822998], [-0.8380407094955444, -0.8623607158660889], [-0.7543981075286865, -0.5964344143867493], [1.1503605842590332, -0.23774832487106323], [0.42783963680267334, -0.8279431462287903], [-0.030272435396909714, -0.8997408747673035], [0.7317422032356262, -0.41384023427963257], [1.188735008239746, -0.15398795902729034], [-0.8462687134742737, 0.8691180348396301], [1.1321709156036377, 0.45406675338745117], [-0.7282099723815918, -0.8051621913909912], [-0.8157662749290466, -0.8360479474067688], [-0.452289879322052, 1.0194021463394165], [1.1517431735992432, -0.03954651579260826], [-0.8534197807312012, -0.051653556525707245], [-0.0727606788277626, -0.8595810532569885], [-0.8196154832839966, 0.7279434204101562], [0.9188537001609802, -0.0835481584072113], [1.249555230140686, -0.4237639307975769], [-0.7772372961044312, -0.31957414746284485], [-0.09021498262882233, -0.14354172348976135], [1.143250584602356, -0.8213350772857666], [1.1173481941223145, 0.7315836548805237], [-0.27309587597846985, 1.207265853881836], [-0.11431126296520233, -0.173410564661026], [-0.6949260830879211, 1.14706289768219], [-0.834155797958374, -0.3832760155200958], [1.182312250137329, 0.7125646471977234], [-0.79117751121521, -0.16916997730731964], [0.13201773166656494, -0.8309506177902222], [0.49506676197052, 1.1814531087875366], [-0.7883405089378357, 1.2393388748168945], [0.45142871141433716, 1.2449870109558105], [-0.8698816895484924, -0.8369232416152954], [-0.6509639024734497, 1.1372092962265015], [1.2169228792190552, 1.1572364568710327], [1.1953744888305664, -0.09178488701581955], [1.206722617149353, -0.8381674885749817], [0.25196436047554016, 1.1030464172363281], [-0.8584374189376831, 1.3388983011245728], [-0.8309482336044312, 1.1976113319396973], [-0.6314587593078613, 1.0749363899230957], [-0.130255788564682, -0.8240723013877869], [0.21724475920200348, -0.6535826325416565], [1.049018144607544, 1.0195317268371582], [-0.6663145422935486, -0.33113163709640503], [1.052380084991455, -0.46319296956062317], [0.10594460368156433, 1.0989938974380493]], [[-0.5504248738288879, -0.5855343341827393], [-0.028432082384824753, -0.0005496086087077856], [1.2619216442108154, -0.82612144947052], [1.1549750566482544, -0.6847507953643799], [0.311541885137558, 1.159212589263916], [-0.2726512551307678, -0.8437054753303528], [0.4830322861671448, 1.1202205419540405], [-0.7059190273284912, -0.7995292544364929], [0.15900865197181702, -0.828715443611145], [1.1167572736740112, -0.7389642000198364], [1.0216609239578247, -0.05685680732131004], [-0.3569936454296112, 1.0496690273284912], [0.6485480070114136, -0.047610294073820114], [0.3547312915325165, -0.8240305185317993], [-0.8518103957176208, -0.8529294729232788], [-0.8433198928833008, 1.1179425716400146], [1.1966090202331543, 0.1978878676891327], [-0.8443541526794434, -0.08459649980068207], [-0.16995000839233398, 1.2408254146575928], [0.28057610988616943, 1.169405460357666], [-0.1339453160762787, -0.6575771570205688], [-0.06997184455394745, -0.7626663446426392], [-0.41641658544540405, 0.3620731830596924], [-0.8478274941444397, 0.8948392271995544], [-0.6700566411018372, 0.16605515778064728], [-0.5809358358383179, 0.2632659077644348], [1.1151748895645142, -0.18526583909988403], [-0.560025155544281, -0.7771098613739014], [-0.8132303953170776, -0.10208345949649811], [1.1494494676589966, 0.48693791031837463], [-0.725296139717102, 0.04915625974535942], [0.6590709090232849, -0.21807891130447388], [-0.6709712743759155, -0.33985471725463867], [0.4955393075942993, 1.3109990358352661], [1.1799871921539307, -0.023884732276201248], [0.974003255367279, -0.7931609749794006], [-0.6332858204841614, 1.222230076789856], [1.0765682458877563, 0.7663964033126831], [1.228833556175232, 0.3363839387893677], [-0.11775130778551102, -0.8660869002342224], [0.3333040773868561, -0.7278799414634705], [-0.41205069422721863, 1.1060775518417358], [1.1769367456436157, 0.7024153470993042], [-0.7978433966636658, 0.7790224552154541], [0.23355938494205475, 1.0607494115829468], [-0.33686792850494385, 0.614613950252533], [-0.42528650164604187, 1.1135165691375732], [-0.023797746747732162, -0.8768200874328613], [-0.030074628069996834, 0.9000417590141296], [0.026272520422935486, 0.5833203196525574], [1.071763515472412, -0.000998127507045865], [1.071590542793274, 1.1676123142242432], [1.1011306047439575, 0.8034220933914185], [-0.79483562707901, 0.9678640961647034], [1.1204379796981812, -0.34328657388687134], [1.0938048362731934, 0.8334590196609497], [-0.31199586391448975, 0.4302746057510376], [-0.7295774221420288, -0.8064042329788208], [-0.8163864016532898, 0.5296844244003296], [1.1210079193115234, 1.0707682371139526], [0.0573863759636879, 0.4252856373786926], [0.5963830351829529, -0.7873658537864685], [-0.5381075143814087, -0.8376612663269043], [1.0057750940322876, 0.850679874420166]]]","[[0.06759833544492722, -0.9724492430686951, -0.7299137711524963, 0.13036365807056427, 0.15846696496009827, -0.49021798372268677, -0.04749945551156998, -0.21534574031829834, -0.49352574348449707, 0.25006431341171265, -0.2496642917394638, -0.411450058221817, 0.38359755277633667, 0.01882203295826912, -0.14094950258731842, 0.22273068130016327, -0.5711199641227722, -0.1545042246580124, 0.4662723243236542, 1.0131386518478394, -0.6419251561164856, -0.9341033697128296, -0.30491727590560913, -0.6860313415527344, 0.1387491524219513, -0.18102365732192993, -0.06594204902648926, -0.2993559241294861, -0.3897660970687866, -0.3562621772289276, -0.931915819644928, 0.4345899522304535, -0.5884091258049011, 0.061084408313035965, -0.3968484103679657, -0.8079830408096313, 0.12885764241218567, -0.5760137438774109, -0.7741714119911194, -0.06730552762746811, -0.11205824464559555, -0.5604158043861389, 0.4583096206188202, 0.1008615642786026, -0.6532025933265686, 0.3117823302745819, -0.1852627843618393, -0.07936754077672958, 0.09216970205307007, -0.2194126546382904, 0.19902867078781128, -0.410078227519989, -0.48583361506462097, 0.14352573454380035, -0.3666875958442688, 0.49221059679985046, 0.2854509949684143, -0.2596808671951294, 0.6053138375282288, -0.10204436630010605, -0.3500696122646332, -0.5875564217567444, 0.12159125506877899, -0.11292485892772675], [-0.5767802000045776, 0.05469336360692978, -0.15360459685325623, -0.6127378940582275, -0.7523242235183716, -0.507138729095459, -0.8166192173957825, -0.27926844358444214, -0.27452361583709717, -0.07116378843784332, -0.21613045036792755, -0.615401029586792, 0.2554430365562439, -0.7714756727218628, 0.6362999081611633, -0.18281137943267822, -0.6596189141273499, -0.4790710210800171, -0.5158320069313049, -0.25264593958854675, -0.2663687467575073, -0.10651380568742752, -0.4215691387653351, 0.4982922077178955, -0.3776779770851135, -0.684185266494751, 0.6583487391471863, 0.2298712432384491, 0.31835100054740906, -0.07045772671699524, -0.4647264778614044, -0.10880761593580246, 0.3465152978897095, -0.038996387273073196, -0.37673214077949524, -0.12515929341316223, -0.8050987124443054, -0.5496148467063904, -0.6424139738082886, -0.6315555572509766, -0.1636553257703781, -1.0415016412734985, -0.3167322278022766, 0.11794403940439224, -0.05993671342730522, -0.8047705292701721, -0.4879729151725769, -0.14575617015361786, 0.14004290103912354, 0.1913534551858902, -0.5642597675323486, -0.03795456886291504, -0.9417005777359009, -0.09004560112953186, -0.2472313791513443, 0.8245208859443665, 0.05386664345860481, -0.04447894170880318, -0.28143635392189026, -0.08189506828784943, 0.05276721343398094, -0.3372742831707001, -0.18893367052078247, -0.23953725397586823], [0.6127528548240662, 0.3916449248790741, -0.8889181613922119, -0.25102853775024414, -0.30311906337738037, 0.40419772267341614, -0.744277834892273, 1.459506869316101, 0.28472810983657837, 0.11481563746929169, -0.5767977833747864, 0.15443313121795654, -1.164413571357727, 0.11094977706670761, 0.5762060880661011, 0.14744459092617035, 0.5314920544624329, 0.5917048454284668, -0.5059919357299805, 1.8676871061325073, -0.2088688313961029, -0.6356143355369568, -0.07878203690052032, -0.155050128698349, -0.28402000665664673, -0.09174960851669312, 2.462628126144409, -0.07076756656169891, -0.545777440071106, 0.0839310735464096, -0.41009753942489624, -0.08310267329216003, 0.14627383649349213, 0.051272228360176086, 0.03232445567846298, 0.16791068017482758, 0.09889405965805054, 0.3373434543609619, 0.3862907886505127, -0.3615402281284332, -0.2631983757019043, -0.7332309484481812, 0.30586767196655273, 0.15765884518623352, 0.7726821899414062, -0.39589208364486694, -0.22009943425655365, -0.16928671300411224, 0.29822108149528503, -0.5044817924499512, -0.5838112235069275, -0.1810026466846466, -0.4247908890247345, -0.6426957249641418, 2.4389150142669678, -0.438723623752594, -0.6673732995986938, -0.46050870418548584, -0.7678883075714111, -0.553464949131012, 0.09642872959375381, 0.10969623923301697, -0.12182731926441193, -0.5624451637268066], [0.12953977286815643, -0.20429125428199768, -0.3251575529575348, 0.756854236125946, -0.24115051329135895, -0.706804633140564, -0.5413724184036255, 0.6412866115570068, 2.3745691776275635, -0.07545707374811172, 0.14675867557525635, 2.8766753673553467, 1.4419324398040771, 0.3745369613170624, 0.12317284196615219, -0.20587466657161713, 0.5029875636100769, -0.2712841033935547, -0.06290324777364731, 0.17883238196372986, -0.5776270031929016, 0.048655107617378235, -0.010577362030744553, -0.4632571041584015, 0.13678015768527985, -0.38117435574531555, 0.09252823889255524, -0.708042562007904, -0.05124320462346077, 0.4309004247188568, -0.528225839138031, 2.225170612335205, -0.16733244061470032, 0.12071393430233002, 0.44426217675209045, -0.2882210612297058, 1.1688920259475708, -0.5494330525398254, -0.7972727417945862, -0.2651684880256653, 0.5683174729347229, -0.5483086705207825, -0.07974250614643097, 0.3117412030696869, 3.264988899230957, -0.41552144289016724, -0.809556782245636, 0.3980143666267395, -0.35326388478279114, 0.6144765019416809, 0.1271628439426422, -0.26757317781448364, -0.777652382850647, 0.22009600698947906, -0.5531136393547058, 0.8517545461654663, 0.45105206966400146, -0.6963030099868774, -0.48430681228637695, -0.4588123559951782, -0.09509259462356567, 0.09970459342002869, -0.1019488051533699, -0.26405689120292664], [0.5346968770027161, -0.23352621495723724, -1.1166235208511353, 0.14754877984523773, -0.8200335502624512, -0.5021252632141113, -0.09751302003860474, 0.10290642082691193, -0.271900475025177, -0.30253955721855164, -0.46093258261680603, -0.22847317159175873, -0.062386542558670044, -0.6167489290237427, -0.7176907062530518, -0.8461323976516724, -0.7703365087509155, 0.23263926804065704, -0.7663507461547852, 0.4308724105358124, -0.22446109354496002, -0.03523580729961395, 0.5475820899009705, -0.19522146880626678, -0.3745144009590149, -0.20462153851985931, -0.4636994004249573, 0.3017520010471344, -0.552690327167511, -0.18420012295246124, -0.345490038394928, 0.5222029089927673, -0.30193087458610535, -0.4363846778869629, 0.4899689555168152, -0.5130873322486877, -0.5672094821929932, -0.06892075389623642, 0.349454790353775, -0.13447026908397675, -0.4480304718017578, 0.1366022527217865, 0.08421485871076584, -0.6476571559906006, -0.5397787690162659, -0.28853514790534973, -0.40214818716049194, -0.4753466248512268, 0.17207470536231995, -0.035370294004678726, -0.8400022983551025, 0.5822936296463013, -0.9376421570777893, -0.5578998327255249, -0.26458269357681274, -0.41489848494529724, 0.4144654870033264, -0.2573729157447815, -0.6905895471572876, 0.08941270411014557, -0.10617715865373611, -0.10364927351474762, -0.7314442992210388, -0.7341557145118713]]","[[[0.17950236797332764, 0.03190838173031807, 0.6281618475914001, 0.32136934995651245, 0.0058749644085764885, 0.7970660924911499, -0.01647636666893959, 0.10046710819005966, 1.06648588180542, 0.02658434584736824, 0.32162049412727356, -0.8215384483337402, 0.07256617397069931, -0.06472531706094742, -0.19622653722763062, 0.20659950375556946, 0.20859873294830322, -0.3427565395832062, 0.07231968641281128, -0.09804126620292664, 0.3938539922237396, -0.7162037491798401, -0.19337159395217896, -0.7945061326026917, 0.014291549101471901, -0.16000698506832123, 0.0818423479795456, -0.22832834720611572, 0.060120731592178345, -0.2588348984718323, 0.848635196685791, -0.03245014324784279, 0.25581860542297363, 0.041892487555742264, 0.2824473977088928, 0.6059759259223938, -0.13743257522583008, 1.180594801902771, -0.8320031762123108, 0.1576988846063614, 0.03021950274705887, 0.49848973751068115, -0.21165424585342407, 0.06898640841245651, 0.0892590880393982, -0.029637308791279793, -0.3725820481777191, 0.057648055255413055, 0.0904122069478035, 0.3822731077671051, -0.2459787279367447, 0.6179606914520264, 0.6925886273384094, 0.2559633255004883, -0.49608373641967773, 0.03126930445432663, 0.08705029636621475, 0.02935229055583477, 0.1336028128862381, -0.39019423723220825, 0.15648293495178223, 0.8691655993461609, -0.27924400568008423, 0.118404820561409], [-0.03690080717206001, 1.284271001815796, -0.4544655978679657, -0.2759079039096832, -0.383816123008728, -0.7927328944206238, 0.2654457986354828, -0.4155552387237549, -0.060144294053316116, 0.2635456323623657, 0.45661282539367676, 0.9394776225090027, -0.2686362564563751, -0.04874676838517189, 0.4876132011413574, -0.11677936464548111, 1.1897701025009155, 0.7406933307647705, 0.20707811415195465, -0.1352681666612625, -0.8790494799613953, 1.2604812383651733, 0.3247866630554199, 0.11788033694028854, 0.0318911112844944, 0.2540024220943451, -0.44413602352142334, 0.6947623491287231, -0.685433566570282, 0.6659877300262451, 1.155638337135315, -0.014423935674130917, -0.854182779788971, 0.06379293650388718, -0.44106096029281616, 1.1461399793624878, -0.37676945328712463, -0.8126184344291687, 0.7497135996818542, -0.24502220749855042, 0.1797906756401062, 0.8155753016471863, -0.17458617687225342, 0.24067635834217072, -0.9400777816772461, -0.17961134016513824, 0.2084643542766571, 0.8024637699127197, -0.340547114610672, -0.3413224518299103, -0.32673314213752747, -0.4364749789237976, -0.8032295107841492, 0.22862321138381958, 0.4276503920555115, -0.1234002485871315, 0.2752189338207245, 0.45129767060279846, -0.23396316170692444, -0.1944032907485962, -0.8122610449790955, -0.8263823986053467, 0.19961637258529663, -0.4838252663612366], [0.01737864501774311, -0.8946510553359985, -0.2704119384288788, 0.032379150390625, 0.1945478469133377, 0.15655088424682617, 0.4962058365345001, 0.23277327418327332, -0.7049084901809692, -0.31182703375816345, -0.36213231086730957, 0.3579697906970978, -0.1997375637292862, -0.2119818478822708, -0.207288458943367, -0.1943625956773758, -0.7751102447509766, -0.019953709095716476, -0.06849964708089828, -0.19528725743293762, 0.6102373600006104, -0.8243856430053711, 0.1735875904560089, 1.2076894044876099, 0.3457508087158203, 0.2753378748893738, -0.1254916489124298, -0.13146717846393585, -0.05702049285173416, 0.3973582088947296, -0.7953030467033386, 0.1869773417711258, 0.10972637683153152, -0.18066997826099396, 0.2309340536594391, -0.8100140690803528, 0.0450872927904129, -0.34796464443206787, 1.1426806449890137, 0.11025262624025345, -0.003418008331209421, -0.5170427560806274, -0.0160834938287735, -0.254340261220932, 0.4630799889564514, -0.22624674439430237, 0.5798903703689575, -0.018083840608596802, 0.012450188398361206, 0.29043176770210266, -0.10063092410564423, 0.7825443148612976, -0.0834450051188469, -0.43309110403060913, 0.5589947700500488, -0.2741716802120209, 0.10489626973867416, -0.27512168884277344, 0.34515580534935, 0.12032484263181686, 0.16529926657676697, 1.2099487781524658, -0.059484634548425674, 0.05786934494972229]], [[1.134523630142212, 0.11956430971622467, -0.2579118013381958, 1.1449980735778809, 0.08432222902774811, 0.0014400635845959187, 0.7373163104057312, -0.4712623655796051, -0.10331005603075027, 0.06067516282200813, -0.2817828357219696, 0.7998858094215393, -0.3508667051792145, 0.11059653013944626, 0.09134067595005035, -0.19808989763259888, -0.8170020580291748, 0.2442237287759781, 0.013186762109398842, -0.5516408085823059, 0.38048189878463745, -0.2884311378002167, -0.7503517866134644, 0.09032247215509415, -0.0581367164850235, -0.7856764197349548, 0.22197198867797852, -0.019491197541356087, 0.06314393132925034, 0.325482040643692, -0.5307983160018921, 0.27743497490882874, -0.12190690636634827, 0.6147341132164001, 0.21546193957328796, 0.29615965485572815, -0.8619705438613892, 0.25347474217414856, 0.36141237616539, 0.4132753014564514, 0.1504521369934082, -0.8223718404769897, 0.38683974742889404, 0.018807092681527138, -0.1841660887002945, 0.2012021243572235, 0.27866682410240173, 0.032099902629852295, -0.06371761858463287, 0.14397317171096802, 0.5546586513519287, -0.13616174459457397, -0.6046913862228394, 0.03881705179810524, -0.22102028131484985, 0.2320980429649353, -0.02427191659808159, -0.22692596912384033, 0.39422935247421265, -0.23959825932979584, -0.05508773773908615, -0.34818440675735474, -0.1955401450395584, -0.03149503096938133], [-0.858436644077301, -0.30876773595809937, 0.1551850289106369, -0.8288304805755615, 1.1224132776260376, -0.6909981369972229, -0.8482226133346558, 0.5196762681007385, 0.549930214881897, -0.513195276260376, 0.31990060210227966, -0.8323456048965454, 0.3408359885215759, 1.1805686950683594, -0.03871450945734978, 0.08563912659883499, -0.41768479347229004, -0.7681901454925537, 0.5597921013832092, 0.7800020575523376, -0.3519153892993927, 0.18018268048763275, 0.6114975810050964, 0.16901613771915436, -0.749064564704895, 0.4464774429798126, -0.03875188156962395, -0.0888022631406784, 0.0020388306584209204, 0.27864888310432434, 0.13010627031326294, 0.3223324418067932, -0.1501474678516388, -0.24749769270420074, -0.5512858629226685, -0.49344807863235474, 0.644829273223877, -0.31556570529937744, -0.4912254214286804, -0.764501690864563, -0.5342965722084045, 1.1149587631225586, -0.6370261311531067, -0.3843498229980469, 0.236784428358078, 0.5662179589271545, -0.8103278875350952, 0.3553423285484314, -0.028795044869184494, 0.4995993375778198, 0.9689921140670776, -0.0382121317088604, 1.1779823303222656, -0.4596492052078247, 0.2829931080341339, 0.011861000210046768, 0.35332268476486206, -0.47645625472068787, 0.6781095266342163, 0.07618460804224014, 0.0025657706428319216, 0.046345241367816925, 0.3152368366718292, -0.5298526287078857], [-0.447410523891449, -0.19506768882274628, 0.16619157791137695, 1.18985116481781, -0.8863789439201355, -0.03633788600564003, -0.010103996843099594, -0.484332799911499, 0.4001474976539612, -0.30156296491622925, 0.21716465055942535, -0.4653163552284241, 0.05326104536652565, -0.8948795795440674, -0.07133419811725616, -0.04883839562535286, 1.1060984134674072, 0.45450350642204285, -0.6367160081863403, 0.12190939486026764, 0.2440754622220993, -0.1720762848854065, 0.6187329888343811, -0.16789290308952332, 0.41596344113349915, 0.6859649419784546, 0.2816388010978699, -0.15663163363933563, -0.39723077416419983, -0.24464677274227142, 0.2543228566646576, -0.16525235772132874, 0.11957576870918274, 0.33003953099250793, 0.17139728367328644, 0.3428664207458496, 0.7300752997398376, -0.15038223564624786, 0.26538100838661194, 0.16275805234909058, 0.1769021600484848, -0.7488037347793579, 0.1487208604812622, -0.06160609424114227, 0.07419846206903458, -0.8143415451049805, 0.3373704254627228, -0.18931475281715393, -0.265240341424942, -0.19728586077690125, -0.5587478876113892, 0.04144534468650818, -0.8308685421943665, 0.21025504171848297, -0.04000009223818779, 0.24056725203990936, 0.23019494116306305, 0.1849447339773178, -0.5762236714363098, 0.16628912091255188, -0.35085856914520264, 0.21455170214176178, 0.016772087663412094, -0.015326254069805145]], [[0.15129050612449646, 0.16280841827392578, 0.5364437103271484, -0.08621156215667725, 0.12814737856388092, -0.42772290110588074, -0.24784457683563232, 0.29992836713790894, 0.20424817502498627, 0.12294245511293411, 0.49529919028282166, 0.18776141107082367, -0.7841346859931946, 0.23756054043769836, -0.05114395543932915, 0.01713104173541069, -0.04994974657893181, -0.04073868691921234, 0.3751750588417053, -0.07930082082748413, 0.3183346688747406, 0.49308905005455017, 0.17551212012767792, -0.030887292698025703, 0.014730280265212059, 0.12838295102119446, -0.15669624507427216, -0.01885884255170822, 0.27448955178260803, -0.40610381960868835, -0.3850320875644684, 0.2201516330242157, 0.20508326590061188, -0.2957949936389923, -0.06235393509268761, 0.0423852801322937, -0.15324470400810242, 0.1279803067445755, -0.01797150820493698, -0.40004608035087585, 0.4188663065433502, -0.77564936876297, 0.1509627252817154, 0.3825494945049286, 0.14489589631557465, 0.3393248915672302, -0.2277795970439911, -0.11047274619340897, -0.08567360788583755, 0.40364423394203186, 0.44380050897598267, -0.018114259466528893, 0.6277350783348083, 1.1104174852371216, -0.11562902480363846, -0.7390366196632385, 0.9908660650253296, -0.2328130155801773, -0.049729686230421066, -0.8392112851142883, 0.06643453985452652, -0.13436807692050934, -0.37740781903266907, 1.2345829010009766], [0.4376245439052582, 0.23044617474079132, 1.0891424417495728, 0.368939608335495, -0.28159210085868835, 0.06696277111768723, -0.8420467376708984, 0.15407773852348328, -0.26887941360473633, -0.22441178560256958, -0.6476972103118896, -0.15389274060726166, 1.1812617778778076, -0.0250502061098814, -0.33663955330848694, -0.17485542595386505, -0.00961582362651825, 0.10940442234277725, -0.8212114572525024, -0.042142752557992935, 0.37762004137039185, -0.7643800377845764, -0.4415203630924225, -0.32621484994888306, -0.4915173351764679, -0.5473799109458923, -0.10788813978433609, 0.21419206261634827, 0.36985889077186584, 0.10256712138652802, 0.3715055286884308, -0.4439851641654968, 0.03692341968417168, 0.03324977681040764, 0.16884365677833557, 0.1914980560541153, 0.19256122410297394, 0.09036976844072342, 0.04632182419300079, -0.025529922917485237, -0.5118638873100281, 0.7742086052894592, -0.10641869902610779, 0.20228873193264008, -0.23376134037971497, -0.35312747955322266, 0.42184728384017944, 0.5199048519134521, 0.29231980443000793, 0.6675893068313599, -0.46289587020874023, 0.7458654642105103, -0.8321664929389954, -0.889783501625061, 0.08804880082607269, 0.4943679869174957, -0.8430471420288086, 0.3476238250732422, 1.123919129371643, 0.2644937336444855, 0.04937582090497017, 0.43947833776474, 0.03581318259239197, -0.8799245357513428], [0.2546828091144562, 0.015488672070205212, -0.8364415764808655, 0.15551897883415222, 0.5603400468826294, 0.0460674986243248, 1.1707987785339355, 0.15951012074947357, 0.13552150130271912, 0.09474941343069077, -0.31995365023612976, -0.0697464644908905, -0.5319315195083618, 0.06848478317260742, 0.14437635242938995, 0.1613827794790268, 0.37915730476379395, -0.0071266284212470055, 0.3316463828086853, 0.2526624798774719, -0.606103241443634, 0.303941011428833, 0.17017589509487152, 0.4490192234516144, 0.20254014432430267, 0.1412559300661087, 0.0013222454581409693, -0.11934851855039597, -0.7040705680847168, -0.27041247487068176, 0.32283034920692444, -0.2385527789592743, 0.21859614551067352, 0.042971473187208176, -0.35795918107032776, -0.1045389324426651, 0.10211392492055893, -0.13687562942504883, -0.19016133248806, 0.48353448510169983, 0.09254518896341324, 0.5629814863204956, -0.31325316429138184, -0.04883641377091408, -0.007631282322108746, 0.3270852267742157, 0.11099094152450562, -0.24546599388122559, 0.056926045566797256, -0.5481633543968201, -0.13513977825641632, -0.07791881263256073, 0.29484233260154724, 1.0687942504882812, -0.10941518843173981, 0.03413349762558937, 0.19122722744941711, 0.019561974331736565, -0.8406277298927307, 0.6290721893310547, 0.21958792209625244, -0.08915967494249344, 0.03217153623700142, -0.46639567613601685]], [[0.021072963252663612, -0.30256187915802, -0.514919638633728, 0.009929101914167404, -0.18218646943569183, 0.27356192469596863, -0.8440625071525574, 0.12484662979841232, -0.045449014753103256, 0.13447831571102142, -0.07004601508378983, 0.17808039486408234, -0.1465664654970169, 0.07267242670059204, -0.03340974450111389, -0.04778316244482994, -0.01147365290671587, 0.07958267629146576, 0.25807327032089233, 0.2746178209781647, 1.1559776067733765, 0.010916129685938358, -0.14888618886470795, 0.2759743928909302, 0.04052905738353729, 0.2788026034832001, -0.13630327582359314, 1.1294865608215332, -0.05304262787103653, -0.19762013852596283, -0.3277057409286499, 0.08874168992042542, 0.3240785002708435, -0.03391195833683014, 0.11660491675138474, -0.2688768804073334, 0.03579331561923027, 0.25292742252349854, -0.3457898497581482, 0.6883907318115234, 0.10704503953456879, 0.3846988081932068, 0.22839048504829407, -0.006275260355323553, -0.055514153093099594, -0.0502726212143898, -0.9098687171936035, 0.02772507630288601, 0.39961761236190796, 0.14819005131721497, -0.16381537914276123, -0.12876775860786438, 0.29366064071655273, -0.02439195290207863, 0.26866835355758667, -0.1223713606595993, -0.037564635276794434, -0.7514781355857849, 0.6975120902061462, 0.9646536111831665, -0.2843093276023865, -0.12831345200538635, 0.17464162409305573, 0.33974677324295044], [0.05439519137144089, -0.11674551665782928, 0.5250822305679321, 0.0330270379781723, 0.4680542051792145, -0.0763879045844078, 0.10028287768363953, 0.42638635635375977, -0.14572305977344513, 0.35254615545272827, 0.25339627265930176, -0.03758420795202255, -0.11031220108270645, -0.27428939938545227, -0.43725454807281494, 0.23386745154857635, -0.01143769919872284, 0.71776282787323, -0.2187335044145584, -0.15075580775737762, -0.5877280235290527, 0.43011224269866943, 0.7107354998588562, -0.7034866809844971, -0.07042974978685379, -0.6357828378677368, 0.3300539553165436, -0.8250778913497925, 0.30418553948402405, 0.31851693987846375, -0.8746468424797058, 0.06283898651599884, -0.18168000876903534, -0.42441868782043457, 0.26800698041915894, 0.6706866025924683, 0.0981670618057251, -0.7509942650794983, 1.12913978099823, -0.3980604112148285, 0.1954001933336258, 0.5871427655220032, -0.10877785086631775, -0.11963842064142227, -0.029061030596494675, -0.6257113814353943, 1.1535550355911255, 0.22656835615634918, -0.37108027935028076, -0.12939469516277313, -0.0017151522915810347, -0.15019363164901733, 1.1451616287231445, -0.2807966470718384, 0.6300449967384338, -0.1620507836341858, 0.07121129333972931, 0.8958508968353271, -0.8430631756782532, -0.8385558128356934, 0.30609458684921265, 0.32349833846092224, 0.4363916218280792, -0.2539190948009491], [-0.3433680534362793, 0.2596474587917328, 0.561525821685791, 0.3346484303474426, 0.29980748891830444, -0.439998984336853, 1.1542613506317139, 0.22202983498573303, -0.06964253634214401, -0.17450091242790222, -0.1987982988357544, 0.1151941567659378, -0.09584616869688034, 0.09626015275716782, -0.2805718779563904, -0.20255465805530548, 0.05337004363536835, -0.1566566377878189, 0.2883632183074951, 0.03891925886273384, -0.7769688963890076, 0.1729753315448761, 0.3753601014614105, 0.36351636052131653, -0.2720409631729126, 0.028339669108390808, 0.03488874062895775, 0.46680739521980286, 0.5886995196342468, -0.21945510804653168, 1.2189233303070068, -0.04275020211935043, 0.34187766909599304, -0.10511316359043121, -0.18422630429267883, -0.2338341772556305, -0.058125630021095276, 0.485208660364151, -0.8486313223838806, 0.29985687136650085, 0.041352562606334686, -0.7832998037338257, 0.0076830750331282616, -0.2408340722322464, 0.021023206412792206, 0.5517197251319885, -0.8254079222679138, 0.19354607164859772, 0.3206464648246765, -0.026892051100730896, -0.3299911320209503, -0.0560508631169796, -0.8194119930267334, 0.1612873673439026, -0.6920920610427856, -0.077208012342453, 0.03146041929721832, 0.3806394636631012, 0.4361681342124939, -0.37494564056396484, -0.10002348572015762, -0.0320381335914135, 0.1157313883304596, 0.4326878786087036]], [[-0.3023321032524109, -0.25971418619155884, 0.08803460001945496, -0.1150374636054039, -0.8169422149658203, 0.1658904105424881, -0.16130638122558594, -0.2117459774017334, -0.21640582382678986, -0.5045310854911804, 0.5221559405326843, -0.08726706355810165, -0.012115106917917728, 1.1316852569580078, 0.4652360677719116, -0.8874882459640503, 0.4291544556617737, -0.1856875866651535, -0.8664728999137878, -0.057727448642253876, -0.6091041564941406, 0.5378634333610535, 0.03600621968507767, 0.042605604976415634, -0.8442872166633606, 0.6244152188301086, 0.35828110575675964, 0.06887493282556534, 0.595233678817749, -0.2760458290576935, -0.6627931594848633, -0.20836903154850006, -0.3823314309120178, 0.332707941532135, 0.018875205889344215, 0.23043949902057648, -0.04318273812532425, -0.10219905525445938, 0.18162979185581207, -0.13444752991199493, 0.7750165462493896, 0.005015883594751358, 0.2111806869506836, -0.7024170160293579, 0.3495703935623169, 0.32136404514312744, 0.5895658731460571, 0.26225998997688293, -0.11620155721902847, -0.35749563574790955, -0.8871452808380127, -0.29162469506263733, -0.8276329636573792, 0.38356348872184753, -0.4492543637752533, 0.5191735029220581, 0.22307854890823364, 0.11934397369623184, 0.1258891373872757, 0.4114009737968445, -0.0328240692615509, 0.22855207324028015, 0.8533235192298889, 0.5793371200561523], [0.19411306083202362, 0.30101028084754944, 1.2179566621780396, -0.5637755393981934, 1.1493926048278809, -0.7878764271736145, 0.6263365149497986, -0.05637452378869057, 0.3778373599052429, 0.5533297657966614, -0.4384285509586334, -0.3559998869895935, 0.21414020657539368, -0.8213942050933838, -0.8360562324523926, 0.22962766885757446, 1.1156926155090332, -0.4000518023967743, 0.5277287364006042, 0.14282386004924774, 0.6661516427993774, -0.3856641948223114, -0.3382178544998169, -0.6113439202308655, 0.05152011290192604, 0.29192811250686646, -0.9368119239807129, -0.3360907733440399, -0.7910952568054199, 0.5762571692466736, 0.716488778591156, -0.2602382004261017, 0.6088801622390747, -0.7001557946205139, 0.19203610718250275, -0.811779260635376, 0.3049180507659912, 0.8631855249404907, 0.15060503780841827, 0.059722669422626495, -0.766056478023529, 0.2513713836669922, -0.6048484444618225, -0.0568469800055027, 1.1058118343353271, 1.0410757064819336, -0.17972157895565033, -0.8232675790786743, 0.0825190395116806, 0.1481638252735138, 1.2759778499603271, -0.1274987906217575, 1.0797346830368042, 0.5372714996337891, 0.10471693426370621, -0.7478803992271423, 0.0249985009431839, 0.589737057685852, -0.8381737470626831, -0.32618874311447144, -0.7674856781959534, 0.44358330965042114, -0.752432107925415, 0.9496317505836487], [-0.12725435197353363, -0.2021714448928833, -0.8660600185394287, -0.060447778552770615, -0.053809624165296555, 0.3455777168273926, 0.3094569444656372, 0.00678554642945528, 0.2826140820980072, -0.054536014795303345, -0.33716467022895813, 0.3581986427307129, -0.2637181282043457, -0.5925156474113464, 0.31785309314727783, 0.5493213534355164, -0.8347077965736389, 0.31815996766090393, 0.06854916363954544, 0.39550817012786865, 0.26813894510269165, 0.23316454887390137, -0.1729430854320526, 0.22609888017177582, 0.7976136207580566, -0.49910351634025574, 0.33517104387283325, -0.0061156838200986385, 0.6874285340309143, 0.045595891773700714, -0.10268568992614746, 0.08008547127246857, 0.0906880721449852, 0.26865652203559875, 0.09598467499017715, 0.1772666871547699, -0.3396696150302887, -0.32249701023101807, -0.1503545492887497, -0.4343429207801819, 0.014001194387674332, -0.39890143275260925, 0.08954475820064545, 0.4947519600391388, -0.734269917011261, -0.7965162992477417, 0.07089341431856155, 0.41060811281204224, -0.1692526638507843, 0.3040646016597748, -0.8992001414299011, -0.13082784414291382, -0.3877944052219391, -0.4055633544921875, 0.1182093396782875, 0.45879343152046204, -0.046727512031793594, -0.4490109086036682, 1.1832175254821777, 0.21130122244358063, 0.28349849581718445, -0.11423510313034058, -0.19463253021240234, -0.5254704356193542]]]","[[-0.3271876275539398, 0.23630665242671967, 0.09087775647640228], [-0.19601161777973175, 0.06488583981990814, 0.13112378120422363], [0.4351705312728882, 0.04146492853760719, -0.4766349196434021], [-0.20954746007919312, 0.11523517221212387, 0.09431085735559464], [0.03564676642417908, 0.15410856902599335, -0.18975824117660522]]"
4,0.0,"[[[-0.863423764705658, -0.8084379434585571], [-0.6498582363128662, 1.1287249326705933], [1.0743637084960938, 0.1718263477087021], [0.20734018087387085, 1.1530189514160156], [-0.5097800493240356, 1.2044661045074463], [-0.5843514800071716, -0.3938569128513336], [-0.8095006346702576, 0.13844715058803558], [1.1484804153442383, -0.2798057794570923], [-0.7602553367614746, 0.19750133156776428], [1.1412441730499268, 0.8534190654754639], [-0.5579649806022644, -0.8362219929695129], [1.1511154174804688, -0.7954989671707153], [-0.7958356738090515, -0.3054848313331604], [1.0706430673599243, 0.5651066303253174], [-0.8422390222549438, 0.05177973955869675], [0.6534202694892883, 0.8865469098091125], [1.1506199836730957, 0.3870827555656433], [1.2347989082336426, -0.15275979042053223], [1.2158955335617065, 1.171089768409729], [-0.803217887878418, 1.109861135482788], [0.38155990839004517, 0.461067259311676], [-0.8426949977874756, -0.053007058799266815], [0.3681384027004242, 1.0310404300689697], [1.1901283264160156, 0.267462819814682], [-0.82329261302948, -0.8623553514480591], [0.12509186565876007, 1.1609113216400146], [1.2314765453338623, 1.0871334075927734], [-0.7963724136352539, 1.1683794260025024], [0.22720332443714142, 0.345645010471344], [1.1956324577331543, 0.746627926826477], [-0.7498659491539001, -0.5024838447570801], [0.00941219087690115, 1.1349751949310303], [-0.7402385473251343, 1.2017526626586914], [-0.7981655597686768, -0.22698894143104553], [-0.5850715637207031, -0.7505900859832764], [1.0735691785812378, 0.8426483869552612], [-0.8317587971687317, 0.10617775470018387], [-0.15537245571613312, -0.8026368618011475], [-0.16980402171611786, 0.5085497498512268], [-0.753974199295044, 1.125139594078064], [-0.5079880952835083, 0.46841996908187866], [-0.30726358294487, 0.6905231475830078], [1.2446388006210327, 0.3110010623931885], [0.6970804929733276, 1.207440733909607], [1.2180942296981812, 0.21477439999580383], [0.46625587344169617, -0.850840151309967], [0.9625959992408752, -0.8296623229980469], [-0.1046658530831337, -0.8601932525634766], [1.1534221172332764, -0.8561868667602539], [1.1412309408187866, -0.7831891775131226], [0.11316445469856262, 1.1500391960144043], [-0.3266563415527344, -0.5393866300582886], [-0.7984662652015686, 0.5125331878662109], [0.09212203323841095, -0.44677799940109253], [-0.20795126259326935, -0.81285560131073], [-0.10697667300701141, 1.1722571849822998], [-0.6510891318321228, -0.838654637336731], [-0.8328762650489807, 0.3423871397972107], [-0.30833005905151367, -0.8265170454978943], [0.2585967481136322, 1.1801155805587769], [0.29514580965042114, 1.2147310972213745], [1.001768708229065, -0.301822304725647], [0.7600060701370239, 1.1836998462677002], [-0.8424493074417114, -0.33130165934562683]], [[0.5029526948928833, 1.1193366050720215], [-0.35679811239242554, 0.270327627658844], [-0.776709794998169, -0.3836740255355835], [0.18427494168281555, -0.7777150273323059], [-0.08562381565570831, -0.24394166469573975], [1.141721248626709, 0.4955199658870697], [-0.8458571434020996, 0.0908379852771759], [-0.3740593194961548, 1.1117967367172241], [-0.24124468863010406, 1.1553539037704468], [-0.8485795259475708, 1.071502923965454], [-0.3203154504299164, 0.07537511736154556], [1.172163486480713, 0.9158569574356079], [0.6703733205795288, -0.39798396825790405], [-0.8065661191940308, 0.16327424347400665], [1.151365041732788, -0.8178191781044006], [-0.7855045199394226, -0.8104285001754761], [1.2079485654830933, -0.26104843616485596], [0.7019371390342712, -0.825073778629303], [0.39399290084838867, 1.0356462001800537], [-0.11200395226478577, -0.821224570274353], [-0.8415377140045166, -0.8456778526306152], [-0.8344929218292236, 0.47499823570251465], [0.27801820635795593, -0.5317198038101196], [0.5220693349838257, -0.03412583842873573], [1.0571050643920898, 1.178907036781311], [-0.8447355031967163, -0.12127728760242462], [-0.6978552341461182, 0.05684717744588852], [-0.30269286036491394, 0.11312003433704376], [-0.10324441641569138, -0.7892639636993408], [0.9655880331993103, -0.5254129767417908], [0.9289587736129761, -0.8178028464317322], [-0.8191068768501282, -0.6369025707244873], [-0.8243789672851562, 1.1595430374145508], [1.1604561805725098, -0.04275638610124588], [-0.5760188102722168, -0.8137220144271851], [-0.7960337400436401, 1.1023070812225342], [0.46783602237701416, -0.8082990050315857], [-0.8167118430137634, -0.14027783274650574], [-0.561078667640686, -0.7961355447769165], [1.1329058408737183, 0.11867655813694], [-0.8001402616500854, -0.11307306587696075], [-0.8227378726005554, -0.17369210720062256], [0.8783154487609863, 1.1775877475738525], [0.7751612067222595, -0.4603704810142517], [1.196885585784912, 0.3876195549964905], [0.08303700387477875, 1.1009304523468018], [1.1686993837356567, -0.1942943036556244], [0.4476584792137146, 0.6404259204864502], [-0.63581782579422, -0.3152150809764862], [-0.8199995160102844, 0.3355826735496521], [-0.07095317542552948, -0.27094289660453796], [1.1896671056747437, -0.7888681292533875], [-0.8324558138847351, 1.1287901401519775], [-0.494198203086853, 1.1754753589630127], [0.32751479744911194, 1.072068452835083], [1.1566390991210938, -0.3253399133682251], [-0.25347042083740234, 1.17041015625], [0.17583586275577545, -0.8175137042999268], [-0.0549263134598732, 1.1379395723342896], [-0.8150473833084106, 0.7094038128852844], [-0.8404173851013184, -0.4632208049297333], [-0.6436406970024109, -0.5062713027000427], [-0.2587311267852783, 1.1003903150558472], [1.1938228607177734, 0.27007120847702026]], [[0.3526754379272461, -0.8177268505096436], [-0.469702810049057, -0.8064150214195251], [1.1852952241897583, 0.22432361543178558], [-0.8558080196380615, 0.25934475660324097], [-0.3186393678188324, -0.818225085735321], [-0.8337981700897217, -0.17388859391212463], [0.12395079433917999, 0.6385128498077393], [-0.005336248315870762, -0.7968690991401672], [-0.16573147475719452, 1.146767497062683], [-0.3926568329334259, 1.1486135721206665], [-0.810589611530304, -0.8261253833770752], [1.035069465637207, 0.286925733089447], [1.1315240859985352, 0.720170259475708], [1.2449731826782227, -0.44376033544540405], [0.5789503455162048, -0.8588683009147644], [-0.8380641937255859, -0.23083509504795074], [-0.8017323613166809, -0.8150991201400757], [-0.8091669678688049, -0.5896157026290894], [-0.633548378944397, 1.1858874559402466], [-0.8057914972305298, 0.1585456281900406], [-0.7060316205024719, 0.12750783562660217], [0.6344423890113831, -0.8028749227523804], [-0.5616416931152344, 0.41838523745536804], [-0.5532634258270264, 1.1594196557998657], [-0.8381301760673523, -0.8324622511863708], [-0.2806367576122284, 0.7480974197387695], [1.1695556640625, 0.7601594924926758], [-0.7973934412002563, 0.9723068475723267], [0.17031273245811462, 1.1917216777801514], [0.5731739401817322, 1.1192983388900757], [-0.3577980697154999, -0.7849149107933044], [-0.7998018264770508, 1.1283355951309204], [-0.5628807544708252, 1.1453073024749756], [1.19476318359375, -0.844739556312561], [0.43761712312698364, 0.998428463935852], [-0.854321300983429, -0.1256554126739502], [0.35816630721092224, -0.6585760116577148], [1.1745824813842773, 1.1646003723144531], [0.337646484375, 0.3289954960346222], [-0.2612855136394501, -0.47599807381629944], [1.1810044050216675, 0.18512238562107086], [0.2431531697511673, 1.1877188682556152], [0.5121482610702515, -0.08723317831754684], [0.9358318448066711, 0.4069821536540985], [1.2154799699783325, -0.3249797224998474], [0.2888401746749878, -0.21212506294250488], [0.5831605792045593, 0.9467529058456421], [-0.6990275979042053, -0.1028677374124527], [0.892555296421051, -0.371132493019104], [-0.8038027882575989, 1.184575080871582], [-0.10320262610912323, -0.26989057660102844], [1.150912880897522, 0.11229631304740906], [1.1706537008285522, -0.4560026526451111], [-0.04122976213693619, -0.8358743190765381], [1.1319729089736938, 1.1635879278182983], [0.21051600575447083, 0.30929964780807495], [0.5409016609191895, 0.648227334022522], [-0.6670994758605957, 0.6995202302932739], [-0.8615247011184692, 0.08030807971954346], [1.1864237785339355, 1.119714379310608], [0.22818423807621002, 1.1726146936416626], [1.1802793741226196, -0.7952682375907898], [-0.5969361066818237, 1.127832293510437], [0.4621865749359131, -0.4537755250930786]], [[-0.6674143075942993, 1.1241934299468994], [1.167296290397644, -0.15062090754508972], [-0.1842297911643982, 1.1311233043670654], [1.1316320896148682, 0.44438856840133667], [-0.6346920132637024, -0.1251859962940216], [1.128578543663025, -0.7830013632774353], [-0.8380081653594971, -0.6113439798355103], [-0.6513392925262451, 1.208233118057251], [-0.6888478994369507, -0.48524904251098633], [0.7302607893943787, 0.09294306486845016], [1.126774787902832, -0.5267207622528076], [0.3929598033428192, -0.42371535301208496], [0.6724483966827393, 1.1853855848312378], [1.0899087190628052, 0.2278422713279724], [1.1645549535751343, 0.48839911818504333], [0.4901144504547119, 0.6048718690872192], [-0.7635500431060791, -0.22469842433929443], [-0.16775712370872498, -0.7293941974639893], [-0.8379720449447632, 0.41820764541625977], [1.120039463043213, -0.1689959466457367], [-0.8158397078514099, -0.35404837131500244], [-0.7629711627960205, 0.07338780164718628], [1.0685184001922607, 0.05367303639650345], [-0.6513403058052063, 0.6559680700302124], [0.2646509110927582, 0.06861425191164017], [0.23397742211818695, -0.6878035664558411], [1.2201879024505615, 0.21847206354141235], [-0.2549756169319153, 0.6764878630638123], [-0.08023624122142792, 0.015603168867528439], [1.1208570003509521, -0.6545928120613098], [-0.6871472597122192, -0.31792062520980835], [-0.23840393126010895, -0.8096674680709839], [0.9739680886268616, 0.4530053734779358], [0.11805716156959534, -0.7986692190170288], [0.5459960103034973, 1.1592130661010742], [-0.8235020637512207, 0.08750942349433899], [0.13729922473430634, 0.8799952268600464], [-0.8226099014282227, -0.13539409637451172], [-0.4566394090652466, -0.8291001319885254], [-0.5413224697113037, -0.867982804775238], [-0.8383538126945496, 0.3013017773628235], [-0.8341935873031616, 0.0569915734231472], [-0.8524649739265442, 0.551687479019165], [-0.036724381148815155, -0.824353814125061], [-0.5299108624458313, -0.420615017414093], [-0.43471604585647583, -0.4622945785522461], [-0.8142942786216736, 1.159142255783081], [1.1564819812774658, 0.9283851981163025], [0.655617356300354, -0.39110565185546875], [1.1824827194213867, -0.839375376701355], [0.22870171070098877, -0.2068714201450348], [1.1554961204528809, -0.09427256882190704], [-0.5976371765136719, 1.216025948524475], [0.19893133640289307, 0.5394923686981201], [-0.46073535084724426, -0.21581189334392548], [-0.5500166416168213, -0.8168154954910278], [0.40265655517578125, 0.4125540256500244], [-0.02251252718269825, 1.2421010732650757], [-0.8299435973167419, 0.2726793587207794], [-0.8802596926689148, -0.7978307008743286], [0.2933588922023773, 1.1551249027252197], [1.1525797843933105, -0.43336665630340576], [0.37850451469421387, -0.8613046407699585], [0.27881884574890137, -0.777910053730011]], [[1.1688591241836548, 0.6721209287643433], [0.4092077612876892, -0.8395761251449585], [-0.799734890460968, -0.5389126539230347], [0.32085710763931274, -0.8246655464172363], [-0.6813244819641113, 0.032316118478775024], [-0.8338701725006104, -0.39134150743484497], [1.1778838634490967, 1.2217705249786377], [-0.16053040325641632, -0.6597250699996948], [-0.8309962749481201, 0.7550277709960938], [1.1054661273956299, 0.30972471833229065], [-0.42498278617858887, 0.16193833947181702], [-0.8224700689315796, -0.07406497001647949], [0.42929476499557495, -0.8427827954292297], [1.1875816583633423, 0.15511852502822876], [0.7913509011268616, 0.9777968525886536], [1.1378138065338135, -0.6613918542861938], [0.7358770966529846, 1.2213155031204224], [-0.5347720980644226, 1.0016050338745117], [0.7341406345367432, 1.1963108777999878], [1.1526732444763184, -0.1763024777173996], [1.198421597480774, 0.07829166948795319], [-0.23689521849155426, 1.0312364101409912], [1.149583339691162, -0.37648096680641174], [0.026486167684197426, 0.4360920190811157], [-0.18368080258369446, -0.8130770921707153], [-0.7070276737213135, 0.2752518653869629], [-0.7459056973457336, 1.060884714126587], [1.101279377937317, -0.05908137559890747], [1.193743109703064, 0.1562875509262085], [0.05840124934911728, 0.5270440578460693], [-0.5243390798568726, -0.8099632263183594], [0.4927300810813904, -0.7997031211853027], [1.131706953048706, -0.015100319869816303], [1.0112534761428833, -0.7982445359230042], [0.353800892829895, -0.8128129839897156], [-0.6063423156738281, 0.8969108462333679], [0.03058050200343132, -0.7454717755317688], [-0.5347005724906921, 1.0280189514160156], [-0.8459635376930237, 0.19921989738941193], [0.5040859580039978, -0.7650671005249023], [0.5261980295181274, -0.8385310173034668], [-0.23774655163288116, 1.1558003425598145], [0.21858654916286469, 1.0912635326385498], [0.3124611973762512, 1.17414128780365], [-0.8385525941848755, -0.8488804697990417], [1.2157487869262695, 0.3109935224056244], [1.2108335494995117, 1.1522129774093628], [0.05196169763803482, -0.023123234510421753], [-0.789164662361145, 1.1880525350570679], [1.1807576417922974, 1.1341018676757812], [-0.8302278518676758, -0.07295452803373337], [-0.7871691584587097, -0.08948805928230286], [1.1059365272521973, 1.2524678707122803], [-0.5000303983688354, 0.6054698824882507], [1.1496607065200806, 1.1696895360946655], [-0.4202049672603607, -0.8246990442276001], [1.1114325523376465, -0.4517901837825775], [0.7036730051040649, -0.3244057297706604], [1.1772613525390625, 0.39046815037727356], [-0.32494571805000305, -0.8392966985702515], [1.2028521299362183, 0.23058101534843445], [0.5813286900520325, -0.31037503480911255], [-0.8337544798851013, 0.6824564933776855], [-0.5007303953170776, 1.1842198371887207]]]","[[-0.4623541533946991, 0.17983154952526093, 0.06229449436068535, -0.8244937658309937, 0.1537889540195465, 0.633874237537384, -0.08991120010614395, -0.8611075282096863, 0.32472455501556396, 0.059356264770030975, 0.07238944619894028, -0.2983173429965973, -0.33894097805023193, -0.07077006995677948, -0.06524506211280823, 0.41690704226493835, 0.08804231137037277, -0.5112187266349792, -0.1541515439748764, 0.35435011982917786, 0.6116880774497986, -0.21108439564704895, 0.42250871658325195, -0.7782830595970154, -0.713615357875824, 0.9451286792755127, -0.505711019039154, -0.8755776286125183, -0.07316623628139496, -0.7909619212150574, 0.02218056283891201, -0.25789645314216614, -0.6157367825508118, -0.21852639317512512, -0.05728424713015556, -0.961759090423584, -0.621963381767273, 0.22063635289669037, -0.025634121149778366, -0.20757924020290375, -0.11544574052095413, 0.3563084900379181, -0.5297926068305969, -0.13466669619083405, -0.09646648168563843, -0.6142820119857788, 0.03861446678638458, -0.6508556008338928, -0.6980065107345581, -0.9965633153915405, -0.32341334223747253, -0.13431143760681152, -0.5280236601829529, 0.18341317772865295, -0.4816753566265106, -0.5291064381599426, -0.06412673741579056, -0.09681655466556549, -0.5114849805831909, 0.19899964332580566, -0.8855645656585693, -0.21727530658245087, -0.2963750660419464, -0.6141948103904724], [-0.6636065244674683, -0.2697165012359619, 0.3466138541698456, -0.4991888999938965, -0.29392656683921814, -0.7601973414421082, -0.22146138548851013, 0.14693428575992584, 0.3474579453468323, -0.5718125104904175, -0.3779890537261963, -0.14098843932151794, 0.4974440634250641, -0.36086955666542053, -0.155613511800766, 0.15713472664356232, -0.1957734078168869, -0.5324244499206543, 0.09521625190973282, -0.5840713381767273, -0.7836072444915771, -0.704571545124054, -0.17931899428367615, -0.27061721682548523, -0.44345822930336, 0.07609370350837708, -0.2498324066400528, -0.5573177337646484, -0.4682398736476898, -0.5681072473526001, -0.1356552243232727, -0.42920979857444763, -0.2782875597476959, -0.7342707514762878, 0.4094058871269226, -0.9564257264137268, 0.0463695302605629, 0.12264566123485565, -0.33513712882995605, -0.41156721115112305, -0.5704509615898132, -0.5618788599967957, -1.0325813293457031, -0.1733728051185608, 0.10887202620506287, -0.7238864302635193, -0.5212010741233826, -0.00463952636346221, -0.05569258704781532, -0.08627887070178986, 0.029548315331339836, 0.20010215044021606, 0.3953956663608551, -0.46482497453689575, 0.42348021268844604, -0.835616409778595, -0.2365945279598236, -0.4704142212867737, 0.15460167825222015, -0.6154640913009644, 0.1854383647441864, -0.20117568969726562, -0.5567353963851929, -0.9086163640022278], [-0.5810572504997253, -0.20504164695739746, -0.9767424464225769, -0.3110896348953247, -0.31909704208374023, -0.5948097705841064, -0.059510935097932816, -0.23766657710075378, -0.2690567672252655, -0.059091467410326004, -0.7612583637237549, -0.6434826254844666, 0.0766294077038765, -0.28963613510131836, -0.4875548183917999, 0.06557855010032654, -0.37594103813171387, -0.07546201348304749, -0.2812296748161316, -0.3804820775985718, 0.12832345068454742, -0.3165977895259857, 0.024377163499593735, -0.18816840648651123, -0.08108355849981308, 0.10250609368085861, -0.46174857020378113, -0.11691389232873917, -0.2226840853691101, -0.8296260833740234, -0.5129536390304565, -0.8099333047866821, -0.5898325443267822, -0.6530503630638123, -0.111046202480793, -0.614165186882019, 0.03363420069217682, -0.18469533324241638, 0.34546470642089844, -0.7466084361076355, -0.8909080028533936, -0.6487415432929993, 0.037012629210948944, -0.09244072437286377, 0.3815527558326721, 0.08808350563049316, 0.04837363213300705, -0.06092352792620659, -0.48339715600013733, 0.15404143929481506, -0.2083870768547058, -0.4219268262386322, -0.8252047896385193, -0.45990002155303955, -0.935342013835907, 0.20337793231010437, -0.25026753544807434, -0.3768536448478699, -0.42247769236564636, -0.5681189298629761, -0.2534039616584778, -0.1836516261100769, -0.4860857427120209, 0.40445563197135925], [-0.5567412376403809, -0.5010842084884644, 0.21230827271938324, -0.47892212867736816, -0.054521601647138596, -0.9879342913627625, -0.44474324584007263, -0.2831977605819702, -0.5398519039154053, -0.14646442234516144, 0.1517089307308197, -0.07517891377210617, -1.0016571283340454, 0.7649113535881042, -0.7835471630096436, -0.5099344253540039, -0.2496938407421112, -0.6362217664718628, -0.3610236346721649, 0.0802086666226387, -0.06207563728094101, -0.2133745700120926, -0.0641389787197113, -0.35222646594047546, -0.07268193364143372, -0.23349399864673615, -0.804811418056488, 0.7197238802909851, -0.17479674518108368, -0.30131155252456665, -0.34358230233192444, -0.2859269380569458, -0.1315520852804184, -0.13213862478733063, -0.666743814945221, -0.07397598028182983, 0.30659112334251404, -0.560245931148529, -0.36122560501098633, -0.613160252571106, -0.4949169456958771, -0.3668118119239807, -0.7696888446807861, -0.5153376460075378, -0.55177903175354, -0.7207813262939453, -0.843010663986206, -0.5063178539276123, -0.4901038706302643, -0.6901296377182007, 0.007831700146198273, -0.8524934649467468, 0.38014519214630127, -0.055641256272792816, 0.08456148952245712, -0.7625897526741028, 0.12472935765981674, -0.34647318720817566, -0.622382640838623, -0.2568986415863037, -0.797747015953064, -0.14278921484947205, -0.5021136999130249, -0.5626649856567383], [-0.8243901133537292, -0.5930992364883423, -0.4106975197792053, -0.1385708451271057, -0.19934912025928497, -0.6258658766746521, -1.2104482650756836, -0.09246008098125458, -0.7018758654594421, -0.054802704602479935, -0.18484237790107727, -0.5787162780761719, -0.479350209236145, -0.4678323566913605, -0.7910465002059937, 0.13605137169361115, -0.38149774074554443, -0.5700796246528625, -0.8153039216995239, -0.5041635632514954, 0.05537205934524536, 0.08025258779525757, -0.8539838194847107, -0.3363112807273865, -0.2811143696308136, -0.07862582057714462, 0.33158981800079346, -0.5918551683425903, 0.06558635085821152, -0.044410206377506256, -0.044900424778461456, 0.038995590060949326, -0.4088275730609894, -0.10428908467292786, -0.6147748827934265, -0.4577513635158539, -0.3896189033985138, -0.4661838114261627, -0.24199122190475464, -0.11027384549379349, -0.3508293032646179, -0.24429090321063995, -0.5350694060325623, -0.3680417537689209, -0.8171688318252563, -0.9448660016059875, -0.16664418578147888, -0.005319264251738787, 0.1655556857585907, -0.5854333639144897, -0.3972044289112091, -0.3449116349220276, -0.2394440472126007, -0.11800050735473633, 0.2702932059764862, -0.5924803614616394, -0.209732785820961, -0.04487990587949753, -0.2039998322725296, -0.7444572448730469, -0.049854885786771774, 0.0935959741473198, -0.7999480366706848, -0.7653116583824158]]","[[[-0.452669233083725, -0.2468561977148056, 0.22187623381614685, -0.5065816640853882, -0.018797021359205246, -0.33267202973365784, 0.3654189705848694, -0.2554769515991211, 0.05640626326203346, -0.005264481529593468, -0.15038378536701202, -0.22036603093147278, -0.25781020522117615, 0.100450798869133, 0.12434221804141998, 0.02892344817519188, -0.008000102825462818, 0.252591073513031, -0.33663448691368103, -0.35786473751068115, -0.039451587945222855, 0.4744483232498169, -0.08763384819030762, -0.17490503191947937, 0.3004138469696045, 0.27427929639816284, -0.09656859934329987, -0.7951914072036743, 0.07822320610284805, 0.3022652864456177, -0.13444752991199493, 0.4781491458415985, -0.08399751782417297, 0.05973520129919052, 0.13703545928001404, -0.8214378356933594, 0.8483461141586304, 0.10108952969312668, -0.1994188129901886, 0.08047330379486084, 0.26964235305786133, -0.20027515292167664, 0.35339581966400146, -0.3404790163040161, -0.24242544174194336, 0.685486912727356, -0.07597563415765762, 0.9492877125740051, 0.20988349616527557, 0.37813255190849304, 0.0934990644454956, 0.1334206759929657, -0.7461034655570984, -0.1674363613128662, 0.31444987654685974, 0.5310776829719543, 0.06661271303892136, 0.220174640417099, 0.11267976462841034, 0.08676017820835114, -0.8381586670875549, -0.2115495651960373, 0.1784883588552475, 0.6856422424316406], [0.7233731150627136, 0.023041982203722, 0.034369513392448425, 1.051596760749817, 0.17324328422546387, 0.2249177247285843, -0.17735542356967926, 1.2034326791763306, -0.2940639853477478, -0.37456101179122925, 0.12017761170864105, 0.21176160871982574, 0.882787823677063, 0.34310901165008545, -0.1922677457332611, -0.10863764584064484, -0.39275431632995605, -0.8011411428451538, 0.31271272897720337, 0.1735905408859253, -0.11846046149730682, 0.4459514021873474, 0.1603313684463501, 1.1383802890777588, -0.8321645259857178, 0.19852060079574585, -0.6465824246406555, 0.59393310546875, -0.21687635779380798, 0.7624073028564453, -0.0370478592813015, -0.5239400863647461, 0.5614751577377319, 0.5057673454284668, -0.35757458209991455, 1.0715725421905518, -0.8139461874961853, -0.07512088119983673, 0.060449909418821335, -0.15497860312461853, -0.36231908202171326, -0.5050076842308044, -0.43834835290908813, 0.006905284710228443, 0.5314065217971802, -0.6962246298789978, 0.13211733102798462, -0.8219508528709412, -0.8074877262115479, 1.123401165008545, -0.06768639385700226, 0.5760989785194397, 0.8659753799438477, -0.19619376957416534, -0.8374156951904297, 0.44406890869140625, -0.2705463767051697, -0.4247111976146698, -0.8402577042579651, 0.09698682278394699, 0.9449750185012817, 0.07047803699970245, -0.23331065475940704, -0.8188920617103577], [0.2906371057033539, -0.3831668198108673, 0.36905181407928467, 0.29477962851524353, -0.22657445073127747, 0.08093050122261047, 0.2285688817501068, -0.8178339004516602, 0.12756957113742828, 0.11275973916053772, -0.016458965837955475, 0.08845434337854385, 0.1632145643234253, -0.30898064374923706, 0.13428598642349243, 0.058267850428819656, -0.2638694941997528, 0.2742476165294647, -0.11113092303276062, 0.07480068504810333, 0.10220544040203094, -0.13694041967391968, 0.16078738868236542, -0.8307369947433472, 0.045451510697603226, 0.02971450798213482, -0.012516696006059647, 1.159547209739685, 0.3128805458545685, -0.824232816696167, -0.157695010304451, 0.05590410158038139, -0.6929016709327698, -0.44471558928489685, -0.12037378549575806, -0.3105192482471466, 1.2517023086547852, -0.07802533358335495, 0.17774276435375214, 0.09875337779521942, 0.25836822390556335, -0.10807619988918304, 0.12537333369255066, -0.10409970581531525, -0.2513032555580139, -0.029072219505906105, 0.04014265537261963, -0.49249765276908875, 0.06792505830526352, -0.8343425989151001, 0.15791334211826324, -0.057792793959379196, 0.8524755239486694, -0.2593165636062622, 0.40034008026123047, -0.6851635575294495, 0.028460172936320305, 0.11123421788215637, 0.28388819098472595, -0.24542929232120514, -0.21394824981689453, 0.12315897643566132, 0.590689480304718, 0.9404808282852173]], [[0.35819023847579956, -0.29758328199386597, 0.4461115598678589, 0.6110277771949768, -0.07150022685527802, 0.14642158150672913, 0.5514914393424988, 0.11207669973373413, -0.19705072045326233, -0.014932497404515743, 0.27942517399787903, -0.2236572802066803, -0.10214710235595703, -0.6187850832939148, 0.049717340618371964, -0.3845641613006592, -0.29934781789779663, 0.6951661109924316, 0.1405446082353592, 0.9371344447135925, 0.5908368229866028, 0.5069944858551025, -0.16784140467643738, 0.14677025377750397, 0.32933059334754944, -0.0556618794798851, 0.012394549325108528, 0.7858872413635254, 0.283681720495224, 0.18053175508975983, -0.1795732080936432, -0.3034692108631134, 0.23511095345020294, 0.6373904943466187, 0.18094173073768616, -0.8418917655944824, -0.31119081377983093, -0.24970105290412903, -0.2914313077926636, 0.15262667834758759, 0.46537405252456665, 0.8166340589523315, -0.8472649455070496, -0.3517184257507324, 0.46214741468429565, -0.8203352689743042, 0.17283287644386292, 0.15942485630512238, 0.38133499026298523, -0.10022549331188202, -0.11236120760440826, 0.012656621634960175, -0.22484271228313446, 0.2505505084991455, -0.12672159075737, -0.24892334640026093, 0.04154551774263382, 0.44761884212493896, 0.19057466089725494, -0.8594030737876892, -0.21615959703922272, 0.23717999458312988, 0.0013064565137028694, -0.7032719850540161], [0.4318813979625702, 0.1356029212474823, -0.2351207733154297, -0.8545824289321899, 0.14488694071769714, 1.1419535875320435, -0.17779335379600525, 0.38188597559928894, 0.05479603260755539, 0.8423970937728882, -0.37317222356796265, 0.3525395691394806, -0.06164629012346268, 0.9161458015441895, -0.05317370593547821, -0.04805602505803108, 0.2765348255634308, -0.7523150444030762, -0.029172934591770172, -0.842306911945343, -0.8273859620094299, -0.823849081993103, 0.31731998920440674, 0.05306042730808258, -0.3036537766456604, 0.2461470067501068, 0.6306775808334351, -0.843359112739563, -0.8066219091415405, -0.39943012595176697, 0.27092236280441284, 0.2175050973892212, -0.4262436032295227, 0.10927151888608932, -0.07078549265861511, -0.15240967273712158, 0.11019645631313324, -0.12061044573783875, 0.6352330446243286, -0.8186721801757812, -0.8119669556617737, -0.8357445597648621, 1.1785354614257812, 0.056444235146045685, -0.1898152232170105, 0.6751748323440552, -0.5702427625656128, 0.13233447074890137, -0.2145124077796936, -0.6694279909133911, -0.05768046900629997, -0.1088741272687912, 0.08296918869018555, 0.046874210238456726, 0.07015421986579895, 1.1849315166473389, -0.7978353500366211, -0.8247617483139038, -0.009180176071822643, 0.39319145679473877, -0.05840478092432022, 0.828432559967041, 0.3668111562728882, 1.127418041229248], [-0.7531410455703735, 0.13498510420322418, -0.03895135223865509, 0.06955242156982422, -0.10379736125469208, -0.8429251313209534, -0.248138427734375, -0.1886114925146103, 0.16214528679847717, -0.547477662563324, -0.2953113317489624, -0.12938770651817322, 0.009359189309179783, -0.0804913341999054, -0.1995602697134018, 0.0035703484900295734, -0.1475321650505066, 0.3731720447540283, -0.009488031268119812, -0.5264877080917358, 0.20752044022083282, 1.1597821712493896, 0.08016157150268555, -0.06990931928157806, 0.36072486639022827, 0.0010682642459869385, -0.4289209544658661, -0.24992923438549042, 0.4847527742385864, -0.026056410744786263, -0.22971540689468384, 0.26260221004486084, 0.060283273458480835, -0.6137170195579529, -0.043231211602687836, 1.1241430044174194, 0.249164417386055, -0.12774617969989777, 0.08506067097187042, 0.358135461807251, 0.8278727531433105, 1.1564862728118896, -0.771989107131958, 0.024506675079464912, 0.14051184058189392, 0.5710546970367432, 0.2297479212284088, 0.08008532971143723, 0.17446967959403992, 0.15749435126781464, 0.0990246832370758, 0.04693114757537842, 0.08737022429704666, -0.16955715417861938, 0.3414294123649597, -0.8191024661064148, 0.23103724420070648, -0.044844746589660645, -0.20942389965057373, 0.5339242219924927, 0.14757908880710602, -0.09713837504386902, -0.7410348653793335, -0.8191779255867004]], [[0.8937135934829712, -0.03820759803056717, -0.16768904030323029, 0.3097040355205536, -0.1892157793045044, 0.4949425160884857, -0.10506477952003479, -0.3693392276763916, 0.31719693541526794, -0.259086012840271, 0.38251402974128723, 0.30883753299713135, -0.06446509808301926, -0.3607637286186218, 0.27091899514198303, -0.14966922998428345, -0.26855963468551636, -0.009272607043385506, 0.33983445167541504, -0.24076645076274872, -0.39287468791007996, -0.2700752317905426, 0.2220890372991562, -0.007076844573020935, 0.34382134675979614, -0.10999275743961334, 0.20234315097332, 0.23926758766174316, 0.038895390927791595, -0.8198204636573792, 0.2883291244506836, -0.8376110792160034, -0.04829435423016548, 0.18452128767967224, -0.19856108725070953, 0.5709710121154785, -0.11540445685386658, -0.31258994340896606, 0.05426495522260666, 0.6215866208076477, -0.7484681606292725, 0.3669500946998596, 0.0025760415010154247, -0.2253209352493286, 0.015366768464446068, 0.5172771215438843, -0.007401025854051113, -0.030864346772432327, 0.21093419194221497, -0.2172016203403473, 0.19116726517677307, 0.2547292113304138, 0.3764205574989319, 0.28382986783981323, 0.010714832693338394, 0.022613925859332085, -0.14321351051330566, -0.1424020379781723, -0.6434028148651123, 0.168386772274971, 0.29329079389572144, -0.0035393878351897, 0.3898667097091675, -0.14019744098186493], [-0.8347840309143066, 0.29583802819252014, 1.2191283702850342, 0.5976396799087524, 0.6676222681999207, -0.7572877407073975, 0.3134671151638031, 0.10381466150283813, 0.009928550571203232, -0.07367421686649323, -0.8257455825805664, 0.7488164901733398, -0.3403283357620239, 0.2589091658592224, -0.8212955594062805, 0.23220402002334595, 0.36741429567337036, -0.4035938084125519, -0.39705413579940796, 0.2826918363571167, 0.11445917934179306, 0.4548715054988861, 0.036045294255018234, 0.03188258409500122, -0.38353556394577026, 0.2875272035598755, -0.40601444244384766, -0.21194486320018768, -0.07750718295574188, 1.1732826232910156, -0.8178021311759949, 0.6349269151687622, 0.44911274313926697, -0.6230785250663757, 0.611074686050415, -0.8453116416931152, 0.03473811224102974, -0.010740440338850021, -0.05628540366888046, 0.39264827966690063, 1.140097737312317, 1.0766618251800537, 0.0404510572552681, 0.36515024304389954, -0.094663105905056, -0.2075478732585907, 0.07607827335596085, -0.6408178806304932, -0.8226231336593628, -0.2208295464515686, -0.04206951707601547, -0.5644869804382324, 1.1513469219207764, -0.8187803030014038, 0.4310879409313202, -0.32750967144966125, -0.4859274625778198, 0.13396531343460083, 0.9589062333106995, -0.46941542625427246, -0.3633584678173065, 0.244144007563591, 0.09574002772569656, -0.015824710950255394], [-0.5382179021835327, -0.2441888004541397, -0.8243319392204285, -0.08982807397842407, 0.39069002866744995, 1.1625936031341553, 0.14412683248519897, -0.17018763720989227, 0.253754198551178, -0.0795196145772934, 0.06560759991407394, -0.8273726105690002, -0.11928282678127289, 0.04845694825053215, 0.262175977230072, -0.21582484245300293, -0.13093054294586182, -0.1023794636130333, 0.18671894073486328, -0.02050309255719185, -0.044005509465932846, 0.2436983585357666, -0.0876280888915062, 0.25961825251579285, 0.03219687566161156, -0.14220380783081055, 0.2351265251636505, 0.4402226209640503, 0.03191549703478813, -0.47420769929885864, 0.0868503749370575, 1.119782567024231, -0.37190884351730347, 0.19839540123939514, -0.09388620406389236, 0.4665244221687317, -0.10226958990097046, 0.04648316651582718, 0.054302677512168884, -0.8376336693763733, -0.6266024112701416, -0.533582866191864, -0.035853058099746704, -0.16103430092334747, -0.26427578926086426, 0.027805158868432045, -0.24420064687728882, -0.10922472923994064, -0.17893725633621216, -0.3673999309539795, 0.007559317164123058, 0.3173729479312897, -0.8395698070526123, 0.2554504871368408, -0.7465466856956482, -0.002662292681634426, 0.0899847149848938, -0.009249882772564888, 0.3520362973213196, 0.04059009999036789, 0.12456399202346802, -0.144404336810112, -0.3530629873275757, 0.2785491347312927]], [[0.3239208161830902, 0.641942024230957, 0.08364422619342804, 0.19379514455795288, -0.09406682848930359, 0.22451432049274445, -0.4022509455680847, 0.06386047601699829, 0.8336239457130432, -0.4621182978153229, 0.21250101923942566, 0.08683241158723831, -0.7588648200035095, 0.18394091725349426, 0.4979392886161804, -0.3879076838493347, 0.06822608411312103, 0.6697778105735779, -0.007975254207849503, 0.2826344668865204, 0.24414077401161194, 0.15569141507148743, -0.2497325986623764, -0.14290590584278107, -0.2790720760822296, -0.1210068091750145, 0.05490543320775032, 0.22896726429462433, 0.3431876003742218, -0.045937925577163696, -0.7768975496292114, -0.1804143190383911, -0.24386842548847198, 0.00583271961659193, 0.4281519651412964, 0.06638253480195999, -0.19421623647212982, 1.0680516958236694, -0.14176321029663086, 0.22555196285247803, -0.8308711051940918, -0.17021895945072174, -0.8560607433319092, 0.9091732501983643, 0.38545504212379456, -0.04429639130830765, -0.8349251747131348, 0.20987161993980408, 0.4313540756702423, 0.22037437558174133, -0.17861944437026978, -0.8019437789916992, -0.11027897894382477, -0.2449052333831787, -0.30443274974823, 0.7247485518455505, 0.017446458339691162, -0.04492834210395813, 0.6074861288070679, -0.04469028115272522, -0.5813590288162231, -0.1530693769454956, 0.1714235246181488, 1.0347381830215454], [0.8037697076797485, -0.8232651948928833, 0.17927321791648865, -0.8338768482208252, -0.7694059610366821, 0.9428024291992188, -0.037639863789081573, -0.6396532654762268, -0.807055652141571, 0.07044829428195953, -0.3217756748199463, 0.48922258615493774, 1.1710193157196045, 0.039716608822345734, 1.1321327686309814, 0.7031569480895996, 0.4082384705543518, -0.5554823875427246, 0.20923298597335815, -0.18463510274887085, -0.1971006840467453, 0.4014218747615814, 0.40584519505500793, 0.15599066019058228, 0.13964390754699707, -0.10022217035293579, 1.1812926530838013, -0.019537802785634995, 0.5222384929656982, 0.5365715026855469, 0.47748273611068726, 0.8775240778923035, 0.18849703669548035, 0.11892490088939667, 0.7839874029159546, -0.2788239121437073, -0.1369720697402954, -0.8605213165283203, 0.19178570806980133, -0.8007274866104126, 0.408305823802948, 0.36866331100463867, -0.36543890833854675, -0.841266393661499, -0.5016164779663086, -0.5377747416496277, 0.7274224758148193, -0.5539718866348267, -0.3478604555130005, -0.7215984463691711, -0.0903133749961853, 1.202745795249939, 0.06827549636363983, 0.050058335065841675, -0.11530835181474686, -0.6581259369850159, 0.08512671291828156, -0.8029040694236755, -0.8433783650398254, -0.1671372652053833, 1.164493203163147, 0.44727790355682373, -0.8461658954620361, -0.8390732407569885], [-0.6717748045921326, 0.21798895299434662, -0.1796022206544876, -0.030044641345739365, -0.0830840915441513, -0.8328585624694824, -0.015542048029601574, 0.08180101960897446, 0.3920629918575287, 0.19402073323726654, 0.33790332078933716, -0.24215368926525116, -0.7262542843818665, -0.018747616559267044, -0.8175366520881653, -0.01129134651273489, -0.1304256021976471, -0.21033751964569092, -0.3327457010746002, 0.21808619797229767, 0.04472363740205765, -0.5030933022499084, -0.2658497095108032, -0.4329903721809387, 0.195549875497818, 0.3051872253417969, -0.8278803825378418, 0.05820535495877266, 0.06756864488124847, 0.34188926219940186, 0.10562694072723389, 0.07982945442199707, -0.12919126451015472, -0.3754938244819641, -0.7268338203430176, -0.0012181347701698542, 0.15098661184310913, 1.1336407661437988, 0.5279011726379395, 0.31484872102737427, 0.681648313999176, -0.23349705338478088, 1.1892106533050537, 0.26284539699554443, -0.5866472721099854, 0.0977853313088417, 0.8239673376083374, 0.3632282614707947, -0.5141685009002686, 0.3185752332210541, 0.19743573665618896, -0.8110424280166626, 0.14727917313575745, 0.06276730448007584, -0.06377412378787994, -0.38197076320648193, -0.423956036567688, 0.07419000566005707, 1.2137173414230347, -0.40707728266716003, -0.8331380486488342, -0.1714436262845993, 0.2799447774887085, -0.585811972618103]], [[-0.14738650619983673, 0.7670038938522339, -0.34157681465148926, 0.06525642424821854, 0.37551355361938477, 0.8607746958732605, -0.7995573878288269, 0.4565116763114929, -0.8678632974624634, -0.12416395545005798, -0.18355175852775574, 1.0509155988693237, 0.06931130588054657, 0.386435329914093, -0.17644058167934418, 0.2711634039878845, 0.03910498693585396, 0.10364561527967453, 0.384280264377594, 0.26644593477249146, 0.030726823955774307, -0.10140455514192581, 0.05084564536809921, -0.8210833668708801, -0.30963581800460815, 0.1369476616382599, -0.16489464044570923, 0.15183235704898834, 0.1463976800441742, -0.4489177465438843, 0.22708165645599365, -0.23327602446079254, 0.13321170210838318, 0.07229344546794891, 0.7598184943199158, 0.17675158381462097, 0.10615715384483337, 0.3103881776332855, 0.28759002685546875, -0.1145613044500351, -0.29726749658584595, 0.004888871684670448, 0.20237046480178833, 0.26718637347221375, 0.4352336525917053, -0.7913013696670532, 0.021570824086666107, -0.11736470460891724, 0.04479105398058891, 0.10225771367549896, -0.6109569668769836, -0.4155499041080475, -0.08464717864990234, -0.0598020926117897, 0.06635452806949615, 0.277076780796051, -0.33611732721328735, 0.1178036481142044, -0.31959348917007446, 0.9914096593856812, 0.2584671974182129, 0.0010322064626961946, 0.3549336791038513, -0.804363489151001], [1.1795639991760254, -0.8380261063575745, 0.601590096950531, 0.47844910621643066, 0.18259099125862122, -0.8354897499084473, 1.2046029567718506, 0.27312517166137695, -0.3396514654159546, 0.25751158595085144, -0.014664929360151291, -0.8189703226089478, -0.8308567404747009, -0.6497761607170105, 0.1860029548406601, -0.23276478052139282, -0.39687874913215637, 0.974412202835083, 0.9913467168807983, -0.589809000492096, -0.2526456415653229, -0.29635119438171387, 1.151689887046814, 0.3431490361690521, 0.7576871514320374, -0.4519421458244324, 0.04777185618877411, -0.2510455846786499, -0.3705126941204071, -0.09558333456516266, -0.37071096897125244, -0.022402847185730934, -0.8085975646972656, 0.42849379777908325, -0.8411886692047119, 0.1433069109916687, -0.8389820456504822, 0.7860119342803955, 0.0883529856801033, 0.3549562692642212, -0.08321782201528549, -0.5969553589820862, -0.22553440928459167, -0.5910723209381104, -0.827144980430603, 1.1886013746261597, 0.42724916338920593, 0.17629994451999664, 0.031208690255880356, -0.5956056714057922, 0.5267845392227173, 0.7524216771125793, 0.2349666804075241, -0.30522555112838745, 0.06530383229255676, -0.8282581567764282, 0.4544079303741455, 0.09347402304410934, 0.2917036712169647, -0.8182492256164551, 0.5456082820892334, -0.3880354166030884, -0.824821949005127, 0.978905200958252], [-0.816737174987793, -0.30564388632774353, 0.2512856125831604, 0.01279130857437849, -0.2904244363307953, 0.36664867401123047, -0.34604963660240173, -0.06504184007644653, 1.1441842317581177, -0.2969377636909485, -0.2099977433681488, 1.1940062046051025, 0.2086929976940155, 0.0748601108789444, -0.15482664108276367, 0.08514861017465591, 0.0013185690622776747, -0.19162607192993164, -0.823440432548523, -0.24481838941574097, 0.28363728523254395, -0.31959882378578186, -0.8352788090705872, 0.06466381996870041, 0.46364426612854004, 0.19034859538078308, 0.23751719295978546, -0.3659849464893341, 0.006940023973584175, 0.036179959774017334, 0.009191704913973808, 0.12517690658569336, 0.5701425671577454, 0.05771838501095772, -0.30825275182724, -0.5927361845970154, 0.43775221705436707, -0.6260994672775269, -0.320842444896698, -0.4118945896625519, 0.10149998217821121, 0.3896154463291168, -0.48327693343162537, 0.14559237658977509, 0.15796279907226562, -0.5264782309532166, 0.16331402957439423, -0.044432301074266434, -0.13165828585624695, -0.12978146970272064, 0.22456884384155273, 0.05381255969405174, 0.20530110597610474, 0.057970017194747925, -0.22544635832309723, 0.09399472177028656, 0.006010236218571663, 0.02195783331990242, 0.17183266580104828, -0.6355331540107727, 0.12222485989332199, 0.2552925646305084, 0.9382597208023071, 0.6339885592460632]]]","[[0.16922062635421753, -0.07366738468408585, -0.09555801004171371], [0.07249939441680908, 0.09117551892995834, -0.1636776626110077], [-0.01326607633382082, 0.028915071859955788, -0.015651796013116837], [-0.14022839069366455, 0.13615356385707855, 0.0040733530186116695], [-0.020556937903165817, 0.062410254031419754, -0.04185653477907181]]"
