"[0.059543438255786896, -0.04131149500608444]","[0.030493460595607758, 0.004688953049480915]","[-0.028599729761481285, 0.028316890820860863]","[0.07795245945453644, -0.12702681124210358]","[0.046482328325510025, -0.032644227147102356]","[-0.022217877209186554, -0.029449550434947014]","[-0.21063348650932312, 0.06467761844396591]","[0.07083064317703247, 0.0005918699316680431]","[-0.08080160617828369, -0.09832163900136948]","[-0.02832370065152645, 0.0034683519043028355]","[-0.011981782503426075, -0.0027094974648207426]","[0.005775695666670799, -0.10354243963956833]","[-0.013727694749832153, 0.0041458564810454845]","[-0.06481719017028809, 0.06886609643697739]","[-0.22801850736141205, 0.35315951704978943]","[0.3541906774044037, 0.20862261950969696]","[0.08261408656835556, 0.2066875845193863]","[-0.03263641148805618, 0.07444102317094803]","[0.04649239405989647, 0.002750446554273367]","[0.07491429895162582, -0.10730254650115967]","[0.2907094955444336, -0.051449697464704514]","[0.18960285186767578, 0.45381486415863037]","[-0.022093337029218674, -0.036484215408563614]","[-0.112228162586689, 0.06258868426084518]","[0.04869751259684563, -0.2434380203485489]","[0.1400449126958847, 0.06730316579341888]","[-0.057322122156620026, -0.09233659505844116]","[-0.012473351322114468, -0.1408827304840088]","[0.057475101202726364, 0.07176126539707184]","[-0.0601237453520298, -0.296734094619751]","[-0.06624030321836472, -0.3093601167201996]","[-0.32241302728652954, -0.001667614676989615]","[0.07923777401447296, 0.1402665227651596]","[0.03329954668879509, 0.08737575262784958]","[0.006738826632499695, -0.008506964892148972]","[0.07570662349462509, -0.10750982165336609]","[0.018452275544404984, 0.2382868379354477]","[0.04486865550279617, 0.0193634070456028]","[0.032461460679769516, -0.007267160341143608]","[0.19321048259735107, -0.19357259571552277]","[0.12299370765686035, -0.09228648990392685]","[-0.12605851888656616, -0.2577769458293915]","[-0.05175235494971275, -0.23892435431480408]","[0.019646037369966507, 0.0612407848238945]","[0.05078349635004997, 0.04262265935540199]","[0.10082884132862091, -0.016631603240966797]","[-0.138462632894516, 0.08553119748830795]","[-0.10528948158025742, -0.03221023455262184]","[-0.1478850394487381, 0.31740817427635193]","[-0.04242226108908653, 0.3243071734905243]","[-0.12110888957977295, 0.05691450834274292]","[0.20401373505592346, -0.22909606993198395]","[-0.06032296270132065, 0.21071435511112213]","[0.0818028599023819, -0.19502349197864532]","[-0.008506812155246735, -0.015667682513594627]","[-0.09160786867141724, -0.18447211384773254]","[0.05209064111113548, 0.018678884953260422]","[0.19776754081249237, 0.3026244342327118]","[-0.06720851361751556, 0.2374320775270462]","[-0.15165896713733673, 0.2952967584133148]","[0.06629832088947296, -0.2783559262752533]","[-0.06599307805299759, -0.06765338778495789]","[-0.23834165930747986, -0.24359716475009918]","[0.0824122205376625, -0.060198865830898285]"
"[0.11811617761850357, 0.14456835389137268]","[-0.01943454146385193, 0.0011008426081389189]","[0.100252665579319, -0.00133064528927207]","[0.23203924298286438, -0.16579337418079376]","[-0.01595524698495865, -0.013735626824200153]","[0.005134103819727898, -0.01930149644613266]","[-0.009291663765907288, -0.13983379304409027]","[-0.19503851234912872, -0.29547956585884094]","[-0.22925664484500885, 0.05436010658740997]","[-0.20984891057014465, 0.09635902941226959]","[-0.09455244243144989, -0.248788982629776]","[0.180841326713562, -0.2148391157388687]","[0.026132721453905106, -0.01816483400762081]","[-0.10203684866428375, 0.20221002399921417]","[-0.17749722301959991, 0.010556397028267384]","[-0.021205702796578407, -0.2468176633119583]","[-0.04694484919309616, -0.09525401890277863]","[0.06861475110054016, -0.07102782279253006]","[-0.22115029394626617, 0.24175675213336945]","[-0.17894738912582397, -0.13628460466861725]","[0.03763493150472641, 0.16017509996891022]","[-0.017393769696354866, 0.00029054307378828526]","[-0.10157232731580734, 0.038182392716407776]","[-0.0009572847047820687, 0.0019372992683202028]","[0.05262848734855652, 0.026816386729478836]","[-0.026836702600121498, 0.19907356798648834]","[-0.21158522367477417, -0.24802403151988983]","[-0.04382552206516266, -0.21688954532146454]","[-0.008950235322117805, 0.2538532018661499]","[-0.06133409962058067, 0.06635385006666183]","[-0.021781669929623604, 0.021600747480988503]","[-0.0697253942489624, 0.15705913305282593]","[0.14850471913814545, -0.3126066029071808]","[-0.021477926522493362, -0.046811945736408234]","[-0.1497238576412201, -0.13808304071426392]","[-0.020949596539139748, -0.032867927104234695]","[0.11604394763708115, 0.1615583300590515]","[0.0033659343607723713, -0.1829148232936859]","[-0.05613403394818306, 0.034332677721977234]","[-0.0968848466873169, -0.24696297943592072]","[0.06521572917699814, -0.11039574444293976]","[-0.2905298173427582, -0.05369415134191513]","[0.048032402992248535, 0.011696301400661469]","[0.050789300352334976, 0.01982390135526657]","[-0.06915353983640671, -0.04207518324255943]","[-0.004091872833669186, 0.011043950915336609]","[0.06182476505637169, 0.1463991105556488]","[0.04305558279156685, -0.1796533614397049]","[-0.1661401093006134, 0.351961225271225]","[0.04401799663901329, 0.1853013038635254]","[0.18693625926971436, -0.183904230594635]","[0.12175178527832031, 0.12471377104520798]","[0.06717976182699203, -0.0020773475989699364]","[0.15395130217075348, -0.10000671446323395]","[0.1826590746641159, 0.36411064863204956]","[-0.0639934167265892, 0.1396566927433014]","[0.12414205074310303, 0.3142178952693939]","[-0.026269398629665375, -0.0287711713463068]","[0.19794070720672607, 0.2155129611492157]","[0.1273796409368515, 0.02742631733417511]","[0.32972171902656555, 0.15044990181922913]","[-0.03013952448964119, 0.10407961159944534]","[0.385238379240036, 0.0964488834142685]","[0.0632917582988739, -0.2673112154006958]"
"[-0.007640637457370758, -0.07529594004154205]","[0.08308849483728409, -0.019338976591825485]","[-0.017042694613337517, -0.008988511748611927]","[0.13151071965694427, 0.13822580873966217]","[-0.35639020800590515, -0.06694076210260391]","[0.07047019153833389, -0.050192441791296005]","[-0.06234624236822128, 0.27166083455085754]","[-0.11544167995452881, 0.22924254834651947]","[-0.005899165757000446, 0.08350727707147598]","[-0.02801275998353958, -0.06049441173672676]","[0.006178789772093296, 0.0872565507888794]","[-0.05402214080095291, -0.15196622908115387]","[-0.04133465886116028, 0.032573144882917404]","[0.0758424922823906, 0.0696573257446289]","[-0.15366896986961365, 0.09233792871236801]","[-0.07552451640367508, -0.48146796226501465]","[0.3643372058868408, 0.23182572424411774]","[0.07002824544906616, -0.09145290404558182]","[0.07719678431749344, 0.03492873162031174]","[-0.010471554473042488, 0.04399363696575165]","[-0.2254743129014969, -0.23355428874492645]","[-0.019534362480044365, 0.05852483958005905]","[-0.004840321838855743, 0.0026588095352053642]","[-0.019297946244478226, 0.212127685546875]","[0.0639561340212822, -0.005226781591773033]","[0.023874985054135323, 0.05358273535966873]","[0.14139790832996368, 0.25353726744651794]","[0.026144392788410187, 0.04172969609498978]","[0.03746116906404495, 0.02240501344203949]","[-0.023037534207105637, 0.048835862427949905]","[0.07684110105037689, -0.05529911071062088]","[0.1771780252456665, -0.07254508882761002]","[-0.2764378786087036, 0.14723771810531616]","[0.1747361570596695, 0.3130953013896942]","[0.07375908643007278, 0.09128449112176895]","[-0.1578902006149292, 0.32827943563461304]","[-0.1814662516117096, -0.06109233945608139]","[0.10607969760894775, 0.08690504729747772]","[0.03646888956427574, -0.2039729803800583]","[0.15248948335647583, 0.2665591537952423]","[-0.11369387060403824, -0.1719261258840561]","[0.16227127611637115, 0.08694721758365631]","[-0.07188840210437775, -0.018639232963323593]","[0.02633596397936344, -0.20957514643669128]","[-0.15789654850959778, -0.059367720037698746]","[-0.12469097971916199, 0.2929593026638031]","[0.023034539073705673, 0.16591516137123108]","[0.00042625400237739086, 0.0013923642691224813]","[-0.05881098657846451, 0.019681639969348907]","[0.12503795325756073, 0.1328970491886139]","[0.03069855272769928, 0.22733747959136963]","[0.05353311821818352, 0.13435843586921692]","[-0.20543207228183746, -0.047065556049346924]","[0.016199437901377678, -0.04104691743850708]","[-0.008248102851212025, -0.003970193676650524]","[0.22909028828144073, 0.011927035637199879]","[-0.18739397823810577, 0.007488701492547989]","[0.025463512167334557, -0.030904868617653847]","[-0.14352820813655853, -0.25369927287101746]","[-0.04279357194900513, 0.0234577227383852]","[0.19869516789913177, -0.2616152763366699]","[0.06270906329154968, 0.12070388346910477]","[0.01651470549404621, -0.09190621972084045]","[0.2369462251663208, -0.24783135950565338]"
"[0.06310106813907623, 0.10152102261781693]","[0.15518702566623688, 0.0662606880068779]","[-0.1478043645620346, -0.05892867222428322]","[-0.03669255971908569, 0.026703502982854843]","[-0.01317758858203888, 0.021913908421993256]","[0.05003034323453903, 0.033316586166620255]","[-0.26248931884765625, -0.03965848684310913]","[-0.06061248481273651, -0.025517156347632408]","[-0.047307081520557404, 0.0323164276778698]","[0.0160995963960886, -0.06224602088332176]","[-0.1300915777683258, 0.16939003765583038]","[0.10626516491174698, 0.0841779112815857]","[0.12613387405872345, 0.1117333397269249]","[-0.028199415653944016, 0.04794315993785858]","[-0.015201417729258537, 0.00225671473890543]","[0.07031755149364471, 0.03266211971640587]","[0.04577813297510147, -0.0541715994477272]","[-0.1736539602279663, 0.27670228481292725]","[-0.01210735086351633, 0.1814384162425995]","[0.010025245137512684, 0.028072478249669075]","[0.14216725528240204, 0.30295586585998535]","[-0.05331673473119736, 0.1977144479751587]","[-0.12769612669944763, -0.3274793326854706]","[0.21209096908569336, 0.2835234999656677]","[0.008634211495518684, 0.042571160942316055]","[0.24133358895778656, -0.2013997733592987]","[-0.09889932721853256, 0.025714462623000145]","[0.06762062013149261, -0.04219716042280197]","[0.007860222831368446, -0.051793958991765976]","[-0.14508570730686188, 0.0009945537894964218]","[0.01731848530471325, 0.044859807938337326]","[-0.2654755711555481, -0.0221093837171793]","[-0.18383820354938507, 0.3240754008293152]","[0.12023953348398209, 0.025768352672457695]","[-0.002315962454304099, 0.01969718001782894]","[0.021150579676032066, -0.04204074665904045]","[0.008502647280693054, 0.2063753306865692]","[-0.15858295559883118, -0.29315727949142456]","[-0.09691397100687027, 0.13890643417835236]","[0.11727137863636017, -0.037984974682331085]","[0.015786970034241676, 0.005862888414412737]","[-0.06820042431354523, 0.07790103554725647]","[0.06157100200653076, -0.10581009835004807]","[0.011686776764690876, 0.11357986181974411]","[-0.10178500413894653, -0.19996295869350433]","[-0.06260287016630173, -0.20676499605178833]","[0.028812766075134277, 0.13732871413230896]","[0.04170747101306915, 0.02283380553126335]","[0.14473916590213776, 0.295656681060791]","[-0.30982911586761475, -0.0016888219397515059]","[0.4058932662010193, 0.23640139400959015]","[0.2859318256378174, -0.14236778020858765]","[0.055565789341926575, -0.07526284456253052]","[-0.2554386854171753, 0.08946441113948822]","[0.26642629504203796, 0.12299732118844986]","[0.1443115472793579, 0.10563334077596664]","[0.018595023080706596, -0.004640405066311359]","[-0.008024293929338455, 0.13468395173549652]","[-0.13134795427322388, -0.0937880426645279]","[-0.07135165482759476, -0.01199139840900898]","[0.0020623423624783754, 0.20825406908988953]","[-0.042097873985767365, -0.030918095260858536]","[0.13283215463161469, -0.23690128326416016]","[0.1070663332939148, -0.12248264253139496]"
"[-0.20240841805934906, -0.0013995240442454815]","[-0.049554526805877686, -0.08868151158094406]","[-0.17876842617988586, -0.14979276061058044]","[0.07037118822336197, 0.12527747452259064]","[0.0048681264743208885, -0.0045609623193740845]","[-0.21248923242092133, 0.005565061699599028]","[-0.14886967837810516, -0.06660262495279312]","[-0.1907196193933487, -0.006684931926429272]","[-0.03963261470198631, 0.09207302331924438]","[-0.13336104154586792, -0.3075157105922699]","[3.543077036738396e-05, 0.00637513492256403]","[-0.2037094682455063, 0.08932626247406006]","[-0.1932620406150818, -0.009370091371238232]","[-0.0007918720366433263, 0.006796725559979677]","[-0.029587101191282272, 0.22698290646076202]","[-0.001643776660785079, 6.816955283284187e-05]","[0.2189216911792755, 0.07370424270629883]","[-0.17096790671348572, -0.10990200191736221]","[0.15897168219089508, -0.32869628071784973]","[-0.030344175174832344, -0.17337194085121155]","[0.18710090219974518, -0.06354313343763351]","[0.17672099173069, -0.10652908682823181]","[-0.05157730355858803, 0.19006693363189697]","[0.06660591065883636, 0.19973361492156982]","[0.18382802605628967, -0.034188415855169296]","[-0.040357980877161026, 0.09252871572971344]","[0.06774920225143433, -0.12181873619556427]","[0.004286663606762886, 0.0030060051940381527]","[-0.05730961635708809, 0.175996795296669]","[-0.0050232186913490295, 0.015178356319665909]","[0.002574379090219736, -0.00041377171874046326]","[0.06542278081178665, 0.07156723737716675]","[-0.013013741001486778, 0.21629582345485687]","[0.09159518778324127, 0.15291562676429749]","[0.1446090191602707, -0.22881044447422028]","[0.1867920309305191, 0.10321099311113358]","[0.003731418401002884, 0.007172297220677137]","[-0.0010664025321602821, 0.004087316337972879]","[-0.2321687787771225, 0.23471927642822266]","[0.19740155339241028, -0.09276670217514038]","[0.003868588712066412, 0.0004033439909107983]","[-0.15010815858840942, 0.2754749655723572]","[-0.005357672460377216, 0.000535167520865798]","[-0.0013660944532603025, 0.014208870008587837]","[0.11914186179637909, 0.07123706489801407]","[0.004878056235611439, -0.004013212397694588]","[0.27902650833129883, 0.2140415757894516]","[-0.11406473815441132, 0.1172260120511055]","[0.00815854873508215, -0.004262601491063833]","[0.006810598075389862, -0.008443973958492279]","[-0.009659302420914173, -0.0014311813283711672]","[0.14504525065422058, 0.2960810959339142]","[-0.12888693809509277, 0.02852979116141796]","[-0.03951064497232437, 0.3049570620059967]","[-0.00666145421564579, 0.22573882341384888]","[0.0027721005026251078, 0.010135042481124401]","[-0.07890186458826065, 0.11706092208623886]","[0.00924281869083643, -0.24948789179325104]","[-0.052684638649225235, 0.00942506268620491]","[0.21397732198238373, 0.024915076792240143]","[0.001277807168662548, -0.004107926040887833]","[-0.07566039264202118, -0.11285053193569183]","[-0.1329972743988037, 0.18378707766532898]","[0.010147898457944393, 0.00776754692196846]"
